
//<![CDATA[

lanesSide = 3;
patchesAhead = 4;
patchesBehind = 0;
trainIterations = 50000;

var num_inputs = (lanesSide * 2 + 1) * (patchesAhead + patchesBehind);
var num_actions = 5;
var temporal_window = 3;
var network_size = num_inputs * temporal_window + num_actions * temporal_window + num_inputs;

var layer_defs = [];
layer_defs.push({
    type: 'input',
    out_sx: 1,
    out_sy: 1,
    out_depth: network_size
});
layer_defs.push({
    type: 'fc',
    num_neurons: 30,
    activation: 'relu'
});
layer_defs.push({
    type: 'fc',
    num_neurons: 10,
    activation: 'relu'
});
layer_defs.push({
    type: 'regression',
    num_neurons: num_actions
});

var tdtrainer_options = {
    learning_rate: 0.01,
    momentum: 0.00,
    batch_size: 50,
    l2_decay: 0.01
};

var opt = {};
opt.temporal_window = temporal_window;
opt.experience_size = 4000;
opt.start_learn_threshold = 100;
opt.gamma = 0.7;
opt.learning_steps_total = 10000;
opt.learning_steps_burnin = 1000;
opt.epsilon_min = 0.0;
opt.epsilon_test_time = 0.0;
opt.layer_defs = layer_defs;
opt.tdtrainer_options = tdtrainer_options;

brain = new deepqlearn.Brain(num_inputs, num_actions, opt);

learn = function (state, lastReward) {
    brain.backward(lastReward);
    var action = brain.forward(state);

    draw_net();
    draw_stats();

    return action;
}

//]]>
    
/*###########*/
if (brain) {
brain.value_net.fromJSON({"layers":[{"out_depth":127,"out_sx":1,"out_sy":1,"layer_type":"input"},{"out_depth":30,"out_sx":1,"out_sy":1,"layer_type":"fc","num_inputs":127,"l1_decay_mul":0,"l2_decay_mul":1,"filters":[{"sx":1,"sy":1,"depth":127,"w":{"0":0.12171863020638199,"1":-0.14829646358592996,"2":-0.04897422147849751,"3":0.2828695956715058,"4":0.07500832393329733,"5":0.11241549379815753,"6":-0.10383615014516598,"7":0.1637607423252392,"8":0.11351727542264634,"9":-0.02100223373769085,"10":0.03666083620414083,"11":0.01745853362522893,"12":-0.10301660639060355,"13":-0.056324683106326795,"14":0.2190904845843613,"15":-0.08530143856888846,"16":-0.17234499227555694,"17":0.06797772437391636,"18":-0.12033369990168082,"19":0.04132893366991128,"20":-0.1781078543121928,"21":-0.0003455517266783991,"22":0.022467213042298626,"23":-0.007515331382613589,"24":0.06289748259421243,"25":0.13134622273316748,"26":-0.16990875126970237,"27":-0.03897608676738792,"28":-0.0230386416926444,"29":-0.05925474014942002,"30":-0.05234075106475433,"31":0.04729982220489573,"32":-0.012045427644375968,"33":-0.05434259378357933,"34":-0.13451184912704894,"35":0.0883984695300286,"36":0.09427864158545549,"37":-0.08623340656226497,"38":0.03317916904958784,"39":-0.16693992484677017,"40":-0.08535472201023625,"41":-0.0038270360024675086,"42":0.1347790525926266,"43":0.057710153758644495,"44":0.14193331745320864,"45":-0.08175004121376174,"46":0.020852955480859667,"47":-0.08833600663710524,"48":-0.17738854147842095,"49":0.13074877604425847,"50":0.01577934848172984,"51":-0.04437306443474357,"52":-0.08024799179638632,"53":0.06628496758063357,"54":-0.011705732051195092,"55":-0.05675872876432635,"56":-0.1734099472960576,"57":0.1302073539736303,"58":-0.03484298357146896,"59":-0.051543619713804736,"60":-0.22758168321304942,"61":-0.09947241130660232,"62":-0.020329115914995793,"63":0.02038713966022445,"64":0.008645881966718037,"65":0.022593583854644488,"66":-0.020916453520861165,"67":-0.09541245124699718,"68":-0.01850983467149916,"69":-0.1257090777930077,"70":0.0049485298765171845,"71":-0.022880824279484447,"72":0.07490808300674587,"73":-0.13440200877362588,"74":-0.03685715496052969,"75":0.14950575237837102,"76":0.14474572952114287,"77":-0.14925627127087873,"78":0.01331692587940047,"79":0.005351482221816076,"80":-0.02911128544023909,"81":0.012505512159104547,"82":0.032950585112539545,"83":0.15925599129896942,"84":0.18637463657173492,"85":-0.0841317503113798,"86":-0.1233885953916025,"87":-0.08627710701635402,"88":-0.04732088061312652,"89":0.08286299147312891,"90":-0.2447119183299438,"91":-0.09238553698245151,"92":-0.049419462682313134,"93":0.07876547588247784,"94":0.10919552257254787,"95":0.0644760408983602,"96":0.08018848196344447,"97":-0.041731867005864426,"98":0.08132250021265977,"99":0.009472521846658942,"100":-0.14194331470459828,"101":0.04382515326443995,"102":0.030968218501225917,"103":-0.01937145156224986,"104":-0.060500538946570016,"105":-0.07687037440562093,"106":-0.03778065345658758,"107":-0.03155094204062342,"108":0.059017146579794795,"109":-0.00033509262971206054,"110":-0.20793098093692047,"111":0.04056288850144605,"112":-0.04097563523826282,"113":-0.03447386918446328,"114":-0.07554602601537547,"115":0.2087331454969921,"116":0.1334746690530134,"117":-0.0350735720379161,"118":0.08162505551926165,"119":0.0045634126610642955,"120":0.004728437973574248,"121":-0.0881916191384899,"122":0.2176495115952657,"123":0.07027269349974613,"124":-0.14828959649226597,"125":-0.1820866585792043,"126":-0.026969617361929727}},{"sx":1,"sy":1,"depth":127,"w":{"0":-0.15625444960985632,"1":-0.029338795666990044,"2":0.11584650619597398,"3":0.19391470397898145,"4":0.07610464606212368,"5":0.013351882329026439,"6":-0.03345492619190077,"7":-0.006563060136338545,"8":-0.07956558289999725,"9":-0.025414210058577115,"10":-0.12125667173122238,"11":-0.08989713285793334,"12":0.09412383059067549,"13":0.04783625470939555,"14":0.016120528963923093,"15":0.09373294431797077,"16":0.17313186378297524,"17":-0.11610181386441512,"18":-0.09770615557314538,"19":-0.11000028459865059,"20":-0.01735462794040003,"21":-0.14315210258906164,"22":0.10456789166572952,"23":0.051894410233693046,"24":0.12565958977667724,"25":0.04602013671289837,"26":0.03423178016309386,"27":0.027669126046632624,"28":-0.06289142265312433,"29":0.0540218112180378,"30":0.04316319834116134,"31":-0.04404161105478228,"32":0.15996856711503574,"33":-0.006993815621716634,"34":-0.1452514792366995,"35":-0.1005590665930442,"36":-0.004385126143843786,"37":0.054323143574340524,"38":-0.013046133519242784,"39":0.06957344753582345,"40":-0.0033028678860776376,"41":-0.12215479407032649,"42":-0.22507577819233024,"43":0.1075290857165976,"44":-0.0067462955418947715,"45":-0.10835764919286676,"46":-0.11117853442094136,"47":0.031375681340345865,"48":0.06395422618139589,"49":-0.0577759465708468,"50":-0.14149742639274906,"51":0.007115317472137372,"52":-0.00323397005284832,"53":0.04325085025770946,"54":0.11117769114841577,"55":0.097388559894163,"56":0.04108226311466478,"57":-0.09924525442931126,"58":-0.14690931133992322,"59":0.3091094251069659,"60":-0.24857731906140865,"61":0.004534164999682599,"62":-0.023449710118980602,"63":0.13033928867017824,"64":0.03615186383551049,"65":0.1240851115304085,"66":0.024293483941066223,"67":0.04712299300821129,"68":-0.09214941102563885,"69":0.02393549065758489,"70":0.003144465535862316,"71":-0.10177180877846027,"72":0.0004765591142842744,"73":0.005244992398724795,"74":0.053612083337535504,"75":-0.03965462926564183,"76":0.07239369887334819,"77":-0.002875019201985714,"78":-0.04094913065449374,"79":-0.12789076620706666,"80":0.04475345319853724,"81":0.053071070863006296,"82":0.18951470899787798,"83":-0.0026522719757892882,"84":0.006870415547675211,"85":-0.03547137199092472,"86":0.16456925570188002,"87":0.00022487255105002206,"88":0.04909535775169556,"89":0.09981120866472883,"90":-0.21011498694157918,"91":0.16556363556518428,"92":-0.2411489633333982,"93":-0.13346771910500302,"94":-0.06702201043588947,"95":0.060918526227355684,"96":-0.03679158800619515,"97":-0.021873022828242147,"98":0.08691520846013366,"99":-0.03349058203539326,"100":0.14219566644448947,"101":-0.19665255243355245,"102":0.020820696696271696,"103":-0.02022377782927711,"104":-0.026268503529211274,"105":0.03631625802225904,"106":-0.08849491067176438,"107":-0.07309920568148692,"108":-0.046856003162899326,"109":-0.0882811859617837,"110":-0.03974679517491966,"111":-0.03633638964686743,"112":0.09131490695473393,"113":-0.03711033425258853,"114":0.04075999726564586,"115":0.07103749808554045,"116":0.06592691088711475,"117":-0.012439028934116735,"118":-0.05943887031863102,"119":0.10159230968363558,"120":-0.0642600160807854,"121":0.018603780068928523,"122":0.06990221526434653,"123":-0.15674823491984938,"124":-0.22955621383159167,"125":0.07793858643990198,"126":0.011620047232628604}},{"sx":1,"sy":1,"depth":127,"w":{"0":-0.06151096839284393,"1":-0.09596963867935904,"2":-0.09185512855453352,"3":1.1732117029117144,"4":-0.06380348501273887,"5":-0.001742328090178512,"6":0.10880070752163454,"7":0.051734671730705145,"8":-0.06344850578201917,"9":0.08932686584499294,"10":0.07808756692372124,"11":-0.2178866075013926,"12":0.10750681826465255,"13":-0.03042355727462769,"14":-0.02134594117206728,"15":0.15897249079501793,"16":-0.003629911755312569,"17":0.057215619095906674,"18":-0.11936834832811408,"19":-0.04473878182897841,"20":-0.06528620240768003,"21":0.002286244352499329,"22":-0.13006192031023775,"23":-0.07536660671445816,"24":-0.07524075785394616,"25":-0.04839538559128058,"26":-0.08948939107344368,"27":0.1439679450943624,"28":-0.015876906184256464,"29":0.10534208536490339,"30":0.10719139740635993,"31":0.48219307222444124,"32":-0.13000796270975934,"33":0.03349845663170755,"34":0.06262552179350236,"35":-0.03636753834968872,"36":-0.08049919182809771,"37":-0.001136461427742296,"38":-0.019987473524569623,"39":-0.24471781164052833,"40":-0.13085901894008167,"41":0.1255545420302575,"42":-0.09315066388321176,"43":0.07000719964452817,"44":-0.07074391040659263,"45":0.010445440894260683,"46":-0.19839801495570353,"47":-0.02312263090884488,"48":0.06357205309988867,"49":-0.126764591466455,"50":-0.02927719250100712,"51":0.0424988492411823,"52":0.07093305533128902,"53":0.05023413548915078,"54":0.020417893335552783,"55":-0.035029294928698246,"56":0.14763312138345744,"57":0.14437981728790553,"58":-0.02924593554829032,"59":0.08739642539690629,"60":-0.25875727805703713,"61":-0.09975437280987541,"62":-0.11354567912662887,"63":0.05589594877423119,"64":0.27512880374554305,"65":-0.2468522840590165,"66":0.013115348127710967,"67":0.0482344303902673,"68":-0.05747431085708707,"69":-0.0024454937674029064,"70":-0.08922119624207575,"71":0.07711101358300979,"72":-0.07549265902960293,"73":-0.12719533817072243,"74":0.06872941682798153,"75":0.008070102282912753,"76":0.12502695318576845,"77":0.07266556273206502,"78":-0.06663203922403156,"79":-0.34044148173378175,"80":-0.18401633535598239,"81":0.13564626492060544,"82":-0.09045143960266293,"83":0.028262866150208475,"84":-0.07403684400347883,"85":0.053614357327081266,"86":-0.20248145632059772,"87":-0.05402378663149885,"88":0.08876458343279332,"89":0.07398710244137484,"90":0.08258611743614587,"91":-0.16300342412063365,"92":0.062214948285873185,"93":-0.2557750322217079,"94":-0.03134049092894236,"95":-0.016297784552832352,"96":0.025097058901979184,"97":0.208442931894368,"98":-0.13102052565974523,"99":-0.07443606270068785,"100":0.03516435286692447,"101":0.09454336258296368,"102":0.04149804185839494,"103":-0.05956095008837464,"104":0.07554657039457577,"105":-0.22234865457291103,"106":-0.031568846769708954,"107":0.09901459299032786,"108":0.15449991618250025,"109":-0.03853448645652667,"110":-0.0986013252564226,"111":0.008996084564636866,"112":-0.026144550678767618,"113":0.09936034080951536,"114":-0.11340977086985247,"115":-0.045445822506063244,"116":-0.004628635845901666,"117":-0.04015578376193483,"118":0.10081525847546126,"119":-0.19126606666983165,"120":-0.08160254079810152,"121":0.04402710452093342,"122":0.050099612969186795,"123":-0.04597227610158572,"124":0.08513029671948522,"125":-0.05645324158724609,"126":-0.21676217512093887}},{"sx":1,"sy":1,"depth":127,"w":{"0":-0.06517208957072651,"1":0.09662838582119569,"2":0.07375243372191778,"3":-0.13159796834997267,"4":0.19126926868106361,"5":0.026646761802999134,"6":0.007821517599748343,"7":0.14922628889481565,"8":0.03215776983750245,"9":0.08900191035031713,"10":-0.0469170485475611,"11":-0.11488811770386073,"12":-0.005512471532941768,"13":0.004041949612382729,"14":0.05690387210483093,"15":-0.056584705891551526,"16":0.016119679144172862,"17":0.045484709589061575,"18":0.02278241844325946,"19":0.08492337616215319,"20":0.06583916378810788,"21":-0.08399123546481643,"22":0.10454068924541046,"23":-0.07239514121421906,"24":-0.08565986587034037,"25":0.13060540022706268,"26":-0.02261489707403034,"27":-0.04614551473353276,"28":-0.014909447959482482,"29":-0.04887663418458224,"30":0.09829990404848526,"31":0.0465453803454969,"32":0.05129491771422928,"33":-0.010548952114663678,"34":0.1864411963427513,"35":-0.12270019286804959,"36":0.10080803439064724,"37":0.009449755383613753,"38":-0.001466244066098156,"39":0.0035273470634232355,"40":0.04964028285535644,"41":-0.058141552392731846,"42":-0.06535390611730395,"43":0.0705075098224282,"44":-0.08463815892727096,"45":-0.05044407450070833,"46":0.025323157742569956,"47":-0.004250112022584402,"48":-0.016801778604376632,"49":0.016776962599785106,"50":0.08852506277292227,"51":0.016219306076731183,"52":-0.04277576696677961,"53":0.08751485740251969,"54":-0.009271600732235232,"55":0.12047435943180121,"56":0.009597647698254426,"57":-0.22082143600052087,"58":0.19504943500500574,"59":-0.16114842886304304,"60":-0.07811841377670738,"61":-0.0022827977500474972,"62":0.07384697968392324,"63":0.08335902917737356,"64":0.0647307799783818,"65":-0.09753665281743759,"66":0.10000915977016743,"67":-0.059257013970188226,"68":-0.008599543798754316,"69":-0.003913878356005233,"70":0.07980505996009316,"71":0.020264279623396414,"72":-0.02882672354458612,"73":0.08602910668870371,"74":0.08006132152417982,"75":0.003674903262551753,"76":0.1826699372347744,"77":0.07259148879368985,"78":0.05510433056825761,"79":0.08840687615334084,"80":-0.03534711015749592,"81":-0.034953682474345,"82":-0.018842398544670208,"83":0.06466000432537368,"84":-0.08793123076192383,"85":-0.05714599308106057,"86":0.2056383811555918,"87":-0.04961436738933829,"88":-0.06653889508059742,"89":0.020480397522920895,"90":-0.1738179596573846,"91":0.20640344129298954,"92":-0.16011090224920027,"93":-0.1822806328914262,"94":0.10170894693160758,"95":0.025239545568654955,"96":0.015201073702913924,"97":0.09967278321702898,"98":0.017559723002083284,"99":-0.06583854492052196,"100":-0.00649382305517236,"101":-0.012237282292891796,"102":-0.01007618385618723,"103":0.06216785176156745,"104":-0.11042841792204515,"105":-0.0348333748311116,"106":-0.006890727535781449,"107":-0.01230292473973724,"108":0.10606751865885249,"109":0.04701231007631297,"110":0.11560031232613872,"111":-0.05566834153739152,"112":0.002123399979120855,"113":-0.08107091942335218,"114":-0.10429114842985984,"115":0.08096212297294975,"116":0.028802912836518632,"117":0.023366442821427916,"118":-0.022475972658664824,"119":0.006573776612778413,"120":0.0781151434152612,"121":-0.031313496546164665,"122":-0.09695607908723765,"123":-0.247108493781212,"124":-0.040320448228751686,"125":-0.05383793025377507,"126":-0.04855913982149995}},{"sx":1,"sy":1,"depth":127,"w":{"0":0.004364194045082372,"1":0.00445901348937375,"2":-0.0771900473778292,"3":0.12284245984042073,"4":-0.03205698036352552,"5":0.05717310626338856,"6":0.09429252272909634,"7":-0.05242766639880853,"8":-0.18300765768867205,"9":-0.07892024420112427,"10":-0.09520837404276568,"11":-0.01592403543312703,"12":-0.030547225746579056,"13":0.06389354673455502,"14":-0.1332047854661923,"15":-0.06568419552988562,"16":-0.09435477417060256,"17":-0.09035038897727557,"18":0.10513657850323235,"19":-0.025152465633547717,"20":-0.12167449851099614,"21":-0.039104724595154565,"22":-0.1978149596937924,"23":0.0465609681512059,"24":0.03152888274732365,"25":-0.012644721137158553,"26":-0.060602731004024295,"27":-0.04830986972716219,"28":-0.10092096890526424,"29":-0.04584961556193315,"30":0.03168877777607612,"31":0.20367063522892,"32":0.015124825072991083,"33":0.05973273289060633,"34":0.02408477651260477,"35":-0.02229742770022424,"36":0.0133788844105984,"37":0.036461646827791024,"38":-0.035151671538875204,"39":-0.05943172480378835,"40":0.12935529347441688,"41":0.10418811853845432,"42":0.07705386673712204,"43":-0.10179680244312372,"44":-0.040935632552029894,"45":0.11524259802642425,"46":0.05519942115183678,"47":-0.045484152216256686,"48":0.04186192700056988,"49":-0.08568933160699205,"50":-0.2003689315477751,"51":-0.04927267640723336,"52":-0.18565987158437927,"53":-0.042696868160733786,"54":-0.11329108384587772,"55":-0.15221126432411186,"56":-0.12675138052594995,"57":0.05036464856573301,"58":-0.2002733137631723,"59":0.1347640622528428,"60":0.07450504546864209,"61":-0.13275136991171987,"62":0.08660285148979963,"63":-0.061225775771533056,"64":-0.18385587944954626,"65":0.13687280899658333,"66":0.01075228669938677,"67":-0.021060050280842894,"68":0.09658347042005984,"69":-0.01651549417259521,"70":0.02718105254854519,"71":-0.044515341716541784,"72":-0.0297133448492214,"73":-0.13057031455993076,"74":-0.0350468553997767,"75":-0.1957459284427425,"76":-0.042870403886522024,"77":0.007476639697812379,"78":0.01980231594425525,"79":-0.011017386477616811,"80":-0.026642883311776264,"81":-0.01184470268313598,"82":-0.03231346838444114,"83":-0.07151015190063549,"84":-0.008839880002708562,"85":-0.02915996932793277,"86":0.038258314438884986,"87":-0.0157046589483669,"88":-0.14029462235760462,"89":-0.019235245434274052,"90":-0.2048096477080027,"91":-0.0089544368673102,"92":-0.10972782755757682,"93":0.07092331871148656,"94":-0.06565899470277575,"95":-0.010050179224543036,"96":-0.22188749675018749,"97":-0.02859182823422568,"98":-0.021608474694128098,"99":0.01584755915155942,"100":0.041704643869558494,"101":-0.12055370621738463,"102":-0.12477110637199933,"103":-0.00015337767247996286,"104":-0.04476077602585895,"105":0.1338977666548871,"106":0.04083171661903964,"107":0.0011788831166321225,"108":0.08771931778437023,"109":0.003861718766870391,"110":-0.17318291982538817,"111":-0.02047871747859226,"112":0.06568805913222167,"113":0.17848660839362282,"114":0.013621392861915362,"115":-0.047355153141896596,"116":-0.10122532712950166,"117":0.037276371594750245,"118":-0.009111888984949088,"119":-0.12980016914721024,"120":0.09792679557880818,"121":-0.04975796777054301,"122":0.11935404998789545,"123":-0.28957479345516973,"124":0.12375929217207893,"125":-0.20747325858318372,"126":-0.28568058650539463}},{"sx":1,"sy":1,"depth":127,"w":{"0":0.10766106119961764,"1":0.03038521813811433,"2":0.21072722181447556,"3":3.554595812569138,"4":0.12554675276040014,"5":0.20210995999022613,"6":0.11466997443338389,"7":-0.05694839122233377,"8":-0.02515684931044347,"9":0.2752144680968804,"10":0.12155720395601859,"11":-0.018846975012184564,"12":-0.029689246221731993,"13":-0.18296295232429002,"14":-0.16590941810198512,"15":-0.09918560644240079,"16":0.03538065955044302,"17":0.0019039002825491033,"18":-0.0519995983307746,"19":0.054956290767637736,"20":0.055503288120377005,"21":-0.1347864653184939,"22":-0.270972725958458,"23":0.04080866992142537,"24":-0.037406317956332154,"25":0.27479867380123685,"26":0.0893856548634974,"27":0.017537140862522463,"28":-0.11835165860658348,"29":0.03599068462963765,"30":0.0995833594124158,"31":0.7764975838472631,"32":-0.04069364990169484,"33":-0.015534999267020611,"34":0.08122278457408091,"35":-0.020456938343027,"36":-0.1576590669538563,"37":-0.109784977666724,"38":0.038433640733219754,"39":-0.2835416298097666,"40":-0.0682224889192083,"41":0.09953121973069438,"42":-0.06679063433871997,"43":-0.023847952040913455,"44":0.03226108787071367,"45":0.05690911397812711,"46":-0.23245999159608935,"47":-0.15334848300651044,"48":0.10800632018471723,"49":0.03920113975837638,"50":-0.009628539277615455,"51":-0.007829317086560126,"52":-0.055801072596910244,"53":-0.12266926591486406,"54":-0.035342841745397376,"55":-0.07271312972261207,"56":0.019540489550638,"57":-0.15963478278041893,"58":-0.2715454512745292,"59":0.09699673806401267,"60":0.11203000396196336,"61":0.07786244223340809,"62":0.079881354228003,"63":-0.059115124589917196,"64":0.40143505846958905,"65":-0.14414423524337655,"66":-0.06047018334129852,"67":-0.1205982961296865,"68":0.022346445290645715,"69":0.05769477359899436,"70":-0.03778210901713855,"71":0.08751737885158671,"72":-0.30718065403862355,"73":0.02549877782527511,"74":-0.048492383965221514,"75":-0.00016874785257703698,"76":-0.09406116530889072,"77":0.09215908592781585,"78":0.14063775025375677,"79":-0.07177923532399932,"80":-0.04452332782723995,"81":0.0028281490026373026,"82":-0.05228004597960287,"83":-0.02992263445932469,"84":-0.06294319530895609,"85":0.07638948929570466,"86":-0.025788269937234046,"87":0.04210202363218091,"88":-0.16917810739775402,"89":-0.23443692553322054,"90":-0.009296781407168015,"91":-0.2234433030802774,"92":0.03699941314999749,"93":0.054073752572414244,"94":0.057828960752791515,"95":-0.19014268945726065,"96":0.03963584210730038,"97":0.22279259447882932,"98":-0.06957702252264895,"99":-0.006781201942521548,"100":0.0020923833157869554,"101":-0.0733184701660132,"102":-0.12363736610638332,"103":-0.08711272723756303,"104":0.08485592866086028,"105":-0.14174759326492575,"106":-0.18756856300464153,"107":-0.08690056506633727,"108":-0.07538896284705193,"109":0.13886257631226626,"110":-0.07083826820958031,"111":0.0692884642752865,"112":-0.13081904771160083,"113":-0.022055121813968494,"114":0.014855228499409246,"115":-0.05615293828774649,"116":-0.0736198320674855,"117":0.018903263437887532,"118":0.04022981504408641,"119":-0.016593486724898045,"120":-0.04592758848347729,"121":-0.12095736943084875,"122":-0.14874685820350045,"123":-0.02528729293337422,"124":-0.04877789034788277,"125":-0.04363644693131478,"126":-0.04338533230503432}},{"sx":1,"sy":1,"depth":127,"w":{"0":0.057981921984513705,"1":-0.045697862358615865,"2":0.0011438993107280783,"3":-0.23486872186897242,"4":0.005892558912749934,"5":-0.14110925701717056,"6":-0.1340823705273711,"7":-0.21046784015330722,"8":-0.043310164668725344,"9":0.004631803941051702,"10":0.01024090728261136,"11":0.024323971216947213,"12":0.03233096378095396,"13":0.003384753014146733,"14":0.08143444766080246,"15":-0.2140781171975505,"16":-0.1230903716139042,"17":-0.035457743943601794,"18":0.004056904769468218,"19":0.09804372637623289,"20":0.11181498388247124,"21":-0.027072823205579376,"22":-0.06453765142660756,"23":0.04227896403161031,"24":-0.025736266989796752,"25":0.1017124009864042,"26":-0.0003483918695712046,"27":0.05883243600349496,"28":-0.14252888098758631,"29":-0.06513969301215052,"30":-0.02224399031037042,"31":-0.0281671249465441,"32":-0.09171652697284367,"33":-0.007868090741333825,"34":0.07865313180279151,"35":-0.0488537716051649,"36":0.04832222436935238,"37":-0.06702338141213043,"38":0.12248158052160207,"39":-0.18277838651458075,"40":0.07944794620973665,"41":-0.14107386543006215,"42":-0.10788778579643447,"43":-0.09797745139725705,"44":-0.036828976619402674,"45":-0.0358002135835843,"46":-0.158969797045159,"47":0.0022139455709001593,"48":0.09704857224053778,"49":-0.08410398197526192,"50":0.07718187460248341,"51":0.00903915383563176,"52":0.10158674636683714,"53":-0.09001524992236896,"54":-0.04248794694635725,"55":-0.01984664811272028,"56":0.15293412681986393,"57":-0.1684492666351603,"58":-0.12482094352951219,"59":-0.21606240955333397,"60":-0.017633073891557757,"61":0.0866540287939104,"62":0.034590016192578635,"63":-0.13145048815883623,"64":-0.012761786150469422,"65":-0.1104667517578815,"66":-0.06688417148482684,"67":-0.12148117163402901,"68":-0.04412039949014021,"69":-0.09909701727984495,"70":-0.06666492049481108,"71":-0.27856870775103004,"72":-0.07634311548404517,"73":-0.019485743818950782,"74":0.007108105560339634,"75":0.0242829942438413,"76":-0.15438765296920137,"77":-0.13723913492631812,"78":-0.1140645307383285,"79":-0.10976089584911498,"80":-0.1390304090554606,"81":-0.044971466916826894,"82":-0.06770638402491276,"83":-0.12400957252114665,"84":-0.12392763947249762,"85":-0.003367689240148861,"86":-0.05067586932220652,"87":0.028414049511220573,"88":-0.06160637893532122,"89":0.00007166393285145772,"90":-0.026944444333459005,"91":0.010004915872565906,"92":-0.3264929735409762,"93":0.12492293067435854,"94":-0.05722972157460884,"95":0.08583735075613967,"96":-0.07444160749306254,"97":-0.2539591200217588,"98":0.03301696883521224,"99":0.022827822928351327,"100":0.02722134831756664,"101":-0.03342958592521372,"102":-0.024873571413882987,"103":-0.10037587014062245,"104":0.046879736885984,"105":-0.04183773642336596,"106":0.2246193452808026,"107":-0.08367721036203342,"108":-0.016578978858292463,"109":0.11930981141156832,"110":-0.02915794433560519,"111":-0.07940175553654821,"112":-0.07718401914500486,"113":0.08473221852315037,"114":-0.04755410598986465,"115":0.0194399284514115,"116":-0.06442837794350101,"117":-0.1270999300238002,"118":0.07270066833767462,"119":0.045552828944099,"120":-0.026107037749658547,"121":-0.02375277613697583,"122":0.3191755587771831,"123":-0.0728060770089608,"124":-0.19806944896275044,"125":-0.1327084288411179,"126":-0.2549953106138192}},{"sx":1,"sy":1,"depth":127,"w":{"0":-0.11940303800704552,"1":-0.14281244975816146,"2":0.13380075019186669,"3":0.03176165974469852,"4":0.07836558087319527,"5":0.12284107465894481,"6":0.13279282740775386,"7":-0.05389887782318758,"8":-0.04334562901783012,"9":-0.01968961366471074,"10":-0.04577187309461269,"11":0.003324806029716856,"12":-0.09436094469608941,"13":0.005069397998079292,"14":-0.031209203735147798,"15":0.03375725729508559,"16":0.020312481409701336,"17":-0.03640145947805263,"18":0.03009652593344204,"19":0.01610856217930194,"20":0.008790684662860412,"21":0.08729391635273394,"22":-0.002890052893824749,"23":0.12334572984794608,"24":-0.013171625217284443,"25":0.13641557303246488,"26":0.047674683137039126,"27":0.022335405477373057,"28":-0.0064463777825121875,"29":0.002240510045945147,"30":-0.013736645422363155,"31":0.004458602233489646,"32":0.009798642253118743,"33":0.040175206922536615,"34":0.06974843967194001,"35":-0.04848643370314088,"36":-0.07146461556547629,"37":-0.13101667512559514,"38":-0.02302698494097996,"39":-0.07390030068233817,"40":-0.09740266890785663,"41":0.06823692120581339,"42":-0.015256999532405752,"43":-0.06957425671792099,"44":-0.04650505679282514,"45":-0.025999524563306554,"46":0.03947624185616391,"47":-0.2060513630561278,"48":0.09476158706389565,"49":-0.08636489072301946,"50":-0.06797358196515287,"51":-0.020886476191137815,"52":-0.09953342583392841,"53":0.07202519361188997,"54":0.02152141425528394,"55":0.06449931038879292,"56":-0.028591963414989253,"57":-0.18817539325867885,"58":0.27986276139745225,"59":-0.2059430982953877,"60":-0.2017852947321576,"61":-0.1126699713131554,"62":0.020249881111290675,"63":0.0744515392325112,"64":0.010214049106460907,"65":-0.027280598808208552,"66":-0.2073574754729179,"67":0.005225797189496343,"68":-0.100480499285708,"69":0.06603359211719174,"70":-0.003464020130609782,"71":0.06247881738084273,"72":-0.04593643231016612,"73":-0.024465084721084832,"74":-0.03261333118283654,"75":-0.016792595669503217,"76":0.10376391415552215,"77":0.0028976529171420387,"78":0.008317720398456569,"79":-0.029262112300337324,"80":-0.0651974560381642,"81":0.017656498661083764,"82":-0.10577428213230664,"83":-0.04599899657866695,"84":0.20605440311101123,"85":-0.03391992875885746,"86":0.011273503830598726,"87":-0.040637829132400397,"88":0.01855441296016849,"89":0.274962131366021,"90":0.02604723880306657,"91":-0.08290516364269226,"92":-0.11039611691428583,"93":-0.12096542789061301,"94":0.04996516255242123,"95":0.037461543995465016,"96":0.06314020912590476,"97":0.08196707505864773,"98":0.15770738486784625,"99":0.15316406592061793,"100":-0.04324576674945419,"101":0.00025066182408661335,"102":-0.042169018264111596,"103":-0.030681489524690582,"104":0.07768575515689904,"105":-0.05143641059140749,"106":-0.02868783199578422,"107":-0.04787767845849453,"108":0.004212223765428515,"109":-0.0171179387181721,"110":0.0466467882311057,"111":0.0398528466852093,"112":-0.05688896756329587,"113":0.09468888064070817,"114":-0.04156749196806512,"115":-0.14516654617988914,"116":0.06622525285851635,"117":-0.09389500004798376,"118":-0.09107997325138258,"119":0.174566624973508,"120":0.0007177109518412702,"121":-0.01119846070818905,"122":-0.1652991259936495,"123":-0.03704611208723961,"124":-0.08610675375187168,"125":-0.050123055538555374,"126":-0.013865046667216252}},{"sx":1,"sy":1,"depth":127,"w":{"0":-0.06395696266985681,"1":-0.13916407374815815,"2":-0.23554847345736296,"3":-0.06575111489639482,"4":-0.03964833663547445,"5":-0.1338483755842791,"6":-0.013249946002930068,"7":-0.2236808609827503,"8":-0.08855877445473644,"9":-0.07424252372285987,"10":-0.008464476525100956,"11":0.1614055718613262,"12":0.04813989915155811,"13":0.10835131119731309,"14":-0.14267831353690494,"15":-0.11704709625091778,"16":-0.06293849375838925,"17":0.035961227030473455,"18":0.12022733080611851,"19":0.013221076747934721,"20":0.1451814952058555,"21":-0.09192123594601559,"22":-0.10935516786599936,"23":-0.13774885189684097,"24":-0.15858850922044004,"25":-0.10723045761505882,"26":0.10509207437028367,"27":-0.14363791566714587,"28":-0.10968305513004863,"29":0.0994102760824459,"30":-0.15399989315402846,"31":0.001888753615023391,"32":-0.0267684361685781,"33":0.03884178582633519,"34":-0.06456246503140924,"35":0.06262934193092705,"36":0.0008465253052892315,"37":0.0524814712127156,"38":-0.060482538717469225,"39":-0.183711041594384,"40":-0.06268286870342402,"41":0.08332402116498457,"42":-0.18347112526211337,"43":-0.14056323399512752,"44":0.0013418490686631082,"45":-0.1027307217549497,"46":-0.018342900415639726,"47":0.03528266838176069,"48":0.037044441434563806,"49":-0.14595537201103742,"50":-0.055572818214399224,"51":-0.07220865827545685,"52":-0.021316867458261068,"53":-0.07375433063089053,"54":0.04088470009243792,"55":-0.09846044985721536,"56":-0.18865166527059968,"57":-0.14864704922352848,"58":-0.14329229308114913,"59":-0.01389006596872444,"60":-0.2086375636920435,"61":-0.17471065861070326,"62":-0.020075909926650707,"63":0.0176725212727765,"64":0.10538106423278631,"65":-0.05069162195116017,"66":-0.018103048925128047,"67":0.08747937907672,"68":-0.0830828637715386,"69":-0.09135450220464447,"70":-0.005660910309256145,"71":0.12253333878104022,"72":-0.12324719860479334,"73":0.00014138385232835088,"74":0.0455035401701853,"75":0.05312383829338181,"76":0.003392738061562209,"77":-0.05776373931934773,"78":0.18784613390497829,"79":0.05886072799953601,"80":-0.06387924933302033,"81":-0.025812392323609493,"82":0.0018457739826874295,"83":0.010214259808912812,"84":-0.05634891906074724,"85":0.0634457928145853,"86":-0.058793532685625496,"87":0.04778351436122221,"88":-0.00935168044053462,"89":-0.018696499853295374,"90":-0.1768451654405163,"91":0.2685635636961625,"92":-0.09135352706936559,"93":-0.15199980400882762,"94":-0.21824121423599988,"95":-0.026859158480359708,"96":-0.13584567563145386,"97":-0.059446480477893866,"98":-0.1124881349378623,"99":0.014465634801931568,"100":0.008304330760566811,"101":-0.01980662864422974,"102":0.05553357701727125,"103":-0.0641469412905086,"104":-0.05974261725928232,"105":-0.1402826227132872,"106":-0.0036135293136167327,"107":0.10042407896926829,"108":0.09501409463025157,"109":-0.12628225958932895,"110":0.005084356888549203,"111":0.045204329870987874,"112":-0.04506738400789816,"113":-0.08094516421052332,"114":0.00848155125666266,"115":-0.04210873417022691,"116":0.01418590450951663,"117":-0.07878895108621366,"118":-0.05884588147743589,"119":-0.12648439645595375,"120":-0.02363425285552926,"121":0.0763450756837852,"122":0.08822957497806212,"123":-0.15499333376163887,"124":0.10361752530969927,"125":0.011100495577745883,"126":-0.12466290581502265}},{"sx":1,"sy":1,"depth":127,"w":{"0":-0.07463491099767279,"1":0.18889794767933288,"2":0.1803616596591166,"3":-0.3564808113662136,"4":-0.23129709266165352,"5":0.10334205643743052,"6":0.03682069257070457,"7":-0.046533005297885656,"8":0.22345123757215335,"9":0.13011010385120197,"10":-0.08671652075499037,"11":-0.30820477863673257,"12":0.013106795385304027,"13":-0.09186563406985354,"14":-0.022949859869453172,"15":0.06074090910496287,"16":0.07322690959117356,"17":-0.1151395267210276,"18":-0.18948406376092597,"19":-0.12208090691840509,"20":0.054200297178225346,"21":0.08473030597389385,"22":0.22591048411879938,"23":0.18037519852531025,"24":-0.027406559781440108,"25":-0.23003766642175308,"26":-0.021045711583003196,"27":0.046989441910712276,"28":0.019007573644814015,"29":0.04391037072232219,"30":0.2523704695900835,"31":-0.2804795570952908,"32":-0.023597276202497235,"33":-0.23235624891556997,"34":0.17861734267308899,"35":-0.03506931626655421,"36":-0.022978094032429834,"37":0.2129034573101212,"38":0.0468199257232161,"39":0.031635911782690096,"40":-0.06319612028600165,"41":-0.01577692061095295,"42":-0.050872890606428925,"43":0.048740558040327946,"44":0.2724486492664642,"45":0.11331658727101133,"46":-0.017554120123626032,"47":-0.1101494692613104,"48":0.12469473843191788,"49":-0.12166409051552542,"50":0.03324165791344356,"51":0.2309981971774358,"52":0.024737701165717073,"53":-0.11370924719931223,"54":0.011601393525336665,"55":0.10049113671098714,"56":0.06906188758075986,"57":0.05205817542485053,"58":-0.11706943981794513,"59":-0.18032121282730387,"60":0.013944583785781927,"61":0.0429655748619593,"62":0.07414184005722692,"63":0.14815930254638204,"64":-0.19376838704202215,"65":0.09696369230750325,"66":-0.07454462222496923,"67":0.12709690500664014,"68":-0.023611403983234792,"69":0.07920553261991949,"70":0.28647352939665804,"71":0.03152974883358379,"72":-0.019597576501916868,"73":-0.1386259447536751,"74":0.1284574788347371,"75":-0.02989093581009688,"76":0.03263955200468417,"77":0.0752693918007549,"78":-0.08802915726687996,"79":-0.06542672204514009,"80":-0.026140040176757803,"81":-0.008769555880372565,"82":-0.1540361757032581,"83":-0.038552012459573466,"84":0.15973324283642695,"85":-0.0986888919580414,"86":0.029844741152069726,"87":-0.10336554077469931,"88":-0.04587272767242855,"89":-0.07375726929989543,"90":0.08448680441118417,"91":-0.2837711621068345,"92":-0.1855281407085245,"93":0.06875841643544453,"94":-0.10612668789082995,"95":0.1071069193220761,"96":0.038282406346166364,"97":-0.10766293984543417,"98":-0.008927476554800856,"99":-0.038824127521601734,"100":-0.01170507159483321,"101":-0.0030858165216362823,"102":0.032237007703796956,"103":0.10281376999354605,"104":-0.009855508225455308,"105":0.06706087458190935,"106":-0.042718827644593484,"107":0.08091536104625195,"108":-0.07630305864659359,"109":0.027395773195440155,"110":0.12891243875840075,"111":-0.09545668384742219,"112":0.05264159404358922,"113":-0.12114555763342544,"114":-0.004557676887204224,"115":-0.11737476810026456,"116":0.10311269984205179,"117":0.12879537370554628,"118":0.05745217687285083,"119":0.03119703625103728,"120":-0.23342382876324885,"121":-0.008609175353996764,"122":0.2077802556379595,"123":0.04768440553610704,"124":-0.1666049453438978,"125":-0.09592206359178963,"126":-0.03434467844028053}},{"sx":1,"sy":1,"depth":127,"w":{"0":-0.12461628610229587,"1":-0.0014175606249668515,"2":-0.09650863996558555,"3":0.060794597191083016,"4":0.18866622369717156,"5":0.06251712256002699,"6":-0.033618624008559826,"7":-0.01221572529357468,"8":-0.12225029147245588,"9":-0.09888557996358785,"10":-0.11066758989004638,"11":0.0400432925549231,"12":-0.012063052586084878,"13":0.024023966017794128,"14":-0.0959106655602697,"15":-0.09080418619403119,"16":-0.34213770111698827,"17":-0.04221129740183281,"18":0.009696087703757334,"19":0.09926057101626103,"20":0.06050469300006706,"21":-0.01622027350050013,"22":-0.12944935875607957,"23":0.010055774594681467,"24":0.05687096102353605,"25":0.08250820816681169,"26":0.10274197428545681,"27":0.07006933433797975,"28":0.08772312113242764,"29":-0.1106573419642352,"30":0.0030627120836796548,"31":0.12777735194871256,"32":0.19652478680975194,"33":-0.009868510846096173,"34":-0.07142365982482972,"35":-0.2564033904643007,"36":-0.04808248479864951,"37":-0.11910449363371649,"38":-0.07349732523776092,"39":0.09872915692623943,"40":0.06756997272545365,"41":0.07283973227303757,"42":-0.06656471073875228,"43":-0.08522388690095195,"44":-0.11114506926827755,"45":-0.09138169257296778,"46":0.05167231001065774,"47":-0.016228640072714424,"48":-0.26480176408057343,"49":-0.10323672143952849,"50":-0.14260051805158816,"51":0.04017182919081476,"52":0.005466466235008973,"53":0.001889121989256434,"54":-0.026947532356564233,"55":0.04731681854946864,"56":0.22765183258903166,"57":-0.05422482607328502,"58":-0.08035476194402663,"59":0.05074110691599397,"60":-0.13506547486656817,"61":-0.030350765102628657,"62":0.04631572195029516,"63":-0.05953311309356403,"64":0.023947174918623398,"65":-0.07601552354427046,"66":-0.06097320853511567,"67":-0.018382080442720078,"68":0.1146656536085228,"69":-0.19366489373589085,"70":-0.093441306518718,"71":0.0728842469187717,"72":0.07890081761958408,"73":0.11296677627611781,"74":0.10030366452415813,"75":-0.07501293487088671,"76":-0.0553789831362379,"77":0.0141015236238726,"78":0.05360465709676351,"79":0.09365458692544348,"80":0.015941836584721116,"81":-0.0327424090280463,"82":-0.05675587766051216,"83":0.006963850053798987,"84":-0.06841298222628746,"85":0.18609402683668413,"86":0.09672157178989255,"87":0.14208025995254217,"88":-0.11427355884353468,"89":0.2927227423967287,"90":-0.33916080327523696,"91":0.02484179735716242,"92":-0.047581823476664564,"93":0.1060137442776514,"94":-0.07447801542249037,"95":0.05946174501688571,"96":0.14693014150889125,"97":-0.03991380597477884,"98":-0.0211595928235169,"99":0.03729066323020149,"100":0.08513999265416523,"101":-0.04759778201858344,"102":-0.16231799642287276,"103":0.0920955613581075,"104":0.05352756693828979,"105":-0.1328998946442543,"106":0.16699101842185796,"107":0.11734732180134223,"108":-0.12147110556907674,"109":0.043542617300936136,"110":-0.035868789478510105,"111":-0.004781707101300351,"112":0.09228872280174226,"113":-0.12167185695524234,"114":0.057209239287191814,"115":-0.1560378477957212,"116":-0.07278461073990855,"117":-0.012465369498969987,"118":0.023735509264477327,"119":0.10786001117540682,"120":0.12851411512141256,"121":-0.004553828314115608,"122":-0.10886631600787748,"123":-0.13710902863908755,"124":0.0721194104635908,"125":-0.11878626872177464,"126":0.05499477156733899}},{"sx":1,"sy":1,"depth":127,"w":{"0":-0.15167920558541692,"1":0.15585256663743746,"2":0.13514080304882603,"3":0.1340842815869885,"4":0.014008914527514111,"5":0.10841362531637215,"6":-0.01840711888307708,"7":-0.1216732693286466,"8":-0.000650173292001636,"9":0.04988818113879035,"10":0.011915582795300885,"11":0.04381967414762848,"12":0.12395186078185724,"13":-0.04003908633328457,"14":-0.14503692003510665,"15":-0.06574943630515676,"16":0.052125601505758505,"17":0.08380014704914386,"18":0.0011425120142965664,"19":0.0845113733189198,"20":-0.07378005541924523,"21":-0.0022967841862988193,"22":0.0530208241692757,"23":-0.027545815124134246,"24":-0.0507792557310225,"25":0.15077682852027083,"26":0.13540762741819576,"27":-0.02986754456701441,"28":-0.004644669074420603,"29":0.06454344674635037,"30":0.0292694153634493,"31":0.07234066972689684,"32":0.021051257570159368,"33":0.07780019554226265,"34":-0.0055249892049327905,"35":-0.061133556473539456,"36":0.1607077412134374,"37":0.1383498995537376,"38":0.02754538255196685,"39":-0.011660270628567261,"40":0.031044468268592564,"41":0.10586032010510887,"42":0.0057753515475215626,"43":-0.06514911311369874,"44":-0.15507846807579956,"45":0.025819795139881797,"46":-0.1419380234785782,"47":0.13089199690720726,"48":0.009005164996030716,"49":0.03226880347872278,"50":-0.01206578501942799,"51":-0.06313415728402845,"52":-0.00930964519696181,"53":-0.07316006130773832,"54":-0.008180967890541863,"55":0.03112033190800502,"56":-0.14511082048650614,"57":-0.032747789028184496,"58":-0.24029586637977324,"59":-0.1293251854003872,"60":-0.011008275910829575,"61":0.0898694545208641,"62":0.006699577840016297,"63":0.05126833949067618,"64":0.0685463720112749,"65":0.028398343191418526,"66":0.04957678048193143,"67":0.029319633352434902,"68":-0.0016797862657746989,"69":0.029418172151653887,"70":0.14761410651669937,"71":-0.036337032953426926,"72":0.08051048062446924,"73":-0.05056089589372469,"74":0.11850125273164194,"75":0.09349201218785981,"76":-0.029804348245036128,"77":-0.04102714460224549,"78":0.03056225087300351,"79":0.0023954587379742412,"80":0.1798238155540152,"81":0.0971040981044868,"82":0.006704154668005884,"83":0.03701122570302423,"84":-0.013202154663527841,"85":0.1064385796064477,"86":-0.019281345881614623,"87":0.2100042857642563,"88":0.10922072475606712,"89":0.008732620218537074,"90":-0.19338287855679323,"91":-0.11513983385724798,"92":-0.02488749343465885,"93":0.08755599390359275,"94":-0.09857290603577999,"95":-0.14137561766057785,"96":-0.012450907531047967,"97":0.12280157855275868,"98":0.041278276402327424,"99":0.14135080851007956,"100":-0.014712133636463813,"101":0.11648657576337308,"102":-0.10215694471295507,"103":-0.01762702932782078,"104":0.022247510099243226,"105":0.05174816306640289,"106":-0.03127476325928523,"107":0.07039424834725125,"108":0.057788361265410315,"109":-0.18362279192373956,"110":-0.03238266753684155,"111":-0.08332300479383514,"112":0.12156812099671241,"113":0.08505337172069445,"114":0.03667805842108244,"115":-0.022549628975020563,"116":-0.01737933528201543,"117":0.16686210104530164,"118":-0.022815637262524963,"119":0.11813891198687002,"120":0.04642162866161763,"121":0.06672672060092705,"122":0.19074968408274776,"123":-0.1509831768148887,"124":0.039743352375292654,"125":-0.23740954050239868,"126":-0.11378713844395319}},{"sx":1,"sy":1,"depth":127,"w":{"0":0.0059742808289162345,"1":-0.021874564481900467,"2":-0.15684755387455124,"3":0.3335106537329399,"4":0.18656407015303786,"5":-0.10580217388952791,"6":0.14654782802486835,"7":-0.1764237075159631,"8":0.08549447790761135,"9":-0.08387826239633016,"10":-0.053954418193799425,"11":-0.13926711865763985,"12":0.1592559705173464,"13":0.09330869017902946,"14":-0.006833350049553787,"15":-0.007688020873534939,"16":-0.09620212008830153,"17":-0.11223527649253343,"18":0.037847047011960976,"19":0.06994429573554549,"20":0.1386179791524437,"21":-0.13073196679153964,"22":-0.1278533915275162,"23":-0.23016856141450573,"24":-0.014436915493732955,"25":-0.07734781173340685,"26":-0.017151053642588475,"27":-0.14304751301992213,"28":0.07301921814432712,"29":-0.003945728728148825,"30":-0.11862197066917173,"31":-0.027553991481664774,"32":0.0654819900985946,"33":-0.2131596017033112,"34":0.011565388349582019,"35":-0.01843099891141342,"36":0.116348792180913,"37":-0.057897106875731186,"38":-0.13519911494566936,"39":0.04493650313681977,"40":0.1165575729734384,"41":0.038571758829922094,"42":-0.05680199550516994,"43":-0.025317818434671523,"44":-0.09409072065190509,"45":-0.01007601325321524,"46":-0.02116589263127383,"47":-0.1178433451330322,"48":0.07040636578025013,"49":0.057252177410769094,"50":0.06474650076625095,"51":-0.11438822637251662,"52":0.058366438777426685,"53":0.016803056737754753,"54":-0.15895497903935907,"55":-0.056650001724765156,"56":-0.009958948451143812,"57":-0.17673769904325942,"58":-0.12355702563521734,"59":-0.06180100458414859,"60":0.13301781745778468,"61":0.018796226714455945,"62":0.1529785371131802,"63":0.05647709772614248,"64":-0.06139919079952094,"65":0.09389365557842556,"66":0.06452830801625566,"67":0.05235624731726942,"68":-0.05119294749986408,"69":-0.0904686162811802,"70":-0.054134899238058976,"71":0.10028476867638816,"72":-0.2061011494647848,"73":-0.032109097621638716,"74":0.057305736070324825,"75":-0.15436284968501926,"76":0.022099438282906936,"77":0.07642286726371272,"78":0.05678504897178613,"79":-0.001054713707556213,"80":0.1457393510813899,"81":-0.10528481994411201,"82":-0.13506614447340345,"83":-0.06082961502984793,"84":0.13204577530569675,"85":0.07987690639973064,"86":-0.19481334672116715,"87":-0.029430226449578448,"88":-0.046205260225845285,"89":0.15232192150559584,"90":-0.019647469027538004,"91":0.010882665616440725,"92":-0.09950431076276625,"93":-0.1590113081199359,"94":0.007956391480989066,"95":0.11991384213861536,"96":0.01453713364357868,"97":-0.14945778500059909,"98":0.07693537570884032,"99":0.11099096524588496,"100":0.04249681331352183,"101":-0.08043503795911562,"102":-0.1822835209205491,"103":0.1195829355776286,"104":0.021742009031330497,"105":-0.24770381536405559,"106":-0.026586180182085067,"107":0.08494272235421024,"108":-0.003381474516239298,"109":-0.1948919744465986,"110":-0.14010014644096466,"111":-0.12377797517262494,"112":0.02817002094036949,"113":-0.06309702739210332,"114":-0.07630800194844174,"115":-0.03977298437825785,"116":-0.1608185988664512,"117":-0.14028494883941947,"118":0.09699204906938085,"119":0.08223179690714362,"120":0.011989039871730158,"121":0.19037029635948827,"122":0.11414715986051541,"123":0.051847672237309426,"124":-0.11379412850530615,"125":-0.09034126721821496,"126":-0.03735286250645956}},{"sx":1,"sy":1,"depth":127,"w":{"0":0.10303603212462191,"1":0.1443013860493624,"2":0.11366100534814959,"3":1.8300804142848557,"4":0.1817113812193451,"5":-0.032721868420722715,"6":0.17590870726737123,"7":0.11172356688602188,"8":0.02541490015702896,"9":0.09152439661968846,"10":0.12385737935920543,"11":0.31980709370189175,"12":0.0697898161870723,"13":0.053309158306949586,"14":0.01310807354722572,"15":-0.10323151017927071,"16":-0.036112764200428,"17":0.08086801116418586,"18":0.2933742568909814,"19":-0.01482387558162629,"20":0.17045437239544406,"21":0.10361204047874976,"22":-0.10074263732250112,"23":-0.14759642554653218,"24":0.10476881688910893,"25":0.08531405110738241,"26":-0.008216968630863693,"27":0.15433029747558674,"28":0.11164333821531724,"29":0.17472057522064574,"30":0.08708089140561298,"31":0.4474496759269829,"32":0.21902662498983116,"33":0.05363747872399589,"34":-0.07364133517307538,"35":0.08922745001117133,"36":-0.02956598873033979,"37":-0.19035217243567187,"38":0.049442502551296924,"39":0.24833928889963913,"40":-0.1150919705534207,"41":-0.018845847330353892,"42":-0.02082437157989505,"43":-0.04960775246770452,"44":0.012398221316112465,"45":-0.10615069013805718,"46":0.059497991940562954,"47":-0.1058477431694357,"48":0.07796762420200393,"49":0.0027380663860891935,"50":-0.028354618138242228,"51":-0.04961312004432201,"52":-0.10037446386666404,"53":0.23333436631810245,"54":-0.011314537178974585,"55":0.12105191870445337,"56":-0.32423720663019007,"57":0.14809451895271047,"58":-0.040247558784695575,"59":0.044382051112096296,"60":0.0355886263290465,"61":-0.08653764348257627,"62":-0.003929834401428353,"63":0.043318836627848765,"64":0.1455272810522238,"65":0.2036113948774787,"66":0.04325931133960173,"67":-0.036994996200847965,"68":-0.01620838712495512,"69":-0.07997475656828709,"70":-0.1368941449101153,"71":0.0686642952847814,"72":0.14731547753856278,"73":-0.04311396361492144,"74":0.03457131043330145,"75":-0.04051813791479704,"76":-0.08570746455662163,"77":0.009039052694770172,"78":0.06117606776051633,"79":0.14867186860257176,"80":-0.01820971888287423,"81":-0.11429666754936098,"82":0.0936919307265799,"83":-0.045198761167877334,"84":0.11004168096938402,"85":-0.01096722884384054,"86":0.16091208488254916,"87":-0.00681414629977929,"88":-0.09872166788595607,"89":0.0196544289958032,"90":0.04437907411402222,"91":-0.04221738385905006,"92":-0.029158393238013575,"93":-0.11645078316722952,"94":-0.06824860264163506,"95":0.08637767070026417,"96":-0.04420149318359265,"97":0.2841382810194349,"98":0.09846447444139511,"99":0.011430773834243334,"100":-0.16595232233073315,"101":0.12160703907323465,"102":-0.020473163363616775,"103":-0.0912473752585853,"104":-0.051718434222218626,"105":-0.007995676574692887,"106":-0.003863089807875387,"107":0.03378214565452116,"108":-0.10693018977729582,"109":-0.06763461810780388,"110":0.1293698470329144,"111":0.11453269145756088,"112":0.029883576030455328,"113":0.07662825293224468,"114":-0.11476851776133737,"115":0.07762134503621664,"116":0.2046311564605189,"117":-0.016194317957749543,"118":-0.06844803108456168,"119":-0.07747877833854414,"120":-0.024599636841883835,"121":-0.1344439956457665,"122":-0.02544045100357367,"123":-0.044572614260812465,"124":0.05784645056274249,"125":-0.036544319981642384,"126":-0.03391226448780291}},{"sx":1,"sy":1,"depth":127,"w":{"0":0.06806385713534432,"1":0.03896067580781773,"2":0.0321363217854783,"3":0.25510890079005255,"4":0.004447540923041355,"5":-0.10531822441307995,"6":-0.14646982435482175,"7":0.08207492989921708,"8":-0.005193751564119404,"9":0.0026997899289806543,"10":-0.036118545983377895,"11":-0.19777672579297395,"12":-0.2221372218051554,"13":-0.16350289436731813,"14":0.011066939935777065,"15":0.03171965470491291,"16":-0.050368766376045024,"17":-0.2095911212920178,"18":-0.14180671031271416,"19":0.009275672160186524,"20":-0.19494769490003772,"21":0.12852919422139547,"22":-0.040371093499851,"23":0.08362351122052403,"24":0.10721239178619185,"25":-0.19806041445890857,"26":-0.027190562487010805,"27":-0.05822543961916986,"28":-0.005247263804469553,"29":-0.020143359310212144,"30":0.18410895332200328,"31":-0.1824292730423717,"32":0.002882578680873789,"33":-0.17914921994953326,"34":-0.06377814266163775,"35":0.19572668218202627,"36":-0.13693345475578264,"37":0.08569231307020189,"38":-0.028329414502904476,"39":-0.003136558867990891,"40":-0.056023401957605856,"41":-0.08414785583311658,"42":-0.08756139914390097,"43":-0.1114422153623977,"44":0.11757594696418949,"45":0.04398320964462007,"46":0.0005485625623306245,"47":0.10226934810008262,"48":-0.04699081654028714,"49":-0.07500939192424072,"50":-0.0557190432872273,"51":0.1389169517146052,"52":-0.024225195203590216,"53":-0.12323888804893801,"54":0.0694616197119864,"55":-0.13028287339696212,"56":-0.019163299709315816,"57":-0.167886226677371,"58":0.04264102639383328,"59":-0.008932925479038076,"60":0.06392694346078463,"61":-0.06474575689307703,"62":0.15786587331998408,"63":0.15162174581542723,"64":-0.11841625264132179,"65":-0.10911666275816594,"66":0.030682980822047075,"67":-0.1892665646668605,"68":0.018860473919595725,"69":0.05790556909927578,"70":0.0881917792489584,"71":-0.029961239244719464,"72":0.1101964949961409,"73":-0.07584900824364194,"74":-0.09753132035306943,"75":0.13363696848890178,"76":0.11797455541577438,"77":0.06187144175157008,"78":-0.07276085254668073,"79":-0.059448764550491945,"80":-0.024839476755604672,"81":-0.12644306412546147,"82":0.07341579834849923,"83":-0.04143207650039677,"84":0.060930212232786565,"85":0.012395573091522474,"86":-0.00432815323761405,"87":0.008913575443887474,"88":-0.26122261341945024,"89":-0.21052690036913774,"90":-0.13663411820135335,"91":0.08776858604580676,"92":-0.035088401328962585,"93":-0.11676343448495942,"94":0.09608969454867543,"95":-0.023378248022165708,"96":-0.007838977617392546,"97":0.022875308806854684,"98":-0.00034380257621152374,"99":-0.020636408443886346,"100":0.049233928335941056,"101":-0.026968077836753316,"102":-0.008965457548262846,"103":-0.14869194284272527,"104":-0.039498862596976166,"105":-0.09398876915369776,"106":-0.1672468224432351,"107":-0.009946550531609876,"108":0.08784900884615965,"109":-0.0810609750402753,"110":0.09773382892840006,"111":0.015459311634059222,"112":-0.07931976277552014,"113":-0.028420326115857195,"114":-0.018175580881100894,"115":0.1685408018404008,"116":0.06235085601792314,"117":0.05908094246844652,"118":-0.05304512123486175,"119":-0.009793312775263708,"120":-0.059824330337998194,"121":0.03464103023424467,"122":-0.21127111195103085,"123":0.06879506901025993,"124":-0.08373395987761413,"125":-0.049994138358359703,"126":-0.1062167840951245}},{"sx":1,"sy":1,"depth":127,"w":{"0":-0.03268404096377467,"1":-0.030014237395894438,"2":0.06641231053623459,"3":-0.15126009679066516,"4":-0.0012587605572201258,"5":-0.04291476092461178,"6":0.03678557263401829,"7":0.07765204561855947,"8":-0.09622529480009542,"9":0.006726949161500271,"10":0.060029894661805076,"11":0.05505217541947192,"12":0.08464202365730478,"13":-0.05264218160613841,"14":-0.01252589996084314,"15":0.02590347303366585,"16":-0.07385831465872743,"17":-0.08202345063876673,"18":-0.06420366377890914,"19":-0.07039060633515619,"20":-0.010702680555609178,"21":-0.106543651589976,"22":-0.07054013710283626,"23":0.014498532848798602,"24":-0.07140252654782239,"25":0.12586399616401622,"26":0.10110276631792334,"27":-0.04371587948323639,"28":0.004957433531586012,"29":0.11467969016361443,"30":0.10314146764931086,"31":-0.21747017672870025,"32":0.07108979841722368,"33":-0.19231621948090177,"34":0.15672971655508253,"35":-0.011499011178924875,"36":-0.11995271943969817,"37":-0.13129573050321863,"38":-0.09607578507210521,"39":0.020375921911589618,"40":-0.002648747522549891,"41":-0.004214806260347954,"42":-0.054563383468359136,"43":0.0920039784447304,"44":-0.014193471353548169,"45":0.07445152833907558,"46":-0.05250688249926938,"47":0.0938192018149618,"48":-0.07737806836299352,"49":-0.013043091181694406,"50":0.07403779214701019,"51":-0.01803431206427123,"52":-0.08477820128668644,"53":0.05053831457313896,"54":0.08903613300494727,"55":-0.09414493717179089,"56":-0.04902354547260507,"57":0.0942013193870285,"58":-0.030990783376440754,"59":-0.24042349352330597,"60":-0.09252544962607603,"61":0.04151897408012325,"62":-0.007021021831473726,"63":-0.023790236458326928,"64":-0.1262590049653896,"65":0.1438642562099213,"66":-0.020265963950509055,"67":0.09227190436189747,"68":-0.06302309046732472,"69":0.15751768716718922,"70":0.1696318371977123,"71":-0.04908757970944378,"72":-0.0564094766299159,"73":0.027418607787563987,"74":0.10177308673130872,"75":-0.023548015185899645,"76":0.030729542272872574,"77":-0.0070254095787713345,"78":0.12065895216562508,"79":-0.05132792910025036,"80":-0.10783647841913137,"81":0.007432135720219681,"82":-0.029106626248204075,"83":0.009811660223963776,"84":0.06438929217024748,"85":-0.030051306714391775,"86":0.11844390183389875,"87":0.1575955433450948,"88":-0.07012506177816821,"89":0.12516002520294645,"90":-0.015498963482371756,"91":0.11912184764716516,"92":-0.207744094920897,"93":-0.09307700970692094,"94":-0.012116097583432855,"95":-0.0022382313535407898,"96":-0.024070860709245134,"97":-0.10236721384595748,"98":0.07924592738400789,"99":-0.12341806343314293,"100":-0.1259815735744062,"101":0.017492284538476812,"102":0.19371428743093075,"103":0.09962592768462046,"104":-0.04260790755657338,"105":0.026606109446927245,"106":-0.07009981438389985,"107":0.15447482147645705,"108":0.03723663432905928,"109":0.06117545979859382,"110":0.05008471985737726,"111":-0.08469552738518843,"112":-0.10313690353534938,"113":-0.23676084454298052,"114":0.03628216558736043,"115":0.15235944748779406,"116":0.060735551720566064,"117":0.021545098066677915,"118":-0.0746085401948373,"119":-0.014107737333346707,"120":0.1635002106833696,"121":-0.02746319473606303,"122":-0.06933906329496173,"123":-0.09580001229267103,"124":0.24081577501578888,"125":-0.11398559021464688,"126":-0.1722347758782155}},{"sx":1,"sy":1,"depth":127,"w":{"0":-0.018720594158942935,"1":-0.0770154350783709,"2":0.02813811815908297,"3":1.5938056511542964,"4":0.16623923439583066,"5":-0.01457634755626179,"6":0.11010202736380173,"7":-0.022104577392302437,"8":-0.00033708078353073803,"9":0.03462435165624471,"10":0.04571830044926402,"11":0.17789490789581697,"12":0.04829413217361064,"13":-0.1008047007925747,"14":-0.06253531783525838,"15":-0.15267215684722552,"16":0.15814365678961925,"17":-0.054350276223621465,"18":0.043549608220214676,"19":0.06896958445600644,"20":-0.018804295307166284,"21":-0.04213364892997064,"22":-0.10333748163078692,"23":0.22041405448388388,"24":0.08088348843102668,"25":0.0281674087021975,"26":0.08638481198622001,"27":-0.01753249684977364,"28":-0.012943733472027163,"29":0.01746074849447662,"30":0.09933591654616579,"31":0.44778630159453475,"32":0.22298092123789695,"33":0.0397863267487257,"34":0.10380503321874365,"35":0.10795420309669924,"36":-0.18996629093537262,"37":-0.1005021498133439,"38":-0.004717108289156634,"39":0.11121479956290574,"40":0.104023033195123,"41":0.046758362731493815,"42":-0.0861166455098622,"43":-0.10265116440169442,"44":0.0655441677201378,"45":-0.04799680870274555,"46":0.11866007303735118,"47":0.14064146231658142,"48":0.03528171609350943,"49":-0.002489653637026429,"50":-0.04790785236053952,"51":0.04762432012493405,"52":-0.07376280657904798,"53":0.18148594599847684,"54":-0.05187032006593966,"55":0.09996077563621754,"56":-0.2767418477549926,"57":0.07796905880920882,"58":-0.09746415816769766,"59":-0.013640306509531628,"60":-0.052170753311114565,"61":-0.03549412541001294,"62":0.032331474097661864,"63":0.01973798146068149,"64":0.2172601214473264,"65":-0.03901039684497677,"66":0.04734451309163719,"67":-0.03344293441677761,"68":0.01333238418660049,"69":-0.09109887673514898,"70":-0.194594306352597,"71":0.01578579797591069,"72":0.05949476589259221,"73":-0.018738804178575715,"74":-0.062330749318723094,"75":0.02077796418109593,"76":-0.03344229836570396,"77":0.0573412286577641,"78":0.014209652791475898,"79":0.08194819423940287,"80":0.045755620068374386,"81":0.15536451613291744,"82":-0.11603688513171251,"83":-0.06130983713201041,"84":-0.043578050698089434,"85":0.028431336928283785,"86":0.13428501610069876,"87":0.1265668610454962,"88":0.04308259882671779,"89":0.018379103955151944,"90":-0.3487760180531698,"91":-0.044089183438996975,"92":-0.018360923052947634,"93":0.10427391524770477,"94":0.08652199230510352,"95":-0.050143484099576835,"96":0.00631835325970041,"97":-0.11796334260808895,"98":-0.07327648457196555,"99":0.1251752896878992,"100":-0.09807808954983738,"101":-0.04866660320411619,"102":-0.12616235200592196,"103":-0.0945453411308651,"104":-0.16949106975967015,"105":-0.0113408023313906,"106":-0.1826148678064994,"107":0.07632446078499666,"108":-0.0360748129358325,"109":-0.026992655800041454,"110":-0.05326822719168944,"111":-0.00240860727480236,"112":0.20110240624690634,"113":0.02179398490812708,"114":0.049220832060863445,"115":-0.1093560553417711,"116":-0.09151558080927119,"117":0.04337798920645351,"118":0.11764242960322391,"119":0.0006465906724439244,"120":0.08327900863290229,"121":-0.04043836023151947,"122":-0.15863254866515442,"123":-0.01980319276035764,"124":-0.1456669487065156,"125":-0.10492366630002362,"126":0.02994050859535374}},{"sx":1,"sy":1,"depth":127,"w":{"0":-0.051037313555003655,"1":0.2384813670297536,"2":0.511678869739206,"3":6.264053775881023,"4":0.0773878880420536,"5":0.06446971654900005,"6":-0.014190521473051707,"7":0.14049092061178964,"8":0.07751249791225963,"9":0.3539916815887198,"10":0.25891218739947097,"11":-0.052353948085042866,"12":0.059978429891998516,"13":-0.07927176582485643,"14":-0.040966508323439704,"15":0.026177595933550037,"16":0.1042580137634433,"17":0.0038350509941371576,"18":0.2525832204078,"19":-0.02124695882247341,"20":-0.07671457890973954,"21":-0.10453063072575745,"22":-0.03746509909195455,"23":0.6822957430498715,"24":0.00896853154167521,"25":0.3585717848572362,"26":0.07217742095969097,"27":-0.0012697675202822287,"28":-0.010041317942353328,"29":0.20859400745937745,"30":0.27627554598821635,"31":1.127887902687611,"32":0.13881494728593854,"33":0.27373960440981293,"34":0.0282905301710855,"35":-0.09526097849398034,"36":-0.016987268481925843,"37":0.14392829592294346,"38":-0.19780872352848464,"39":0.02631539927757549,"40":0.1416429421214479,"41":-0.15564293493800102,"42":0.05766595850624135,"43":-0.0318528210684713,"44":0.1965563990884043,"45":0.11657118549285915,"46":0.16702816067879847,"47":-0.025007362781357057,"48":0.037761009384695114,"49":-0.1722396841549542,"50":-0.14029785995495683,"51":0.4209355927571038,"52":-0.07529779017398272,"53":0.15809272059408588,"54":-0.10883376835811216,"55":0.03519586688077119,"56":0.11312364642324697,"57":0.03103549341811417,"58":-0.02571449442307453,"59":0.00007465380561777306,"60":0.0572084688033674,"61":-0.006824452323066787,"62":0.06352193378484525,"63":0.17302976812416185,"64":0.19612193757295907,"65":0.016568028527652146,"66":0.01066268640855389,"67":0.06989116760242149,"68":-0.09391170608755975,"69":0.08798905793968911,"70":0.08812867418374355,"71":-0.0932157414506837,"72":-0.05045258829222514,"73":0.015065852886339222,"74":-0.1161555047388771,"75":-0.06026172500934138,"76":-0.08416714696326687,"77":0.17346696616000906,"78":-0.05186124294341617,"79":0.09674880925195807,"80":-0.11540579309522837,"81":0.22442813922543786,"82":0.05108832203925009,"83":-0.019478908427907782,"84":0.1801698056282307,"85":-0.12394544671202812,"86":0.16864821439364222,"87":0.09124480735687038,"88":-0.047793831251673996,"89":-0.06380127253746602,"90":-0.15888563732601513,"91":0.013423147721166019,"92":-0.02656214458917686,"93":-0.05610579069421889,"94":0.00873718497612088,"95":-0.07060858872934153,"96":0.1719278302624738,"97":0.16602758015049182,"98":0.03599893721861765,"99":-0.0012314816232984302,"100":0.04035149479118778,"101":-0.0010631482597400794,"102":-0.08090006073148227,"103":-0.06793345289829371,"104":-0.0022198132308435103,"105":0.01623981937269872,"106":-0.030889527224673464,"107":0.023876927030762368,"108":-0.1892524436946429,"109":0.09296105094776538,"110":-0.045993967793445605,"111":-0.11341356477952923,"112":0.10163024405889622,"113":0.12034146114209707,"114":0.32389723087829064,"115":-0.1780063056528831,"116":0.038571655945265924,"117":-0.03852067266447806,"118":-0.015668975256392,"119":0.09964557223219185,"120":0.1796712745338004,"121":0.07614833574063093,"122":0.01925046653869937,"123":-0.11348346826130831,"124":-0.0849850010302066,"125":-0.0860835207164638,"126":-0.06681725412329362}},{"sx":1,"sy":1,"depth":127,"w":{"0":-0.0362017819891881,"1":0.05350933750301855,"2":-0.09329387251687928,"3":0.16434701231263305,"4":0.10588876306015738,"5":0.13696919634868152,"6":0.037238073692472555,"7":-0.1563550792984478,"8":0.07619743846990794,"9":0.045119159272231056,"10":0.08286047700245916,"11":0.08639931530813316,"12":-0.00854318776837113,"13":0.10158247746547815,"14":0.07691910797221482,"15":-0.004861474118551009,"16":-0.06993275419717988,"17":-0.05804388006157754,"18":0.16977850857084398,"19":-0.01754351401559175,"20":-0.020317967816622422,"21":-0.030941425482455338,"22":-0.10053469048835857,"23":-0.09050600579891913,"24":0.01860599942343616,"25":0.13791546742417843,"26":0.12654142473072022,"27":-0.10716625427871483,"28":-0.000036828427106192583,"29":-0.10595797232406373,"30":-0.0019020464401513471,"31":0.14112073475249587,"32":0.009929708866481987,"33":0.056386245823901775,"34":0.16126160328361444,"35":-0.009326452354414363,"36":-0.07375574899377282,"37":-0.010933551497535948,"38":0.06989334134630348,"39":0.00289390633078113,"40":0.0903540679827503,"41":0.08897500341035561,"42":-0.12758917333028427,"43":-0.043064484882045895,"44":0.01868075269448479,"45":-0.06560545707507923,"46":0.06675855216381224,"47":0.16856951123044223,"48":0.08211644271138921,"49":0.0824560531836244,"50":0.0371218045009277,"51":-0.04814507824052872,"52":0.05933410079951567,"53":-0.01652200033556951,"54":0.16319993232729327,"55":0.14508664301965304,"56":-0.028796163688821007,"57":-0.05811047541749487,"58":-0.21578422228060642,"59":-0.13776268243396447,"60":-0.09772594447682635,"61":0.017879457250865274,"62":0.014235684269020853,"63":-0.13177336548666263,"64":0.07970074068884772,"65":-0.1496551562525754,"66":0.03987451551669648,"67":0.09631639043575413,"68":0.07839077489375136,"69":-0.1397307386901985,"70":-0.16131691074955967,"71":0.055538670682560465,"72":-0.10666404236486587,"73":-0.014309497705269484,"74":-0.08310791170296324,"75":-0.1434517365707211,"76":-0.12377556576071239,"77":-0.08060477834282338,"78":-0.0974622636845188,"79":0.053199803661957736,"80":-0.06890210914769529,"81":-0.02519320439805019,"82":0.15687859079137847,"83":-0.13300647471566196,"84":-0.12475140972733013,"85":-0.05417579721376176,"86":0.10122950461348919,"87":0.0192644973563069,"88":0.04712450934619758,"89":-0.2509711230684458,"90":-0.18210900106997455,"91":-0.02303244696363467,"92":-0.1250850173980839,"93":0.14571547047280284,"94":-0.26667982078193414,"95":-0.07909965604106402,"96":0.06462038446559204,"97":0.07502918528981882,"98":0.018478787475025307,"99":0.005545399676165288,"100":-0.15077878371165726,"101":-0.10250361648186201,"102":-0.03211796024256189,"103":-0.12179254988533887,"104":0.012593990991641714,"105":0.07425410612966579,"106":-0.06114660883057844,"107":0.0766537120880676,"108":0.01055312155070852,"109":-0.11264883970328578,"110":-0.05822280617994265,"111":-0.015444772880589193,"112":0.08784180680074846,"113":0.06755646117830567,"114":0.1458115635622299,"115":-0.04092656813099369,"116":0.12822458582344679,"117":0.11124125677074416,"118":-0.10308602360593568,"119":-0.014478545979306019,"120":-0.02578391920821263,"121":-0.018237680888396366,"122":-0.010660685157172027,"123":0.06609080658008155,"124":-0.11067029051671556,"125":-0.00908469878499659,"126":-0.09798053006516769}},{"sx":1,"sy":1,"depth":127,"w":{"0":0.0793319310520561,"1":0.02358643428193751,"2":0.33865171627143364,"3":1.299055320130156,"4":-0.29599393234820326,"5":0.014719137693038833,"6":-0.15969119722288724,"7":0.058993778898845,"8":0.08622600874902114,"9":0.3500165989320143,"10":0.09819295843130449,"11":-0.23062506159870483,"12":-0.021015041635800952,"13":-0.0009340847433329961,"14":0.09125605292532245,"15":0.3065286059624058,"16":0.22103761472815373,"17":-0.05121206521155534,"18":0.005820635983745033,"19":-0.07120917661494396,"20":-0.05486122687870851,"21":0.21020871622162512,"22":0.05892902938461879,"23":0.3877758447345805,"24":-0.041410387499692995,"25":-0.08144560783693386,"26":-0.04786270594892019,"27":0.06215238351356515,"28":-0.031670327403850666,"29":0.06530408834312561,"30":0.41961735394968397,"31":0.25257348106344263,"32":-0.32343353257982127,"33":-0.058344482490659516,"34":-0.07192695226799302,"35":-0.04893105030027944,"36":0.1750132391622233,"37":-0.03601471766420309,"38":-0.05447123437511606,"39":-0.3043914967652897,"40":-0.10559541409925602,"41":-0.06985136062234175,"42":-0.034590998122313844,"43":0.1417841773533753,"44":0.18344694740400477,"45":-0.11036599420097074,"46":-0.2731376877388591,"47":-0.09323163266944488,"48":-0.15958914666321966,"49":0.062327825948349236,"50":0.07605755179882855,"51":0.2477783354964319,"52":0.08579294020091471,"53":-0.3668617521551597,"54":0.019563396763083406,"55":-0.18088078972677132,"56":0.04078857190983222,"57":0.11828948980470491,"58":-0.22628487015236562,"59":0.0703179407981784,"60":0.0198566235745083,"61":-0.11636065221976645,"62":0.03125047331707475,"63":-0.04542781485405667,"64":0.0890170531663688,"65":-0.13374958868561823,"66":-0.14423478633005965,"67":-0.24384419796320375,"68":0.0860036880096916,"69":0.07565183804739185,"70":0.065872750685014,"71":-0.04422741114565868,"72":-0.3572531772276901,"73":-0.052503675904480664,"74":-0.11747530716140293,"75":-0.014086089187608068,"76":0.16454722539886715,"77":0.14755000240622634,"78":-0.04342966481814919,"79":-0.31081333172689357,"80":-0.12336218868084377,"81":-0.25257625773738884,"82":0.08119291604142627,"83":0.036932390898720385,"84":0.13486323382683105,"85":-0.022431765041240177,"86":-0.21623698051752244,"87":-0.1926340918507096,"88":0.0006956652314768607,"89":0.09936421149916441,"90":0.021293489929339656,"91":-0.04816361374180323,"92":-0.12214644239371818,"93":-0.06481190907731428,"94":-0.06276374534656945,"95":-0.013145227746126108,"96":0.058657484922760815,"97":-0.022362369354803024,"98":-0.07034927724335734,"99":-0.10667535153254158,"100":-0.021884701443379638,"101":-0.058634776738098755,"102":0.10941729487063483,"103":-0.1366160914122171,"104":-0.011288549275703929,"105":-0.2234349111055623,"106":-0.12574134601309855,"107":-0.11697686602539853,"108":-0.1867184676923424,"109":0.1504798473905594,"110":-0.06660160820559383,"111":-0.07295451893019599,"112":-0.1070672976943536,"113":-0.07909839066145273,"114":-0.19608240411525696,"115":0.26081368263886356,"116":0.06314322268939751,"117":0.25047315015800237,"118":-0.038914529490182814,"119":-0.16505101209854384,"120":-0.21438191253387387,"121":0.08192957778199472,"122":0.09167546012704444,"123":-0.05387284965078135,"124":0.011679534932630069,"125":-0.03650757141417413,"126":0.03131003920735678}},{"sx":1,"sy":1,"depth":127,"w":{"0":0.01606153686997488,"1":0.13884700508643158,"2":-0.07078617713828297,"3":3.1102875496703013,"4":0.5244105100556737,"5":0.21543920674298392,"6":0.006365078945157359,"7":0.07687262947685627,"8":-0.0666132830545663,"9":-0.0457985833788351,"10":0.061715090190186145,"11":0.3733120695656207,"12":-0.038460717000974774,"13":-0.10016913102243732,"14":-0.22772089406975699,"15":0.1034803889403792,"16":0.06463363282688135,"17":0.0227140993261089,"18":0.21238567648009238,"19":0.07055893626586913,"20":-0.18737754870411866,"21":-0.09935043484184865,"22":-0.007883858193358458,"23":-0.048434915552107334,"24":0.06461287358026922,"25":0.37078536289480035,"26":0.03477388219859862,"27":-0.08433914951811694,"28":0.18048147182390542,"29":0.03508049161273196,"30":0.06045084405132971,"31":0.7051088287668776,"32":0.3962890967967454,"33":-0.012762377717629622,"34":-0.024498089261174926,"35":-0.1220531153665258,"36":-0.17473852179233149,"37":-0.016402209257135304,"38":-0.1011776916559472,"39":0.3197186060557475,"40":0.10643185437638564,"41":-0.026777983828272785,"42":0.04050638842694728,"43":-0.11064414686117119,"44":-0.13439240725206603,"45":-0.038957761731317896,"46":0.26569934544247914,"47":-0.020761094030938752,"48":0.08715987207086782,"49":0.022980264757845405,"50":-0.15569114598040767,"51":0.10299547337681768,"52":-0.07653697500174036,"53":0.18976439726067543,"54":0.018022903420737462,"55":0.00002371566147198977,"56":0.19939799514206924,"57":0.10178211967603626,"58":-0.22093343577949498,"59":0.11699283398584776,"60":-0.009167916342262232,"61":0.13630332235859377,"62":0.008834213374915044,"63":0.015622120895724572,"64":0.06737280489104151,"65":0.2120914063220195,"66":0.08227329867659089,"67":0.16756687984727858,"68":-0.10643465298654359,"69":0.07246713751962139,"70":-0.0068126501803174805,"71":0.15300554732106803,"72":0.12051497008262547,"73":-0.041140265237249736,"74":-0.0769731826585872,"75":-0.011527653484106155,"76":-0.11787712370618422,"77":-0.06537606731742238,"78":0.022661979255104988,"79":0.34483076094871207,"80":0.024144103424925976,"81":0.034516689417671484,"82":-0.1429656192071838,"83":-0.148434949474268,"84":0.09158558915243253,"85":-0.004330231564417678,"86":0.30761941288802486,"87":0.052905443158777724,"88":-0.01873572260583476,"89":-0.17843512953076965,"90":0.055389078368958296,"91":0.25729009281977727,"92":-0.06579569306797432,"93":-0.11324772257031065,"94":0.005546270996045645,"95":-0.025539531670394123,"96":-0.0007945327403043421,"97":-0.03895341552589759,"98":0.08576026746734026,"99":0.050824569018425164,"100":0.007013363117938659,"101":-0.007902941451447027,"102":-0.05653938179676842,"103":-0.17437113666890236,"104":-0.06699507208745584,"105":-0.025639055397622755,"106":0.058241103614226776,"107":0.03147952450093897,"108":-0.03609685970029158,"109":0.07746380483221654,"110":-0.004928276688934462,"111":0.05502051423592364,"112":0.09932294762359833,"113":0.00035025253527107953,"114":-0.028052008305576616,"115":0.09015890757691204,"116":0.05380109094729898,"117":-0.08737647969554425,"118":-0.06212084242446683,"119":0.3218658481190131,"120":0.01446130261783795,"121":-0.0829930061912256,"122":-0.08151260140182164,"123":0.008329407935057449,"124":0.1598383966753375,"125":-0.05402573631410102,"126":-0.048116664416825626}},{"sx":1,"sy":1,"depth":127,"w":{"0":0.11059360391854847,"1":0.0420973404005733,"2":-0.04466513477024683,"3":0.023700740565487693,"4":-0.2507397816562097,"5":-0.008943133911492283,"6":0.04512752813906687,"7":0.12157574532802812,"8":0.06005247052234175,"9":-0.021753262622948803,"10":-0.011280518752442868,"11":-0.03879916006664235,"12":0.021816338797107485,"13":-0.047001839847759554,"14":0.17140383038431023,"15":-0.09834425350846421,"16":-0.09113132602203902,"17":0.08730968058700701,"18":0.01792219765858827,"19":0.04942203074545939,"20":0.01343735798957852,"21":0.13778727325951326,"22":-0.0279525609337415,"23":-0.07407351575290212,"24":-0.09154934423831179,"25":-0.17815061776365892,"26":-0.05934739076620302,"27":-0.039094352379030445,"28":0.1265633377184847,"29":-0.05016316494083503,"30":0.00580680868760515,"31":0.03985306446555698,"32":0.10116393506733347,"33":-0.01395642056754197,"34":-0.27343139847534104,"35":-0.03789896989317394,"36":-0.022247017442961044,"37":-0.03989384881790747,"38":-0.0004015937127134347,"39":0.06200867868395765,"40":0.018135825189315898,"41":0.027751333333618407,"42":-0.048265706639493894,"43":-0.13213908899357932,"44":0.03587353909614845,"45":0.1383446856912834,"46":-0.06186266924158847,"47":0.18846857270876854,"48":-0.006447240872597805,"49":0.09037882031275252,"50":-0.11786127655647284,"51":-0.07840716324193372,"52":-0.02227177118227867,"53":-0.0167830475047774,"54":-0.07353101442770477,"55":0.026459712418050493,"56":-0.019685672909093514,"57":0.015199734760981748,"58":0.15745994535512273,"59":-0.18693127339575644,"60":-0.18541289050695572,"61":-0.005144944158880557,"62":-0.02526640115659123,"63":0.005563251549230918,"64":0.1154551217649565,"65":0.09100068809351305,"66":-0.0012097023175148577,"67":-0.0026612163893551762,"68":0.05113291553432515,"69":0.03956292122806346,"70":0.02297528449089757,"71":0.039765692452282,"72":0.15011028998500198,"73":-0.07756397248930794,"74":-0.0820920593537012,"75":0.17537102235858745,"76":0.10243572484163102,"77":-0.09097333376166339,"78":-0.003391182679874438,"79":0.23544832994453982,"80":-0.1255467234636737,"81":0.13123791510984498,"82":0.02689799801945363,"83":0.015230711404552403,"84":0.03038036630266031,"85":-0.024331337480218266,"86":0.19084909266701955,"87":-0.024121944073424523,"88":0.1078651321467542,"89":-0.2440671303517068,"90":-0.14206422383157138,"91":-0.008641477640829108,"92":-0.119573494764536,"93":0.10787603926810237,"94":0.1022955580079474,"95":-0.18518336094298843,"96":-0.05210623019916699,"97":0.22512877499530798,"98":0.01585170899502427,"99":0.03555731494953957,"100":-0.08800642543443309,"101":-0.10135570521854999,"102":-0.06970055392684676,"103":-0.019920684301194837,"104":-0.02730463139614731,"105":0.04304482104298493,"106":-0.07568634974710578,"107":-0.09816411673923199,"108":0.1260398523816378,"109":0.053021909329637906,"110":-0.027005953306704165,"111":-0.13044251390060968,"112":0.06248239082733255,"113":0.038814503304097345,"114":-0.055756311080630165,"115":-0.10623435288444956,"116":0.06280371787958536,"117":-0.037024424748867,"118":-0.01962391380953401,"119":0.05005471238411515,"120":-0.029558900076148822,"121":0.054927678135817844,"122":-0.011956408164607442,"123":-0.122805559059858,"124":0.01707652853133523,"125":-0.2105323388379693,"126":0.02012764915767667}},{"sx":1,"sy":1,"depth":127,"w":{"0":-0.17613280957889532,"1":0.09571589308965016,"2":0.11727234394224652,"3":-0.20355729773934747,"4":-0.032233189238223076,"5":-0.0003140015950036382,"6":-0.1956538558077484,"7":-0.06393508854098563,"8":0.05561219416215743,"9":0.023791608660391667,"10":-0.01953279081548522,"11":0.08550544371670421,"12":0.0222715714939532,"13":0.013855252162766306,"14":-0.0615564859503631,"15":0.012948909484140245,"16":-0.03104798989111044,"17":-0.12127150483960077,"18":-0.03395563438577177,"19":-0.00840706957082625,"20":-0.20818964894110562,"21":-0.07384620922371513,"22":0.055307885111715076,"23":0.0030767492017449096,"24":-0.008736278925301147,"25":-0.04001844514835467,"26":-0.08121009946940232,"27":0.0008158624887665095,"28":0.03929717745103098,"29":-0.0601196956536503,"30":-0.06119328715170703,"31":-0.05599356542016025,"32":0.034695566423870415,"33":0.10219045530744389,"34":-0.07870807923433058,"35":0.011564112342817047,"36":-0.0599403704026978,"37":0.0840322793394089,"38":-0.006648824351826468,"39":0.014645234450963728,"40":0.00609395919446304,"41":0.005788017564908824,"42":-0.03411153653087053,"43":-0.1496185667571431,"44":-0.1250676489436243,"45":-0.05897195966108632,"46":-0.017526184343867414,"47":0.06820148108359153,"48":-0.02778152625338047,"49":0.032261569679049855,"50":0.06430952337651312,"51":-0.001042959084817491,"52":0.05006435805360659,"53":-0.0620426668312929,"54":-0.0081077428527108,"55":-0.043761981438174204,"56":-0.13147588457930104,"57":-0.10294161838486657,"58":-0.09251987446489696,"59":-0.0562231151052552,"60":0.020010914716397814,"61":0.11255976759060529,"62":0.06970836381920574,"63":-0.031936291023708235,"64":0.003900722754101196,"65":0.011608371011477483,"66":0.13895041136024683,"67":-0.02113032820022538,"68":-0.08133035930502004,"69":0.042134081988848486,"70":-0.13405158122039826,"71":0.05071142276923266,"72":-0.12996867939401466,"73":-0.05788070684708173,"74":0.1000081086470468,"75":0.18804350891838872,"76":0.13685871201020602,"77":-0.06420960423951305,"78":-0.09616671350989946,"79":0.004588091096979521,"80":0.018944779919192727,"81":0.03505663035549388,"82":-0.07216368104166411,"83":0.10532744528357624,"84":0.04177472079327467,"85":-0.0032450210873569076,"86":-0.004096821617686827,"87":0.00810213478308659,"88":0.04247495711444518,"89":-0.024641612617960336,"90":-0.18158268750815182,"91":-0.04437592608471049,"92":-0.052781865112455216,"93":-0.12245372903931513,"94":0.05927037180552939,"95":-0.03812442987551803,"96":-0.046783729439664384,"97":-0.036596385138211646,"98":0.08702825173253025,"99":0.11801875195140019,"100":-0.048559099499049664,"101":0.13278978207743,"102":-0.040864790098862694,"103":-0.10456452640113864,"104":-0.1434978095810275,"105":-0.06801123982988487,"106":-0.0098258933380662,"107":-0.1985822893801306,"108":0.03847182538083514,"109":0.12388482865059942,"110":0.06969358273411275,"111":0.028419341861996364,"112":0.11685403652214926,"113":-0.09092048498498582,"114":-0.024318983984910066,"115":-0.007651459915410537,"116":0.16630525902897494,"117":0.05227868417481995,"118":0.003002555552765309,"119":-0.037817055755745316,"120":-0.04612882794259321,"121":0.10222343318373758,"122":-0.16887193401069628,"123":-0.04005945392805013,"124":0.02950927534748981,"125":-0.15421828712011582,"126":-0.17868811381525254}},{"sx":1,"sy":1,"depth":127,"w":{"0":-0.033370244262834574,"1":0.06398440420671979,"2":0.09174419376084653,"3":-0.03707106121149024,"4":0.10150845115509556,"5":0.012559447009186651,"6":0.05308932447612992,"7":0.05429575082029527,"8":-0.011708555487519054,"9":-0.11193473906062076,"10":0.03382322757423404,"11":-0.03138988168821321,"12":-0.14361022253545197,"13":0.05520619844967316,"14":-0.06008095911709136,"15":-0.02530259924176796,"16":-0.16083517373466646,"17":-0.14633196287463202,"18":-0.06419708492960376,"19":-0.007575757751417918,"20":0.11634825633146473,"21":-0.030526282136532686,"22":0.14060155222254692,"23":0.07056316943946017,"24":-0.057397519935416766,"25":0.07074320410547397,"26":-0.08164885500197021,"27":0.1041271309888396,"28":-0.08166594224312107,"29":0.02408671154954918,"30":-0.1152366302858895,"31":0.011048170810990248,"32":0.0995553183716898,"33":0.014134488794528367,"34":0.08769122014702473,"35":0.11368283742130755,"36":0.16425352869095125,"37":-0.1315915887406203,"38":-0.07339463522946542,"39":0.07210153154968153,"40":0.12357498555478318,"41":0.08148422989997954,"42":-0.07083669091916658,"43":0.0031348643662119976,"44":0.08639028463524277,"45":-0.05720931297715579,"46":-0.03136218302746293,"47":0.1550597151869352,"48":0.06668460536552018,"49":-0.011752710416457422,"50":-0.031117979557898523,"51":-0.06217618037132088,"52":-0.010044002648235496,"53":0.07842214362704263,"54":-0.004299331507017766,"55":0.1045083861555982,"56":-0.027788681134489446,"57":-0.26234838912610636,"58":-0.045302699650806064,"59":-0.256419641678552,"60":0.0634262023677638,"61":-0.0028096852417842937,"62":-0.02327952793766832,"63":0.009439625029702641,"64":0.0840075206475895,"65":-0.1437410170850922,"66":0.03398476441055652,"67":0.14475909439933846,"68":-0.008001858492650208,"69":0.030044092583915837,"70":-0.03023532276073215,"71":-0.01757991721925625,"72":0.10640460310313657,"73":0.03413077752476879,"74":0.1119570790795637,"75":0.010430375926233202,"76":0.09933017229988451,"77":-0.12381318521491883,"78":-0.023170406739367898,"79":-0.004086091117867778,"80":-0.11552841688597004,"81":-0.0308675482526091,"82":0.025388470069751902,"83":-0.03431540439895668,"84":-0.00653595555355631,"85":-0.0799347625832733,"86":-0.029673625933914538,"87":-0.0005032432462128432,"88":-0.08466592124366033,"89":-0.20742514293672792,"90":-0.2555957148809294,"91":0.4087574272547408,"92":-0.2707738686093667,"93":0.038693187236206475,"94":-0.006104090556883255,"95":0.15178511671800404,"96":0.00813513997800698,"97":0.19760613711691555,"98":0.021675140830713528,"99":-0.022880923820295284,"100":0.05023956817675143,"101":0.028777889076544244,"102":-0.07406032735198793,"103":-0.22948635731735234,"104":0.14651521806761642,"105":-0.0375147497211801,"106":-0.031693228230142145,"107":-0.06644817088496315,"108":-0.02087526454571293,"109":-0.00900501256767521,"110":-0.010922170422855867,"111":0.009878524111575842,"112":-0.03965093635505223,"113":0.062305656817240374,"114":0.17140960627373034,"115":-0.002947353476369798,"116":0.15229406701788945,"117":-0.08727248630624643,"118":-0.08603036049847204,"119":-0.030375681518409112,"120":-0.05993991325910462,"121":-0.089001678425267,"122":-0.15472941772100202,"123":-0.08238893782885949,"124":0.08093457777798338,"125":-0.1762347940309901,"126":-0.15885909498674117}},{"sx":1,"sy":1,"depth":127,"w":{"0":-0.04556022950166475,"1":-0.05006188197521566,"2":-0.060226502294288976,"3":0.007799842626653041,"4":-0.2295570409465781,"5":0.0341215636834157,"6":0.02542356070487919,"7":0.011106816750861582,"8":-0.03697827435810191,"9":-0.027944196952164407,"10":0.019501627417421785,"11":0.0013632514432518077,"12":0.21255626075731793,"13":-0.025913653747656612,"14":0.12248074091707942,"15":-0.14380820904335875,"16":-0.0675417719246888,"17":0.02016243018634121,"18":-0.08028319435099728,"19":0.012899632419999998,"20":-0.004755751577251187,"21":-0.08985633323809745,"22":-0.06771764983664356,"23":0.13168637049843163,"24":0.1756665158759244,"25":0.20794656386353644,"26":-0.08551661596858116,"27":-0.04994006255583831,"28":0.08650974613549356,"29":0.07304352931415739,"30":-0.0429672330541527,"31":-0.0906407869791703,"32":-0.19752916431227444,"33":0.1486604140316439,"34":0.07203680270634841,"35":0.022016066062388512,"36":0.06977892948947241,"37":0.07337353394179838,"38":0.0520364760093638,"39":0.12132843361201921,"40":-0.1048753272387958,"41":-0.025430561475757493,"42":0.018336538099237448,"43":0.11416675241520563,"44":-0.08931776452097648,"45":0.017914994588535047,"46":-0.09174052450665804,"47":-0.0844425271342009,"48":-0.15121454449352978,"49":-0.033919150134420366,"50":-0.0812712018561549,"51":-0.08538011791702976,"52":0.04258100504604534,"53":-0.115000744396287,"54":0.011275100663327988,"55":-0.10084063677978972,"56":0.013631908989543827,"57":-0.19556888313495577,"58":-0.14002104842854762,"59":-0.04646515614937547,"60":-0.25126098078277376,"61":-0.008707553813018593,"62":0.178676584267635,"63":0.019927035414589542,"64":0.08550881804882751,"65":-0.1763740130689876,"66":-0.027259469934189973,"67":0.14466707370274387,"68":-0.10553371403004563,"69":0.031199376681932574,"70":-0.14387879199568068,"71":-0.14756503892888584,"72":0.07966093139029534,"73":-0.01509171750815768,"74":0.011365215547322258,"75":0.049700648758805525,"76":0.13361377724147827,"77":-0.042834124322286386,"78":-0.05931482412011795,"79":0.09644990410056724,"80":-0.028596596953481376,"81":-0.04942030810071703,"82":0.2194278215708317,"83":0.1173580609599975,"84":-0.08945571825884237,"85":0.023951725510974155,"86":-0.04084451746327091,"87":0.051648656758938,"88":0.010423555625651325,"89":-0.06528404175287116,"90":-0.03128794808810935,"91":-0.15906361380354941,"92":0.18252509136131279,"93":-0.10793484659214858,"94":0.032345853318264214,"95":-0.08566386294018084,"96":-0.05946342120316355,"97":-0.029242003636281634,"98":0.00841405133789813,"99":-0.08252673691621196,"100":-0.0764408453998956,"101":-0.026377130542719104,"102":-0.10614459028785206,"103":-0.15754860592618083,"104":-0.04942776210482449,"105":-0.09035073217495221,"106":-0.025138492568457575,"107":-0.07818388608481959,"108":-0.09723594226992302,"109":0.12936078656322786,"110":-0.07908435281135853,"111":-0.026018434952398046,"112":-0.004889349573307102,"113":-0.12440231346670488,"114":0.12548500972262605,"115":0.09600700311926559,"116":-0.10915334740108418,"117":-0.03500997636448658,"118":0.011492253734395644,"119":-0.06879348402114144,"120":0.036216987769197545,"121":0.07792008880755281,"122":0.0000662731993649935,"123":0.054837235420979256,"124":-0.08632072211335391,"125":-0.1592283180043857,"126":-0.21512376194537772}},{"sx":1,"sy":1,"depth":127,"w":{"0":-0.041284558380275296,"1":-0.10617557199551284,"2":-0.18533174074256795,"3":-2.2931398691526748,"4":-0.49333583584561275,"5":0.14323949930322358,"6":0.027218605080325534,"7":-0.006145789431351193,"8":-0.05479443359725437,"9":-0.1811195796661709,"10":-0.17733119404790723,"11":-0.46617748855575647,"12":0.048894073101049915,"13":0.056402771351466215,"14":-0.03314984441218556,"15":0.08654234034322833,"16":-0.1774283028822328,"17":0.05073150240677199,"18":-0.4840784404405544,"19":0.24140721199718404,"20":0.06457785548630916,"21":0.2276278674469944,"22":0.030183835579078618,"23":-0.23240847342322624,"24":-0.1570530854372498,"25":-0.5159714074776012,"26":0.058255561103300546,"27":0.17838558807698007,"28":0.001598685629353485,"29":-0.006462999244586114,"30":-0.27633679402200456,"31":-0.9156012437962728,"32":-0.4052689502465384,"33":-0.02853782081370887,"34":-0.04061406929719917,"35":0.04381378157858182,"36":0.06646528521648684,"37":-0.16952449401111722,"38":-0.031529121057873186,"39":-0.1918465470918982,"40":0.02084752567722504,"41":0.12695051046472602,"42":0.07987319306083213,"43":0.022177547709695163,"44":-0.29749621872331916,"45":0.06103395577369993,"46":-0.33672016115426223,"47":0.20018133492119725,"48":-0.14051636530133182,"49":0.06956491300231937,"50":0.06684415591178797,"51":-0.2988539330257039,"52":-0.0790962926991992,"53":-0.35916262540559374,"54":0.11618226572927517,"55":0.02385053280630679,"56":-0.16819745512992795,"57":0.07298676968645457,"58":0.09515798615983849,"59":0.08209474471454087,"60":0.08414446074281276,"61":0.0029259584082076237,"62":-0.2316341157696306,"63":-0.09031293442267521,"64":-0.6961365045560406,"65":-0.17582985066623097,"66":-0.10688668896078778,"67":0.02702275670060712,"68":-0.0551381824488543,"69":-0.0418314195074057,"70":-0.2606722133501662,"71":0.022991349688073894,"72":-0.18633500533883046,"73":-0.005028025564880713,"74":0.03272639266065268,"75":-0.0801239374855167,"76":-0.007531201109676073,"77":-0.20019315030573406,"78":0.06713943151665898,"79":-0.13622526316287187,"80":-0.01898166124665779,"81":0.13096988264311862,"82":0.03480490467885384,"83":-0.12305785350178229,"84":-0.02045539615185636,"85":0.03329398341089513,"86":-0.20871020089614875,"87":0.039804692626952624,"88":0.19026129141470727,"89":0.01645285618136158,"90":0.01096428715844314,"91":0.15142635749231667,"92":0.034179172027154536,"93":0.03940952690141886,"94":0.14582485837837103,"95":-0.05907161562376899,"96":0.08144484526137209,"97":-0.4412126564315969,"98":-0.04528895718704301,"99":0.14168555792622697,"100":0.04922592918609359,"101":-0.045406902049906016,"102":0.07106445843654764,"103":-0.07338667395984548,"104":0.04098105439425079,"105":-0.09435829326914566,"106":-0.06418128617570898,"107":-0.007901216454015947,"108":-0.016224474684306867,"109":-0.07121059132245632,"110":0.001098365013537385,"111":-0.05706572865705547,"112":-0.09530786142357632,"113":-0.10884694237508954,"114":0.10482493149272624,"115":0.016689813660836845,"116":-0.060571632792272415,"117":-0.10710253513552807,"118":-0.06590376211669943,"119":-0.18834115795658304,"120":-0.0036551686197699306,"121":0.09282187442638747,"122":0.17780078699075688,"123":0.14008297206634537,"124":-0.13686803195052297,"125":0.14955252458616988,"126":0.15242606876703757}},{"sx":1,"sy":1,"depth":127,"w":{"0":-0.04919293660545439,"1":0.07306543592972255,"2":0.08930360094564273,"3":5.043404074356463,"4":0.5337849709578586,"5":-0.06554753357110296,"6":-0.05213475777827734,"7":0.043901343753563894,"8":0.13580963563171125,"9":-0.019900581976613547,"10":0.04601495942061264,"11":0.3595373050726848,"12":0.2661783258562813,"13":0.03808064211807545,"14":-0.035463992451498234,"15":0.037931371768124125,"16":-0.07994175139343768,"17":0.12792382586881448,"18":0.20376357413481097,"19":0.12632104181588213,"20":0.07268063524020618,"21":0.11836768422178359,"22":-0.18228390152207039,"23":0.1665106842114712,"24":-0.04003284043818018,"25":0.7454626593768471,"26":0.061732155412184075,"27":0.021838685423560086,"28":-0.0009545987074324573,"29":0.08937991155548729,"30":0.12265657009504374,"31":1.0167798935477874,"32":0.3303596676648897,"33":0.1631441155822886,"34":0.010661618727780327,"35":0.12299973025202796,"36":0.09697234199892016,"37":-0.042878646597980304,"38":0.12017956620850968,"39":0.14746241999078566,"40":0.06273326526157763,"41":-0.0628852428361544,"42":0.1102655725468678,"43":-0.012395603871319874,"44":0.015525139569038197,"45":-0.16006536355951023,"46":0.3255831737595668,"47":0.1484476797935008,"48":-0.10257282732725925,"49":-0.028644894463245023,"50":0.017299722827684234,"51":0.1529619338007084,"52":-0.1610069601846045,"53":0.43653584310036114,"54":-0.005339531461293155,"55":0.023039192150886168,"56":-0.0949965856310281,"57":-0.026004358017138282,"58":0.03497830492024044,"59":-0.08416821603356736,"60":-0.03381973073252379,"61":0.15967439764263186,"62":0.08028052449203998,"63":-0.15218007922261712,"64":0.12239164668421046,"65":0.12018455323712073,"66":0.12369826622534336,"67":-0.03395365457451489,"68":0.11167256866038677,"69":-0.03237040582019561,"70":-0.22042482498955415,"71":-0.03576682546165441,"72":0.056557748604916025,"73":0.02979020691106242,"74":0.0013404253112051098,"75":-0.009480332743885137,"76":0.1451608040170106,"77":-0.14451393050927616,"78":-0.08176365697194828,"79":0.26476220036980436,"80":0.11714948198851972,"81":0.01593670255571761,"82":-0.015247469907626203,"83":-0.049107718152247015,"84":-0.009304027403052601,"85":0.22896635269016824,"86":0.17157279919385854,"87":0.032667684669919685,"88":-0.0770244675240487,"89":-0.038007534524569085,"90":-0.026975209084588756,"91":-0.23588059724082097,"92":-0.0073350133167045285,"93":-0.00417323008057488,"94":-0.18391295816846057,"95":0.05738739908247297,"96":-0.07101222985296075,"97":-0.027005610578520613,"98":0.010164514722379713,"99":0.02487844817630679,"100":-0.09651502409002169,"101":-0.048068058234696995,"102":-0.005622724101130697,"103":0.03205362457617018,"104":0.011106121677002034,"105":0.010470925428658618,"106":0.026299819281077545,"107":-0.04881003738885557,"108":-0.05370595968945107,"109":-0.02968865558397835,"110":-0.06295627559118233,"111":-0.0332527023737828,"112":0.008035021077290858,"113":-0.10079395782794001,"114":0.0939263827502972,"115":0.18417854915606344,"116":0.2077185557786263,"117":0.06261754163707249,"118":-0.06412921506617557,"119":-0.029822171846790917,"120":0.08623453923133458,"121":-0.14953640441706886,"122":-0.07672308275403711,"123":-0.04839639361582298,"124":-0.1687097563276918,"125":0.020540200236261012,"126":-0.02252350786974959}},{"sx":1,"sy":1,"depth":127,"w":{"0":0.06675887258179163,"1":0.08717216432345468,"2":0.07476734840029949,"3":0.256618001356203,"4":0.001954044368519847,"5":0.024809810547777006,"6":-0.04331628047086142,"7":0.05290934157845171,"8":0.06594462863378027,"9":0.004655536482442729,"10":0.15918263684093667,"11":0.012478690995448384,"12":-0.04653383799426082,"13":-0.04450036383065671,"14":0.00304972745419136,"15":-0.009765226417472456,"16":0.029535770547902903,"17":-0.14893797292442693,"18":-0.05057453716222172,"19":-0.06176822553484609,"20":-0.13215281511100793,"21":-0.04911115714266721,"22":0.1109155958878254,"23":-0.037484331951768875,"24":-0.17607448000611772,"25":0.04060485187986633,"26":-0.08771352479878997,"27":-0.06504998013442181,"28":-0.13592546259947913,"29":-0.2351686697826032,"30":-0.16936620566148508,"31":0.08506551271474659,"32":0.18514106934999838,"33":-0.01385052125009393,"34":0.10717900774489227,"35":-0.2045422464895558,"36":-0.10747766152137463,"37":-0.14013495152014327,"38":0.028279896955348202,"39":0.07381835727943514,"40":-0.15581038624992638,"41":0.01705306880384899,"42":-0.25476280005742746,"43":-0.19474551336658955,"44":0.004344343306009779,"45":-0.007308854532693494,"46":0.07371977049644726,"47":-0.01736408196890451,"48":-0.10652496211956398,"49":-0.17109375223380785,"50":-0.06266980287873368,"51":-0.08373610270659691,"52":-0.05145666878614938,"53":0.15435578970864194,"54":-0.0012449304460574134,"55":0.07524118005295406,"56":-0.12962619211179718,"57":-0.12822797075268022,"58":-0.07701913049317875,"59":-0.05555683113546844,"60":0.3009687234061338,"61":-0.16138693665613457,"62":-0.030869873712495003,"63":-0.07711940783421477,"64":-0.12321952200228539,"65":0.2287109959562287,"66":-0.0752257529548495,"67":-0.13426248911733096,"68":0.03243229072178113,"69":-0.0633926224382604,"70":-0.1732367369340496,"71":0.0995109484661448,"72":0.059984049709868134,"73":0.06861194558888617,"74":0.01371054648274512,"75":-0.14338305006854848,"76":-0.07437357767219753,"77":-0.018901775500563954,"78":-0.04007644802639256,"79":0.0650420268893151,"80":0.018079835422726783,"81":-0.03034867012263061,"82":0.04612866308418229,"83":-0.015580875502842036,"84":-0.02675357281775703,"85":0.015929361664928404,"86":0.05412569376618169,"87":-0.12142213836645331,"88":-0.053941889812177804,"89":0.09082712095238867,"90":-0.07824193527218826,"91":0.11570856860836225,"92":-0.24877045320460495,"93":-0.1461504542948205,"94":-0.04486855851016794,"95":0.0392914178664906,"96":0.07253285289398258,"97":-0.020939735260603227,"98":-0.10182192087063936,"99":-0.183779145117782,"100":-0.04738768759990805,"101":-0.0047243358120209545,"102":0.0610232482254868,"103":0.15576399505711908,"104":0.03952658505738018,"105":-0.10934532425422813,"106":-0.09784992211462899,"107":0.06911567809071682,"108":0.1506998346460088,"109":-0.02233514737947878,"110":-0.12280010105210441,"111":-0.001755990031234562,"112":-0.07036305207176186,"113":-0.003447563112985405,"114":-0.060789315544058614,"115":-0.025550369003040543,"116":-0.05151268770125083,"117":0.036033076090709146,"118":0.056989112181884294,"119":-0.11050837584177403,"120":0.05351268136477703,"121":-0.10130947757645839,"122":-0.15937864308889121,"123":-0.21044300863114154,"124":0.08020926771981138,"125":-0.046445511815765214,"126":-0.06823076265872664}},{"sx":1,"sy":1,"depth":127,"w":{"0":0.15130653173425246,"1":-0.008752027320319542,"2":0.3828815451048505,"3":1.2494352800914295,"4":-0.10074380138024377,"5":-0.009113227031017463,"6":0.091687799518165,"7":0.07419564413115093,"8":-0.18688278227506397,"9":0.3214633125706454,"10":0.02005706662447964,"11":-0.1877205340029333,"12":-0.139181381148963,"13":-0.0974904044395688,"14":-0.09932468337428257,"15":0.20351353659481952,"16":0.2095683322936525,"17":-0.05809927762358568,"18":-0.191390821143793,"19":-0.07582862125651957,"20":0.004167729448941309,"21":0.06255855114292698,"22":-0.10982337627642215,"23":0.25520000977329094,"24":-0.020281455100818593,"25":-0.022734460865037047,"26":-0.060958165639600936,"27":-0.0527684460149497,"28":0.11283809919681792,"29":0.06013976435979147,"30":0.20637549106287814,"31":0.1976061918705683,"32":-0.0999452891979491,"33":0.015785342633429057,"34":-0.013766353677862452,"35":0.12370983734963886,"36":-0.0073009362023639226,"37":0.19331224575636966,"38":-0.14737870776908277,"39":-0.09249954610660861,"40":-0.015180086303636679,"41":-0.055682274267272854,"42":0.055678951391207904,"43":0.062016009931315855,"44":0.17650322571793706,"45":0.07963263276958299,"46":-0.06959648591996641,"47":-0.16498150827748675,"48":-0.11621250183728334,"49":-0.12675655708420464,"50":-0.05419412914356592,"51":0.21940052778582075,"52":0.10104642541181169,"53":-0.019524317478042705,"54":-0.0026140735750591094,"55":0.07911524596769547,"56":0.04125632079882957,"57":0.10875812190114385,"58":-0.07683207430773055,"59":0.044623907644978325,"60":0.06344991955982687,"61":0.05000931987033324,"62":-0.1592608365047893,"63":0.17990810681620853,"64":-0.020915389462684696,"65":0.1475275779803823,"66":-0.09776619307469739,"67":0.06706913797861656,"68":-0.012252636942377444,"69":-0.07434362407861814,"70":0.15192917763555167,"71":-0.001044343389817442,"72":0.01591950143252416,"73":-0.1469410796641929,"74":-0.10396651776905483,"75":0.11312679884685072,"76":-0.04547869151370574,"77":0.17368795348191143,"78":-0.025656491257939312,"79":-0.20185537923307967,"80":-0.29533217898987624,"81":-0.010566152982447773,"82":-0.019184405871610175,"83":0.13728121856099504,"84":0.12135234900017808,"85":0.07833048553391184,"86":-0.049652605910206114,"87":-0.2860357360872772,"88":-0.001243607133796822,"89":0.13041897387266613,"90":-0.1957142790072895,"91":-0.08186435965629975,"92":0.030424039116755234,"93":0.03313582081226686,"94":0.14151852673037227,"95":0.09366513680177105,"96":-0.06030734922755886,"97":0.0809872107591554,"98":-0.09810088967453326,"99":0.011462938790772339,"100":-0.11788752965950748,"101":-0.04318661013846003,"102":-0.04613394415072679,"103":0.02360912378062771,"104":0.06913581878249302,"105":-0.058606974760811475,"106":0.01972619482303692,"107":-0.01570700605899338,"108":0.06479673952246504,"109":0.0075059655900002594,"110":0.17106920383456484,"111":0.0682494817979027,"112":0.09749819333172656,"113":0.11303754486433705,"114":-0.07649150860808,"115":-0.11435473276453899,"116":0.13411048658533137,"117":0.05030286155321288,"118":0.05506146603865578,"119":-0.018092135990185672,"120":-0.046286742005004086,"121":-0.06046175188862842,"122":0.013207031641957316,"123":-0.05673375772922764,"124":-0.25779553977633984,"125":-0.0026412954697016744,"126":-0.06826960949171407}},{"sx":1,"sy":1,"depth":127,"w":{"0":-0.14025172290854457,"1":0.02882684013274039,"2":-0.17548392875113314,"3":0.06213068930967778,"4":0.04739196038280066,"5":0.033780027883734194,"6":-0.08771947842312695,"7":0.034252084892385286,"8":-0.04337784494752104,"9":-0.03927305896305604,"10":0.07468517824142926,"11":0.022427222859266335,"12":0.07061558558566064,"13":0.04761950281184439,"14":0.01501990206077215,"15":0.049618082669841954,"16":-0.04486172789942576,"17":-0.10987594863348954,"18":0.1129212557249521,"19":0.12918209791675175,"20":-0.012341098092430626,"21":0.12934286384305121,"22":0.010886238574209608,"23":-0.20236667904747951,"24":0.05709735884388953,"25":-0.05454062489147676,"26":0.08724148266410141,"27":0.0006528808972461204,"28":-0.062278760535369314,"29":-0.029829395760196283,"30":0.12033467086746233,"31":-0.16252491942306796,"32":0.08191811289599783,"33":-0.032830997254335095,"34":-0.00937807967637088,"35":-0.031643983647503454,"36":-0.09536650824063218,"37":-0.1517815203541523,"38":-0.07673711300229713,"39":0.1006142376147442,"40":0.04796024020476503,"41":0.17440978986443512,"42":0.06510779307542268,"43":0.11750461719404251,"44":0.06262480244505161,"45":0.0031633573741204754,"46":-0.009778359092753479,"47":-0.06471441103020045,"48":0.0019343109416108228,"49":-0.023008064417775805,"50":-0.024080560835392444,"51":-0.1590796979359694,"52":-0.009637965100038427,"53":0.05779481013752994,"54":0.12589131887439348,"55":0.07817635515731729,"56":-0.09989721139873309,"57":0.062258462459001705,"58":-0.13124391518989956,"59":-0.032662186253252214,"60":-0.23428486256362277,"61":0.16291767824385303,"62":-0.25783347512642385,"63":0.0972870072025057,"64":-0.2063663480227543,"65":-0.08421300143095463,"66":0.03229400059600277,"67":-0.0026749903858332385,"68":0.04322130366207716,"69":-0.18632924729136074,"70":-0.08138896645412821,"71":0.025965051799639538,"72":-0.1036417307839048,"73":0.07016931221522353,"74":0.05113526665858241,"75":0.08581354609871805,"76":-0.0949572916246828,"77":0.13505402526498309,"78":-0.05172146666744377,"79":0.0577280104088943,"80":-0.0018677700944897929,"81":-0.062475186635189736,"82":-0.03326853421788512,"83":-0.11064738072369826,"84":0.08023844431635566,"85":0.10735337099044481,"86":-0.10777610755049098,"87":-0.018371419248954902,"88":0.14233710250046253,"89":-0.032180460348817976,"90":0.16725899257539656,"91":-0.22095567798596685,"92":-0.10896868223721766,"93":-0.100863555533049,