
//<![CDATA[

// a few things don't have var in front of them - they update already existing variables the game needs
lanesSide = 1;
patchesAhead = 4;
patchesBehind = 8;
trainIterations = 100000;

var num_inputs = (lanesSide * 2 + 1) * (patchesAhead + patchesBehind);
var num_actions = 5;
var temporal_window = 3;
var network_size = num_inputs * temporal_window + num_actions * temporal_window + num_inputs;

var layer_defs = [];
layer_defs.push({
    type: 'input',
    out_sx: 1,
    out_sy: 1,
    out_depth: network_size
});
layer_defs.push({
    type: 'fc',
    num_neurons: 120,
    activation: 'relu'
});
layer_defs.push({
    type: 'regression',
    num_neurons: num_actions
});

var tdtrainer_options = {
    learning_rate: 0.001,
    momentum: 0.0,
    batch_size: 100,
    l2_decay: 0.01
};

var opt = {};
opt.temporal_window = temporal_window;
opt.experience_size = 3000;
opt.start_learn_threshold = 500;
opt.gamma = 0.7;
opt.learning_steps_total = 10000;
opt.learning_steps_burnin = 1000;
opt.epsilon_min = 0.0;
opt.epsilon_test_time = 0.0;
opt.layer_defs = layer_defs;
opt.tdtrainer_options = tdtrainer_options;

brain = new deepqlearn.Brain(num_inputs, num_actions, opt);

learn = function (state, lastReward) {
    brain.backward(lastReward);
    var action = brain.forward(state);

    draw_net();
    draw_stats();

    return action;
}

//]]>
    
/*###########*/
if (brain) {
brain.value_net.fromJSON({"layers":[{"out_depth":159,"out_sx":1,"out_sy":1,"layer_type":"input"},{"out_depth":120,"out_sx":1,"out_sy":1,"layer_type":"fc","num_inputs":159,"l1_decay_mul":0,"l2_decay_mul":1,"filters":[{"sx":1,"sy":1,"depth":159,"w":{"0":0.00846151368016403,"1":0.08035561397145093,"2":-0.0728772315046805,"3":0.15228529001207114,"4":-0.0182770572272501,"5":-0.01795210141801567,"6":0.05233044208983618,"7":0.02740423336842458,"8":-0.0286100835020612,"9":0.016069513870014575,"10":-0.08228789304678863,"11":-0.06728117870465247,"12":-0.12306763226630514,"13":0.02912965781040555,"14":-0.12208671523807664,"15":0.04629322487189081,"16":0.037908502185412564,"17":-0.13938601540777498,"18":0.2636596833995244,"19":0.19446562816763258,"20":-0.20730837832631785,"21":-0.1525742840193564,"22":0.0591073367747447,"23":0.044919723025780026,"24":0.0017739356916105333,"25":-0.021822770922675656,"26":-0.0851182066471292,"27":0.022611690909826305,"28":-0.03482792394089716,"29":-0.0604285576830201,"30":0.047246228143990966,"31":0.03812532342407297,"32":-0.012674924921322734,"33":0.07696843625877085,"34":-0.07559646989738197,"35":0.09546711640316889,"36":0.07732128973935319,"37":0.05909347891706879,"38":0.06866823564979636,"39":-0.03339511058682929,"40":0.07760710863966548,"41":0.04637530953486209,"42":0.08198378000000078,"43":-0.07379268460942652,"44":-0.09702883909632912,"45":-0.09151897943527505,"46":-0.07116014427503956,"47":0.03677528608422154,"48":0.06897932402451204,"49":0.03828238325223613,"50":-0.0662750211952655,"51":0.037459962605118996,"52":-0.011440797652079648,"53":-0.006587405446149435,"54":0.03699529566740681,"55":-0.10068620454342196,"56":0.0066460155384110535,"57":0.10092689058949646,"58":-0.053800159326578695,"59":0.039562217878218425,"60":0.17397571226466735,"61":0.08733496192920699,"62":0.08871060664621265,"63":0.0068018049981354405,"64":0.0023142777940090517,"65":0.09159418822571795,"66":0.14291763489074086,"67":-0.11473313282137013,"68":-0.11886670208241797,"69":-0.006806440229635276,"70":-0.06021548360297109,"71":-0.07273409062931298,"72":-0.029555907436985454,"73":0.06239352586572148,"74":0.16426936429956787,"75":0.08647537653674804,"76":-0.08056400997489616,"77":0.06312845889640664,"78":-0.06524692112896872,"79":-0.04230835913331691,"80":0.05456842895150327,"81":0.04734274100422945,"82":-0.02416067897155488,"83":-0.07981087514056046,"84":-0.03536930872689823,"85":-0.12735966589563813,"86":0.07192678027251406,"87":-0.00003165140292303641,"88":-0.020393471872750524,"89":-0.002012195207747046,"90":0.1577924301979038,"91":-0.01911352654076871,"92":-0.005946010054975371,"93":0.058234379876104976,"94":-0.0512429540714431,"95":-0.011927943339060484,"96":-0.025503759622889068,"97":0.027727320565211506,"98":0.02695358247106327,"99":-0.06427646827706898,"100":0.004479168483825405,"101":-0.06619502491640718,"102":0.05037344842500553,"103":0.019690397031595072,"104":0.013386757862504449,"105":-0.0034173049401947145,"106":-0.021379480698162735,"107":0.09489631543532104,"108":0.019080468855072922,"109":0.11871655011879657,"110":-0.1203375568407561,"111":-0.10068430576603365,"112":-0.12796526303715317,"113":-0.050881188082053476,"114":0.1661520815404021,"115":0.018799312289951835,"116":0.03528878197564026,"117":0.06966329388205007,"118":0.06063164186638147,"119":-0.0028074930079010824,"120":-0.08812218679650036,"121":0.0373430479345998,"122":-0.0011212276175713502,"123":-0.07905389816356631,"124":0.05512497033375302,"125":0.12983622993202462,"126":-0.0545250921516427,"127":0.05546704695693933,"128":-0.014439066766809472,"129":0.022112268287368276,"130":0.07952618372094819,"131":-0.10837069821883745,"132":0.031465497955027566,"133":0.07241938994352573,"134":-0.028936670756003348,"135":0.0688035923468905,"136":0.11119299822202067,"137":-0.026047708334561145,"138":0.13147290722051494,"139":0.044265230860372075,"140":0.0191663190438795,"141":-0.029367173675498615,"142":0.07459417396563954,"143":0.07403540247853088,"144":0.009289401418603323,"145":0.21126850538580566,"146":-0.0018657212681508677,"147":-0.036816853116576925,"148":-0.02747224537353322,"149":0.004338390140816359,"150":-0.06583808233880943,"151":0.03803951693295591,"152":-0.03152569083549649,"153":-0.13718070163235072,"154":-0.06664710780597113,"155":0.05140304895253965,"156":-0.03886327870679829,"157":0.01865851942280208,"158":0.022170574200605087}},{"sx":1,"sy":1,"depth":159,"w":{"0":-0.06745005075633327,"1":-0.09424079711556561,"2":-0.12795833816624333,"3":-0.020809775202452627,"4":-0.04773811097837197,"5":-0.0379180394729293,"6":0.018321816421058547,"7":-0.09555228935851624,"8":-0.049684902167440946,"9":0.07273947172650673,"10":-0.002775567213839154,"11":-0.08036824837555077,"12":0.01545355162117551,"13":-0.07087328637994009,"14":0.017433774466211402,"15":0.07178406855323072,"16":-0.1366992923845355,"17":-0.020164129723852214,"18":-0.05081130691867981,"19":-0.08703772866885998,"20":0.11808914368845067,"21":-0.02981297023366261,"22":-0.023845938569358946,"23":-0.054594570460573116,"24":0.1325299645739055,"25":-0.03357059452444607,"26":-0.0584620393865087,"27":-0.003000895407185062,"28":-0.16844104012279526,"29":-0.017092171068845148,"30":-0.02312990646151983,"31":0.06967320776640604,"32":-0.10163564024963861,"33":0.0575627073312161,"34":-0.0018858911368637124,"35":-0.07812838103412985,"36":0.05939765214253694,"37":0.11307658911638459,"38":-0.0009966670686308108,"39":0.07883198417112566,"40":-0.13716974831130854,"41":0.01872116431376516,"42":-0.2098435832002959,"43":0.008034957743893628,"44":-0.0390244504244293,"45":-0.07963194320690535,"46":0.06382909867167387,"47":-0.10251342234848548,"48":-0.11360776209447217,"49":-0.03274698718414042,"50":-0.03497897366874169,"51":0.011301863563720418,"52":-0.0568932715849999,"53":0.08093963119091312,"54":-0.03347159850252775,"55":-0.02343186298905793,"56":-0.14854510520100223,"57":-0.01507624783573001,"58":-0.019465357866279297,"59":-0.0416687400191905,"60":-0.015363671159396458,"61":-0.04317158287168359,"62":0.05624246815529221,"63":0.031152129688222244,"64":0.05033685268894984,"65":-0.03513485781341622,"66":-0.018149757002556367,"67":-0.003553838823624188,"68":0.06871512962454507,"69":0.10631674329461872,"70":0.07616062532212,"71":-0.061870010795784865,"72":-0.05993214037376301,"73":-0.01631932340243217,"74":0.15334887285902057,"75":-0.04895926855492531,"76":0.010002788339459136,"77":0.09365865421361987,"78":0.06135671562348929,"79":-0.06111231094736776,"80":0.06052674527753387,"81":0.0483119996039987,"82":0.07836455244189944,"83":0.02264748450431443,"84":-0.10518500087266287,"85":-0.02188283234278492,"86":0.02456572900955152,"87":-0.21885259869652532,"88":-0.07134282312402092,"89":0.012874158917935351,"90":-0.0020553734323675564,"91":0.11471737559120228,"92":-0.017254376035930385,"93":0.12156380834211204,"94":-0.10861269422551574,"95":0.07100825547551295,"96":-0.023146380168545654,"97":0.11496533311265895,"98":-0.018078425340122366,"99":-0.08143090706034725,"100":0.06938849125864248,"101":0.05023878290537896,"102":-0.060622652391267635,"103":0.05245955860722932,"104":-0.015736300466227794,"105":-0.036560281634091016,"106":-0.04438949931121967,"107":-0.052494939412820164,"108":-0.06932270703813921,"109":0.03339643027971537,"110":-0.08818383763325266,"111":-0.05492659907823353,"112":0.03407176294390609,"113":0.14796119632108437,"114":-0.11622069695861936,"115":-0.07306520950826709,"116":0.14368383211424854,"117":0.15371273893512358,"118":-0.05824451965659376,"119":0.115844143095382,"120":-0.024155621153226746,"121":0.07603654684564506,"122":0.06140889271744148,"123":-0.037105099482219996,"124":-0.10814274948281934,"125":-0.1352142624246897,"126":-0.000017853153909038492,"127":-0.08645790510076096,"128":0.057994996198076174,"129":0.04381300477112619,"130":-0.1082435033733864,"131":-0.13252543886193052,"132":0.06200645009689918,"133":0.04648807441815549,"134":-0.11128213623525551,"135":-0.07936125808948001,"136":0.01494052066590105,"137":0.045487055829418054,"138":-0.021099904293012495,"139":0.021854695714846314,"140":0.062138316278894726,"141":0.15100778018393118,"142":0.011900608484208885,"143":-0.04381949590759833,"144":0.05403620127079467,"145":0.04631230366868516,"146":0.04537202431227228,"147":0.03793179864899664,"148":0.05289347608604894,"149":0.024183843464153563,"150":0.09634975200218449,"151":0.003156692797276437,"152":0.10570073932168346,"153":0.06847169806836872,"154":0.09991479304245725,"155":0.03986286712718795,"156":0.03137647794404506,"157":0.02625378859734919,"158":0.04302980910944131}},{"sx":1,"sy":1,"depth":159,"w":{"0":-0.01010211243457383,"1":-0.1031997772575622,"2":-0.01960895213574464,"3":0.05124781139397048,"4":0.0030779868063626793,"5":0.041363871195276736,"6":0.04002055844271852,"7":0.009825973834217244,"8":-0.13749839046668397,"9":-0.04331095505450498,"10":0.1258535930980145,"11":-0.02782451032201229,"12":0.0906284974399649,"13":0.19051795062508112,"14":0.006336504121551615,"15":-0.01907354796815159,"16":0.11146736095652475,"17":-0.032354135344010805,"18":0.07166461391801249,"19":0.0031744050252022903,"20":-0.047974653420043846,"21":-0.032453473768625285,"22":-0.013192848738095942,"23":-0.16357348615333112,"24":-0.11197311745811298,"25":0.08520936414113758,"26":-0.05796321622216023,"27":-0.07856883810561265,"28":0.11405793298031817,"29":-0.1081662628385094,"30":-0.030125777264807103,"31":-0.005587282653032991,"32":-0.10263044021419626,"33":0.010820459133823766,"34":0.10448485714079225,"35":-0.036795088452886225,"36":-0.13604318432237605,"37":0.012673577112930354,"38":0.006753902840448715,"39":-0.08841005010532994,"40":0.0392944030744374,"41":-0.006273888468714799,"42":0.04908111998915143,"43":-0.10242959079779175,"44":-0.019841029502247767,"45":-0.02339501828531983,"46":-0.16560552828079342,"47":-0.016016583341518044,"48":-0.08657055468256704,"49":0.04849638052687464,"50":0.025901740978365576,"51":0.005923025085983541,"52":0.039784210293936695,"53":0.0027490785545423294,"54":0.08694267770639644,"55":-0.05441135376203792,"56":-0.06939470508755029,"57":-0.01137055701342616,"58":-0.11651394507205558,"59":0.025127733567172506,"60":0.14117098184555804,"61":-0.026929162315137842,"62":0.016155964396378203,"63":-0.0492876927812157,"64":0.16679946185507716,"65":0.002908713013879572,"66":-0.029857317823133344,"67":-0.0056635783804341085,"68":0.04751545759409794,"69":-0.03723340104162382,"70":0.09043449360624743,"71":0.07114744156690986,"72":-0.06668283079480009,"73":0.01780476051905053,"74":-0.06271208978503753,"75":0.08296523292308303,"76":0.13838235921787387,"77":-0.02594924407955948,"78":0.005856047656237526,"79":0.010962926637730472,"80":-0.08737464485456835,"81":-0.024260109839100895,"82":-0.029654941096368324,"83":-0.059998748425859214,"84":-0.07306209810877091,"85":-0.023949303598834286,"86":0.05030079295954888,"87":0.07664887061397366,"88":-0.024770676172131773,"89":0.22490553505287514,"90":-0.00241541408746416,"91":0.06157673888548971,"92":-0.10952159428428783,"93":0.2885436683416898,"94":-0.14489540285919145,"95":0.06922025457041131,"96":0.08797264336726263,"97":-0.07552552369859544,"98":-0.012942048981798498,"99":-0.03528633639973509,"100":0.07799919469971146,"101":0.05331347198640308,"102":0.1369262937715158,"103":-0.051383615424143894,"104":0.10565844166439137,"105":0.10916558368619945,"106":0.17884524110890548,"107":-0.07994951433035105,"108":0.09109655121847114,"109":-0.019789801392143792,"110":-0.08441067483386924,"111":-0.07897430000709567,"112":0.09853510701209024,"113":-0.09552131775105972,"114":0.06725531485188099,"115":0.04825961626740305,"116":0.05520419910234847,"117":-0.015511396192716558,"118":-0.08934989303177687,"119":-0.05208584683437691,"120":-0.07969260511978364,"121":0.03225622632972223,"122":-0.017836728482991764,"123":0.06911985372066547,"124":0.029861345096446584,"125":-0.10977659067503318,"126":-0.004131270897838676,"127":-0.011171611397274385,"128":0.007542235717160181,"129":0.06570590793683524,"130":-0.0048909225886664765,"131":-0.07726435086516864,"132":0.006987166850314628,"133":0.04396991360540901,"134":-0.009953423315983215,"135":-0.0067102048181491465,"136":0.048735133328656234,"137":-0.017947616105999552,"138":-0.07431310551399879,"139":-0.03843966847419936,"140":0.010134724954740246,"141":-0.039405940901124425,"142":0.11663997248587059,"143":-0.10665429018162809,"144":-0.05882786487248554,"145":0.023289807339881254,"146":-0.09691180001395285,"147":0.0846210926475997,"148":0.04244176526781994,"149":-0.15576229010590714,"150":0.03108008481982663,"151":0.07071672681302317,"152":0.06942537438477417,"153":0.0026812761801780142,"154":-0.039903117130218685,"155":-0.06172643976522636,"156":0.05785069412899204,"157":0.03223012980932886,"158":-0.04825776336425598}},{"sx":1,"sy":1,"depth":159,"w":{"0":-0.08688828517990912,"1":-0.20355133857257046,"2":-0.16677604683290675,"3":-0.2388078259680558,"4":0.02855030800834081,"5":-0.20112430427123978,"6":-0.15867675275016158,"7":-0.009283546919854488,"8":-0.1577772507518153,"9":-0.2029792299900486,"10":0.09562462599259215,"11":-0.2458571397285838,"12":-0.15121090833141754,"13":-0.29501542442083617,"14":-0.1575505906053386,"15":-0.18639965859463264,"16":-0.30620300941027656,"17":-0.11220778702990139,"18":-0.03399044869687018,"19":-0.1693625062101433,"20":-0.09405106779252316,"21":-0.07394196528567407,"22":-0.26229183595362077,"23":0.0005480905276086677,"24":-0.1895132929793703,"25":0.056979937327639216,"26":-0.11810932804248471,"27":0.0037972633948994135,"28":0.015567527579833262,"29":-0.03284559856069299,"30":0.09729827101516074,"31":0.017354031869489008,"32":0.05103684685923862,"33":0.016106705484009512,"34":-0.02961593122910852,"35":0.0878426743866865,"36":-0.17768470449539478,"37":0.03869219750050388,"38":-0.14020462137921547,"39":-0.22779680129453378,"40":0.06123597494277287,"41":-0.19721406795124913,"42":-0.07923306156820249,"43":-0.05543806692541194,"44":-0.020785416885394672,"45":-0.08429177624805191,"46":0.10825798234112098,"47":-0.05034595940321556,"48":-0.10885271065020503,"49":-0.04177714051125975,"50":-0.17617252911397496,"51":-0.1206065659148659,"52":-0.06459523674526998,"53":-0.054588159111969924,"54":-0.13232195218411805,"55":-0.08201262856296071,"56":-0.02157074860151861,"57":-0.13090153063928076,"58":-0.153501601871613,"59":-0.09944361551145256,"60":-0.037903504784898574,"61":0.1781465006087019,"62":0.0523357437943032,"63":0.06890647785985185,"64":-0.028025702376741842,"65":0.06197732463693576,"66":0.1533876401992946,"67":0.009928866568757069,"68":0.06308948623107355,"69":-0.07925936600378745,"70":0.005976199981238122,"71":-0.023970009635286376,"72":0.13337034000050543,"73":0.10492404684659884,"74":0.1058267518447913,"75":0.13613192584745823,"76":0.1266809753002696,"77":-0.01623442134685267,"78":-0.09701821651969372,"79":-0.11065042726786252,"80":0.028649127590401186,"81":0.0031503302862579043,"82":-0.0013626644325118442,"83":-0.04277212277201132,"84":0.031508103530364456,"85":-0.01611173677364924,"86":0.05044405449577975,"87":-0.00908811336312295,"88":-0.13753479766829918,"89":-0.13068485710921057,"90":-0.0595016342536635,"91":-0.02052024140784626,"92":0.026841026983358218,"93":0.031130283362345457,"94":-0.11599236835941804,"95":0.019060121060947812,"96":-0.0566697815791346,"97":-0.027976547908965185,"98":0.0006148960740853277,"99":-0.11942385455617527,"100":0.1711422319925333,"101":0.010381102681376719,"102":-0.004931713501164253,"103":0.006733267409298419,"104":-0.2160104160377993,"105":0.05082355174264183,"106":0.024453861624881067,"107":-0.031796744718368165,"108":-0.07808720012885478,"109":0.02316133408823084,"110":0.08701783501527904,"111":-0.11243517693758125,"112":0.1240926112097321,"113":0.08134836860618049,"114":0.07819366978966422,"115":0.029296004882945738,"116":0.09312266973623215,"117":0.07249212431846912,"118":-0.026477140809359742,"119":-0.020032629814421256,"120":-0.16491341490059533,"121":0.13720793697065198,"122":0.05010815476909051,"123":0.0043441788482220705,"124":-0.039101690809782715,"125":-0.010216088818922659,"126":0.13962007190733622,"127":-0.023751900071253884,"128":0.14210209984730668,"129":0.08672214649824218,"130":-0.024245659996610814,"131":-0.000642643271856582,"132":0.053968550857114835,"133":0.10739250805769672,"134":-0.013863278341903765,"135":-0.02705289407930454,"136":0.04034699438831698,"137":-0.11642098635215327,"138":0.03180962249448969,"139":0.06353811822813143,"140":-0.09954588889140237,"141":-0.03577434349582603,"142":-0.04306004945357811,"143":0.09928670230623703,"144":0.08051958046082289,"145":-0.010747327027436367,"146":-0.010999904410768844,"147":0.010375830916792643,"148":0.0704300660236873,"149":-0.14474564557194441,"150":0.09609671711274063,"151":0.0035870653208644955,"152":-0.05674651860955192,"153":-0.0678702992824991,"154":0.12750520076256094,"155":0.1190613089003643,"156":0.1655174721521114,"157":0.11667711074391765,"158":0.11651836789335213}},{"sx":1,"sy":1,"depth":159,"w":{"0":0.02869590657260027,"1":0.06386553261816467,"2":-0.07856347914345661,"3":-0.12890693958711985,"4":0.026168664890285416,"5":0.056004600428295866,"6":-0.02498584432403309,"7":-0.09513209483604888,"8":-0.10315384341228188,"9":-0.03314926617656341,"10":-0.02414635153123118,"11":0.028923525184455505,"12":-0.06330203344411132,"13":-0.03743314958046613,"14":-0.011773600752859433,"15":-0.001737088825757227,"16":0.13652416133549464,"17":0.07408019054200388,"18":0.02962820105866137,"19":0.026062078278170038,"20":-0.04633222050440643,"21":-0.055179678132803806,"22":0.19953768212668604,"23":-0.06130176953576381,"24":0.040716809739968836,"25":0.045932537753863086,"26":-0.04776464313962159,"27":-0.12852563491627458,"28":-0.035787138272878175,"29":0.06450773478346761,"30":-0.0056320575273829275,"31":-0.09641223974718358,"32":-0.03720831719270279,"33":0.06011398021975403,"34":0.03960436723824931,"35":-0.05720440854113454,"36":-0.07745180953033567,"37":-0.04617158833185349,"38":0.011725767229105772,"39":-0.037096440159682526,"40":0.07180316361212974,"41":-0.006345671843316793,"42":-0.07008124070956984,"43":0.18589099252855149,"44":-0.11948721799851203,"45":-0.05533722161442617,"46":-0.02202894981145039,"47":0.0476130739645014,"48":-0.13442215042665753,"49":0.09790934776626872,"50":0.03347446370099319,"51":-0.0719459477276873,"52":0.06358875075517048,"53":0.07899000726371011,"54":-0.04763931673745646,"55":-0.09494835410730576,"56":-0.09989188019046065,"57":0.022577419718704462,"58":0.14719171652955876,"59":0.02624177840317749,"60":-0.10892096727087786,"61":0.07483311422175518,"62":-0.12281806944757048,"63":-0.011225788152882077,"64":0.04866679992022195,"65":0.09738711805947489,"66":-0.08927262775681828,"67":-0.11474995982343665,"68":0.05473131229258458,"69":-0.06350899139954307,"70":-0.004900370532773063,"71":-0.01723538937318065,"72":-0.05431548142215054,"73":0.03488555691939969,"74":0.021383255820008985,"75":0.0491453883343566,"76":-0.0813177059127282,"77":-0.10679390214313049,"78":0.005887985316786102,"79":-0.059891559896093544,"80":-0.020304716182608498,"81":0.054777403479759734,"82":0.12481655861329918,"83":-0.008840566436656788,"84":-0.139349830192535,"85":-0.03560083267384872,"86":-0.13701037867383667,"87":0.02061108269011037,"88":-0.007374341120377589,"89":-0.06808785897888588,"90":0.07957512160524759,"91":-0.034908531905497135,"92":0.1104793047386442,"93":-0.06061092146025127,"94":-0.028829674127163765,"95":0.016132262982211997,"96":-0.01850853671473504,"97":-0.04496878160895076,"98":0.1571270371740979,"99":-0.012533356146430499,"100":-0.10214242617474006,"101":-0.11357111636409671,"102":0.035136825925765405,"103":0.06453180660025581,"104":0.009354925437452633,"105":-0.031313359974558856,"106":0.058225751779195374,"107":-0.08894527390422828,"108":0.05016959845946915,"109":0.00855375715503518,"110":-0.014686025078831733,"111":-0.02660608002788085,"112":-0.018724419496130195,"113":-0.16436522888989963,"114":-0.022423364082835608,"115":-0.011966080650953016,"116":0.08166239416841053,"117":-0.0682651071616662,"118":0.12013145170178394,"119":-0.005479729523053508,"120":0.10233808181886433,"121":-0.05885667303835819,"122":0.075325154019062,"123":-0.04050508473438137,"124":-0.10634756375658674,"125":-0.0924140137120191,"126":-0.05394833672289862,"127":-0.012467370582982711,"128":0.057564069629984366,"129":-0.15526448781884594,"130":0.19289505342802363,"131":-0.10281881935913431,"132":0.09189640520794132,"133":-0.07078980247536668,"134":0.10396354525225553,"135":0.016234483348910627,"136":0.041508608157078304,"137":-0.16280086044566947,"138":0.04138715076349265,"139":0.07961874627057025,"140":0.03760386164125742,"141":0.06374850447889216,"142":-0.08690663327046949,"143":-0.03442384861725358,"144":0.033054484900092176,"145":0.0168960358863492,"146":-0.07729809635854967,"147":0.01867620444882233,"148":-0.10627752128143257,"149":0.04862002149624702,"150":-0.048118379002265496,"151":-0.03854321990753874,"152":0.19052902720296078,"153":0.1263472577483927,"154":-0.14481635114841254,"155":-0.06579126260340239,"156":0.05178318450615543,"157":0.12774642142721343,"158":-0.07891015863817992}},{"sx":1,"sy":1,"depth":159,"w":{"0":-0.1296047150271921,"1":0.002185656041010065,"2":-0.12563582360886935,"3":0.027689054130648563,"4":-0.12548436627678874,"5":-0.16574362673500795,"6":-0.06326660921721736,"7":0.020165506693998875,"8":-0.0020496855852940813,"9":0.027669558612684834,"10":0.03912709150514153,"11":-0.1852413588296307,"12":-0.0987547282031004,"13":-0.14676673165937906,"14":-0.1886404729497282,"15":0.05603070990417016,"16":-0.0997559385782377,"17":-0.027538213994757848,"18":-0.09334671144764954,"19":0.0705492061648502,"20":0.1363657470853841,"21":-0.02298209558339181,"22":0.022400626465887634,"23":0.07396862222269866,"24":-0.0478006810677618,"25":0.09956954572351048,"26":0.08040876746215446,"27":0.03442497190158669,"28":-0.009966466497367482,"29":0.1268690383434416,"30":-0.07928179583132974,"31":0.014706821809641965,"32":0.06316815101059792,"33":-0.017263760514441964,"34":-0.054351439485650625,"35":0.027749015801188725,"36":0.04649545823740236,"37":0.1018020594704661,"38":0.06851485811698634,"39":-0.14786217527815393,"40":0.04465911068353164,"41":0.07293710471361481,"42":-0.11380204872131885,"43":-0.06963944807508729,"44":-0.08999841323348244,"45":-0.12403663522667513,"46":0.12846178785096446,"47":-0.06417509231695619,"48":0.08522335702183584,"49":-0.09810765220609946,"50":0.02748741922208169,"51":0.013899125075706183,"52":0.021269277275037687,"53":0.021260002469026738,"54":0.01631972600616351,"55":-0.051283246431813645,"56":-0.07018714651349221,"57":-0.020376424391899444,"58":0.06177333306112708,"59":-0.005586062666035193,"60":0.11196694556563383,"61":-0.11496337227657273,"62":-0.04639622609144013,"63":0.08196251805313506,"64":0.008640045700114736,"65":0.10497772289085605,"66":-0.07801205685216657,"67":-0.011275903573403528,"68":0.02336847039810967,"69":-0.0033793345371747195,"70":-0.1180452919269752,"71":-0.09912929755775236,"72":0.14889338949805686,"73":0.04342287136398366,"74":0.04885245152880298,"75":-0.1507858097807745,"76":0.14466751987361723,"77":0.02420749517719258,"78":-0.01283682017885049,"79":0.1848402715938262,"80":-0.05262521395631813,"81":-0.012838560046497834,"82":-0.08561736070735677,"83":0.029478045062579828,"84":0.0008736274312813564,"85":-0.07420226270601621,"86":-0.04249432331155048,"87":0.03558943880428945,"88":0.02304236812204656,"89":0.004447252849230272,"90":0.08794290853703951,"91":-0.051617536808546034,"92":-0.06581675560438278,"93":-0.13801361605325876,"94":-0.007179311226963249,"95":-0.11559650261418579,"96":-0.05477833989663005,"97":0.0561310899089051,"98":0.0704920560348945,"99":-0.05195856157529846,"100":-0.02537136752762206,"101":-0.057146624520754113,"102":-0.07914005111022596,"103":0.025697863296723966,"104":0.05434653054133541,"105":0.0677138125187943,"106":-0.03592533139205531,"107":0.09400248411026246,"108":0.05331797135497716,"109":0.012418631695074343,"110":-0.06179007455311887,"111":-0.023805137529102186,"112":-0.0378629975963835,"113":-0.01466499262622632,"114":-0.03748837748060337,"115":-0.02024668700608052,"116":-0.09818567377140404,"117":-0.08936485641483767,"118":-0.03514948030580562,"119":0.11880576937305772,"120":-0.11199900235449825,"121":0.07691566685084385,"122":-0.05377170619465825,"123":0.03605099676756805,"124":0.04744995085842119,"125":0.05315416263304513,"126":0.11206617956000582,"127":0.08294056917667206,"128":-0.1225777295111868,"129":0.04393142252039752,"130":-0.09229498755216299,"131":-0.0489344384231362,"132":0.16433270807138126,"133":-0.13617699884165296,"134":-0.007667720754543707,"135":0.05042575428629818,"136":0.08655805918125917,"137":-0.018453424676449167,"138":-0.03594306083203056,"139":-0.0050583551870657445,"140":-0.22104029565888825,"141":0.11878785136603504,"142":0.03821890162092627,"143":-0.08819385890315815,"144":0.0903704942974172,"145":0.0169811167936346,"146":0.0990503430730539,"147":0.038786033902487256,"148":0.07134610293765611,"149":0.019768577645678277,"150":-0.036545262821793975,"151":0.019013420348972253,"152":-0.03410035654267218,"153":-0.01948909518866865,"154":-0.07889790786621301,"155":0.07552920717802952,"156":0.019384009473142103,"157":0.08316049528174242,"158":-0.018571270809126676}},{"sx":1,"sy":1,"depth":159,"w":{"0":-0.24102320599336496,"1":0.1164490293521593,"2":0.0005450942820111991,"3":-0.059658361067257686,"4":0.04362901755805399,"5":-0.06856252262321476,"6":-0.20738886711004217,"7":0.08458605634751708,"8":-0.014330284249417026,"9":-0.06434842290095906,"10":0.12851064691375302,"11":-0.1767145440491818,"12":-0.12525390303056588,"13":0.12914930703640773,"14":0.00886353171951815,"15":-0.00024208135807163444,"16":-0.04965397539993733,"17":0.014351293675923478,"18":-0.04801685626620092,"19":0.05422707524141655,"20":-0.10272221009418775,"21":0.0009531551116626966,"22":0.064591914140227,"23":-0.1486833130972941,"24":-0.14706825378738944,"25":-0.005042754309897746,"26":-0.10123931522056383,"27":-0.05017570742830143,"28":0.0971256992501338,"29":-0.12468198963435038,"30":0.05743321822009815,"31":-0.14710273213375977,"32":-0.027041196313922464,"33":0.08404661073891258,"34":-0.06809064294313374,"35":-0.08694430162843139,"36":-0.05280486011107814,"37":-0.027830755129711143,"38":-0.020815166272430203,"39":-0.03444287982047747,"40":0.19543815594902914,"41":0.07235444634951656,"42":-0.044320446209616615,"43":0.033388214626324735,"44":-0.01502351328178845,"45":-0.08411555443478945,"46":-0.035483223895941475,"47":-0.02377295402902558,"48":-0.1477603668821653,"49":-0.12448353949281607,"50":0.028423773311994555,"51":0.003118383819195661,"52":-0.010396185230934728,"53":-0.04746231315152019,"54":0.10728414379485544,"55":-0.059675583678176145,"56":-0.006278059060784608,"57":0.021460917284169243,"58":-0.0497707814683263,"59":-0.04632548482931771,"60":0.010932485152576504,"61":-0.07367162405640963,"62":-0.09526147572826614,"63":-0.06697613321555375,"64":-0.06353190466020056,"65":0.016817219779105552,"66":0.01458910391474653,"67":-0.0038921559198059966,"68":-0.1461131878600742,"69":-0.03214777452659984,"70":0.040691744901579105,"71":0.1048865547160566,"72":-0.006481169635244269,"73":-0.04399928837148822,"74":0.023078152893619395,"75":0.1048624477602297,"76":0.04492653809864943,"77":0.09602165548199817,"78":0.034613476408294964,"79":-0.09001755283548075,"80":0.012873105476803644,"81":-0.07296591674896138,"82":0.04523845764178658,"83":0.04817944264122058,"84":-0.06609413644290225,"85":-0.09600172076577781,"86":0.023744197269811276,"87":0.05591846442021231,"88":-0.14002597406416337,"89":-0.08444631122744431,"90":-0.014856203411825556,"91":-0.04848461984118263,"92":-0.1163639593748312,"93":0.04854216203958853,"94":-0.09901930795379364,"95":0.05369862246938546,"96":-0.08646198907196967,"97":0.12212623898872972,"98":0.01336621135965545,"99":0.05266468367379396,"100":-0.020778841699468722,"101":0.01696722574265359,"102":0.00017349835098174113,"103":0.041680405289540826,"104":-0.15384292612174846,"105":-0.0868197570639694,"106":0.01757134357505081,"107":-0.06126704161559688,"108":0.058145995544647444,"109":0.18628583599110632,"110":-0.07337579023425037,"111":-0.13208547463092163,"112":0.05371188481307845,"113":-0.04481108195787202,"114":-0.02287001035906099,"115":-0.00467956415205432,"116":-0.02452141916654125,"117":0.15099293260941848,"118":-0.029078265957203253,"119":-0.025120995478573865,"120":0.02671421830055507,"121":0.04700510874320003,"122":0.04284139510242366,"123":-0.15080417747310843,"124":0.023840622429524443,"125":-0.02512255134456788,"126":0.09788385915284646,"127":-0.13583028649216386,"128":0.041512114495419535,"129":0.00830000404136136,"130":0.04270767397031549,"131":0.06810638137691212,"132":0.014674541370579913,"133":0.12221528598798274,"134":0.011299171813252703,"135":-0.012131592048711603,"136":-0.03854175011527306,"137":-0.06478548547361918,"138":-0.05247123799733858,"139":0.016431843213806613,"140":-0.024980538075331314,"141":-0.11534873228383881,"142":0.10309353019922526,"143":-0.10794865674002115,"144":0.06286002103720721,"145":0.0134595737750484,"146":0.05313101198353668,"147":0.010254260042007338,"148":-0.06044189898139183,"149":0.061162579035774635,"150":0.17300306972123516,"151":-0.018858638256312666,"152":-0.013287379296932031,"153":-0.047998076160916385,"154":-0.011291985164113097,"155":0.12439638184703762,"156":0.10044766278701496,"157":-0.03818155437507511,"158":-0.0711182578026784}},{"sx":1,"sy":1,"depth":159,"w":{"0":-0.14221537564060638,"1":0.19438203443132393,"2":0.10490173407651507,"3":-0.04670827182736269,"4":0.046868991559970784,"5":0.10950540848836787,"6":-0.0587725661500171,"7":0.15734569261169,"8":0.08234081367617013,"9":0.06821784627470574,"10":-0.0997072133427299,"11":0.1602761304609284,"12":-0.1070691239830151,"13":-0.04661535781482548,"14":0.07601197806074055,"15":-0.07258648225230364,"16":0.02329528476759516,"17":0.03474049843816136,"18":-0.08521820266071882,"19":0.06679118708797391,"20":-0.1571060648754824,"21":-0.1765060770514775,"22":0.10464635050609346,"23":-0.06250787340937006,"24":-0.06113607176309165,"25":-0.17346234562179852,"26":0.07047148134386998,"27":-0.0652367602875422,"28":0.07324809807796687,"29":0.026122937980624553,"30":0.06691665529942126,"31":-0.051404295088251624,"32":0.036051077213953835,"33":-0.02071308532356214,"34":0.012333678229055874,"35":-0.016698296204309532,"36":-0.019546788972071745,"37":-0.06946297610759632,"38":-0.04439481096707009,"39":0.02975482071509684,"40":-0.14884644660963495,"41":-0.08122850997386716,"42":0.009374286450292434,"43":-0.2329994515521433,"44":0.04173449780084204,"45":0.09747585213228777,"46":-0.03101221359547401,"47":-0.010906089920989511,"48":-0.08838085408178317,"49":-0.17645849678058592,"50":-0.12970260855253427,"51":0.10035515833755516,"52":0.1217613786667666,"53":0.02367367564982919,"54":-0.04697428176380537,"55":-0.04987037573267125,"56":-0.019887139553365504,"57":-0.025361169982614756,"58":-0.010747316775566644,"59":0.019110815385443236,"60":-0.03421553001984993,"61":-0.07784087218896568,"62":-0.02186941964121589,"63":0.014997465793541755,"64":-0.01651583737222665,"65":-0.10970529224260149,"66":0.07940655080058226,"67":-0.06011132650107757,"68":0.021699309760038105,"69":0.0337463784392669,"70":0.05756318798597351,"71":-0.023591189991682013,"72":0.1379444557813408,"73":0.008302692105947277,"74":-0.05409330800869436,"75":0.07502580258332173,"76":0.04061133496586024,"77":-0.10654970481048438,"78":0.13079744293046902,"79":0.0596713082424565,"80":-0.011199789387296606,"81":0.06751072287042521,"82":0.12249376636622597,"83":0.0166646914285701,"84":0.021673156448699805,"85":-0.06029746129524119,"86":0.10482811974098052,"87":-0.03469281061884262,"88":-0.01883832951210525,"89":-0.07136780244505148,"90":-0.11822857415733018,"91":0.13016035213513458,"92":0.029703828734090502,"93":-0.05940114056151715,"94":0.06153297604162656,"95":-0.043754212655094715,"96":-0.18777401363889243,"97":0.1188602623600103,"98":-0.23239527300810156,"99":-0.045297579089259445,"100":0.032256817091148964,"101":0.07560341807179649,"102":-0.07833977859843362,"103":0.1104583628902749,"104":0.08027623348113255,"105":0.1338602520563897,"106":-0.034452567466024944,"107":-0.01600969094744574,"108":-0.03642077267539666,"109":0.0454249416001846,"110":-0.07153964056490529,"111":-0.049592005855548356,"112":-0.045467202887901015,"113":0.019605603447043644,"114":-0.13843773718213767,"115":-0.039712622436819854,"116":-0.12385519019251881,"117":-0.04571458186190611,"118":-0.014123044031982767,"119":-0.020026614536047167,"120":0.12948278699410531,"121":0.034701179247481284,"122":-0.08114948140369345,"123":0.04604834144453515,"124":0.009277822898199959,"125":0.020265076126147853,"126":0.0655863411219869,"127":-0.027604944221412627,"128":0.029617764643494658,"129":0.038872839695223954,"130":-0.07667428817579208,"131":-0.10565023446924388,"132":0.07206639431827352,"133":0.0701269581826514,"134":-0.04102507045292252,"135":0.0951480212439159,"136":-0.09507900136141176,"137":0.11009799978145698,"138":-0.050024753377965796,"139":-0.08002013153484865,"140":0.005508363143830745,"141":-0.054696929241456624,"142":0.0054734503307733206,"143":-0.05302332297144284,"144":-0.04523094117462838,"145":0.10258399172659183,"146":-0.0033496779412407213,"147":0.011833778815607899,"148":0.08557121899263694,"149":-0.0076057550313111235,"150":-0.08714870693961149,"151":0.05284967780758561,"152":0.08960004804378557,"153":-0.016792409040866627,"154":-0.08030790441545196,"155":-0.03003091342776461,"156":-0.042885637928804066,"157":0.13779529147882696,"158":-0.08700973143820481}},{"sx":1,"sy":1,"depth":159,"w":{"0":-0.013098812036118259,"1":-0.05700818186060364,"2":0.034026077524916695,"3":0.012812950784418608,"4":0.09302272945219071,"5":-0.08691534871074126,"6":-0.06298447517969474,"7":0.037019090663198785,"8":0.002390167916676256,"9":-0.011298961944824356,"10":-0.04196925140624065,"11":-0.1503456479048406,"12":-0.04972448505932937,"13":-0.03972759795837316,"14":0.008567868617802142,"15":0.1204255047614211,"16":-0.08336699953442855,"17":-0.07813488933468356,"18":-0.07862709682448403,"19":-0.12436418524651273,"20":-0.11009321092524231,"21":-0.07077690579665696,"22":0.05595237842395537,"23":0.06201310630140028,"24":-0.035240031646344004,"25":-0.03617808671303048,"26":-0.006335213346300629,"27":-0.042457652651340466,"28":-0.013837244178393493,"29":0.018705900236680804,"30":0.021370744413056485,"31":0.14669203703736283,"32":0.010378664451473332,"33":-0.05534219952319844,"34":0.04280696585202431,"35":-0.11946328946097427,"36":-0.0021947016130681274,"37":0.10522632581595172,"38":-0.02364159410367035,"39":-0.046883827447347676,"40":-0.0064925038598896145,"41":-0.049193874627525155,"42":-0.10068543398320014,"43":-0.02810305521770405,"44":-0.008043639832641785,"45":-0.03346896520104452,"46":-0.06074391863311376,"47":-0.042384444007581006,"48":0.03153964548316892,"49":0.04696677725376927,"50":-0.007884098109015638,"51":0.056050693645667476,"52":-0.18325487060758375,"53":0.0658725352505394,"54":-0.18668112767018052,"55":0.0893576786096986,"56":0.08281194701884201,"57":0.0967201812179861,"58":0.0012113925719127408,"59":-0.03147480290888461,"60":-0.04634059293308457,"61":0.04430503707339929,"62":0.04527524914763016,"63":-0.027238314734564454,"64":0.0020321962736242214,"65":-0.07555438053109215,"66":-0.048097524216744555,"67":-0.020021892187387952,"68":-0.05371511206629435,"69":-0.21843078510247513,"70":-0.1502682917848699,"71":0.17738676571075895,"72":0.08296822675184706,"73":-0.006503064037509148,"74":0.00585734480918746,"75":-0.05294325027655614,"76":-0.012988213963654162,"77":-0.1001463650823767,"78":0.06731369852456112,"79":-0.010145176216346705,"80":-0.05480725909329787,"81":0.057825254826005985,"82":0.056179711408303995,"83":-0.02445320226744542,"84":0.05011933656769529,"85":0.1013392081892082,"86":-0.057497476565463584,"87":0.017937703662301095,"88":0.07512849712721575,"89":0.01581538191305015,"90":-0.001788834864165639,"91":-0.025414618216246986,"92":0.02968696491529113,"93":0.04087049564344151,"94":-0.013502590302661988,"95":-0.07953183471882039,"96":-0.00905900244339057,"97":-0.01854773749217047,"98":-0.002548535996815085,"99":0.03268644690860296,"100":0.027840579636871664,"101":-0.10788649166623748,"102":-0.1965876899954575,"103":-0.07496947354689765,"104":0.09556883674483312,"105":-0.08034491225897501,"106":0.09246663079167358,"107":-0.10301246490090435,"108":0.1258616889768716,"109":-0.11482589947015404,"110":-0.05327920182914343,"111":-0.033285186777122694,"112":-0.13764059359919953,"113":-0.13215789533350786,"114":-0.01032165141043906,"115":-0.02482003476994886,"116":-0.15349590792794904,"117":0.046806064921870554,"118":0.026468348849190155,"119":0.11815432863600436,"120":-0.06950767487146729,"121":0.11275671307772854,"122":0.09287021557854902,"123":0.05817205968477472,"124":0.06461056800732136,"125":0.07211597369941411,"126":-0.0970427327445228,"127":0.0300624019342634,"128":-0.09901938964136499,"129":-0.011713639297397313,"130":0.049226390317363436,"131":-0.011057073307236695,"132":-0.06310724788748114,"133":-0.03886093018368393,"134":0.056254883621390056,"135":0.1358448833683168,"136":0.006105060369141103,"137":-0.008420344599497576,"138":-0.00312535726629014,"139":0.2051238576234216,"140":-0.0037742654303659384,"141":0.010729726628662652,"142":0.06215070531842493,"143":0.06815765779575489,"144":-0.06679469362461846,"145":-0.03783647978683672,"146":0.0037496635605980986,"147":-0.06172573498548646,"148":-0.0018701682012384792,"149":0.026133873530395656,"150":-0.057203830242188676,"151":0.18774524671113157,"152":-0.09110129731127227,"153":-0.0357907155427718,"154":-0.11139768986231482,"155":0.02797045324051456,"156":-0.05129705877388087,"157":-0.05489881305844498,"158":-0.024424338309146407}},{"sx":1,"sy":1,"depth":159,"w":{"0":0.07746359144170253,"1":-0.008675755624262685,"2":-0.09278372095229623,"3":-0.16960420548819471,"4":0.10237482216300478,"5":-0.039085262704806785,"6":-0.1341224846439715,"7":0.03585605087922911,"8":0.05881614877767175,"9":0.05279706256090451,"10":-0.08055555391481523,"11":-0.0173449997790735,"12":0.055577269276505026,"13":-0.11423201343769859,"14":-0.02212080645732525,"15":-0.0732085605971422,"16":0.06493906103391099,"17":0.023647030671307395,"18":0.00009758532197822,"19":0.15762530855819257,"20":0.009717826239404242,"21":0.06298318481321707,"22":-0.008641118838832465,"23":0.04778911493104846,"24":0.05994703715506943,"25":0.06889720770579545,"26":-0.1168343110928126,"27":0.016172393292180072,"28":-0.02485495373860971,"29":-0.015601265482811977,"30":0.0051212369039642614,"31":-0.01594524533818516,"32":-0.029719175657697473,"33":0.11809014403001131,"34":0.02112085019185932,"35":-0.009461085349242698,"36":-0.08823060708764627,"37":-0.0392479896856966,"38":0.08019127136597702,"39":0.004852856167944043,"40":0.021070587133305837,"41":0.22716027031918554,"42":-0.14455533184510866,"43":-0.13390447625921087,"44":-0.005666635833296562,"45":0.015423769563837429,"46":0.02811815026655063,"47":-0.06568593330132999,"48":0.07832963128480085,"49":0.02307819141788967,"50":0.03945633454417241,"51":-0.175741314724975,"52":0.004694712739219877,"53":0.048151240177425995,"54":0.0026463481613431565,"55":0.027348774539422343,"56":-0.005180419370652422,"57":0.08872550317215898,"58":-0.07303194774630815,"59":-0.00693963674524308,"60":0.007726267860556541,"61":-0.0708215773079479,"62":-0.0005510557382350485,"63":0.10695547355015765,"64":-0.04583247903634777,"65":0.050250279852481594,"66":-0.042562587809941495,"67":-0.028970846481400123,"68":-0.07102576759854005,"69":-0.05214897188420539,"70":0.05106427172429604,"71":-0.13201990200433844,"72":0.23009766726828007,"73":0.013393443735161624,"74":0.024891174852973458,"75":0.0008349798231744996,"76":-0.15777261377357293,"77":-0.0010979070588677687,"78":0.07274717605511334,"79":-0.032887320384218134,"80":0.024870660448777105,"81":-0.009599601937473537,"82":0.09811253596019794,"83":-0.019717254946455775,"84":0.028258955616899173,"85":0.09084881751562003,"86":-0.04396488558966838,"87":-0.05457413859839705,"88":-0.007113917732722733,"89":-0.05681495958332461,"90":0.045944855844603186,"91":-0.02874524730015753,"92":0.042894780773964164,"93":-0.08548354067846382,"94":-0.0025484569332690846,"95":-0.10566832772137884,"96":0.05443361338402378,"97":0.1364806541691011,"98":0.026020919564348995,"99":-0.026258597478801795,"100":-0.021433200824793174,"101":0.009101088689961673,"102":0.04200895094889845,"103":-0.06308071059165768,"104":-0.15237256435504273,"105":-0.023693743158790057,"106":-0.01345110953390393,"107":-0.10881014312732824,"108":-0.082425225087381,"109":0.08004772714087628,"110":0.113817379411219,"111":0.03672241441433172,"112":-0.08643226780285825,"113":-0.0037707497489994283,"114":0.059225421158391585,"115":-0.0007596996882288169,"116":-0.04299087996874385,"117":-0.052935987206706794,"118":-0.12135172835979027,"119":0.1394866703137667,"120":0.0653324316588212,"121":0.05932577818617881,"122":-0.10376661672037635,"123":0.07569253672616119,"124":-0.051715059435629554,"125":-0.0027793711711003935,"126":-0.024558949007957815,"127":0.058054522597020555,"128":-0.08281763402913883,"129":-0.09380904426300377,"130":0.10252593365138338,"131":-0.07986209611906138,"132":-0.07118358071870293,"133":0.055594796106173495,"134":-0.028258062324839937,"135":-0.03312015449465261,"136":-0.07374427741720294,"137":-0.007302155375865051,"138":0.08693653751863098,"139":0.009635360715338097,"140":-0.06278804250334062,"141":-0.031946819188384656,"142":0.03922344258684568,"143":-0.01723301914406866,"144":0.08373865338336034,"145":-0.08810494425650758,"146":0.020728256941787294,"147":0.07861494391518753,"148":-0.18244723237897573,"149":-0.18459079099486392,"150":-0.06004130194881701,"151":0.012822216445689481,"152":0.037905798563286644,"153":0.015708701245872658,"154":-0.06695554731166549,"155":0.09318326400551294,"156":0.03716105030406906,"157":-0.13730084584129926,"158":0.10283491508064674}},{"sx":1,"sy":1,"depth":159,"w":{"0":0.0037895080209599534,"1":0.017818363209524193,"2":-0.025964425954808246,"3":-0.025839568472127546,"4":0.013953114196724263,"5":-0.03549091206284771,"6":0.0529360695824052,"7":-0.09986928155552559,"8":-0.04169789644020998,"9":0.14633297251768676,"10":-0.13102999068785587,"11":-0.028379827506206226,"12":-0.06308506713235776,"13":-0.18579210315616443,"14":0.20122811382490216,"15":-0.11388452966463836,"16":-0.05986640665424752,"17":0.06248395703394099,"18":0.11761480939621347,"19":-0.04677875148053521,"20":-0.07997742175292727,"21":-0.061603339985981914,"22":-0.07944391883982248,"23":0.06988995283044042,"24":-0.026514521522882768,"25":-0.13061158293815842,"26":0.04843910188721486,"27":0.07447930685466639,"28":0.12312012558225949,"29":-0.08554938458046926,"30":-0.12725187623379688,"31":0.004581106208593148,"32":0.001637841116842489,"33":-0.04175345315410018,"34":0.06780772157571525,"35":-0.11566481295673696,"36":-0.03161970573562038,"37":-0.01982414313433154,"38":0.10934067041643719,"39":-0.13532321580804513,"40":0.029010519392147962,"41":-0.012814526618878535,"42":-0.006027332656543748,"43":0.055235323306221884,"44":-0.15203893982201008,"45":-0.049841223058931655,"46":-0.0782432014518864,"47":-0.03429591706954035,"48":0.024145844301816276,"49":0.11811504638551612,"50":0.03893857163457602,"51":-0.03132716546067239,"52":-0.11212198299260902,"53":-0.10137387873009214,"54":0.03134509465940639,"55":0.0768673927220571,"56":-0.055521654883630506,"57":0.020709846351320477,"58":-0.09384274322800645,"59":0.07987732728505441,"60":0.09128294185703131,"61":0.1434565678349636,"62":0.03292159794312185,"63":-0.030683269772513046,"64":0.15407999105910392,"65":0.12130636472519032,"66":-0.029233019590972204,"67":-0.04303834379594303,"68":0.0600562560304011,"69":0.02093487966944264,"70":-0.027427399240196958,"71":0.05317452047542559,"72":0.0114338220033468,"73":-0.050630127992621156,"74":0.2114747591058392,"75":-0.1808663318968164,"76":0.05595516066627189,"77":-0.057409017847551515,"78":-0.19531297311649917,"79":0.01173094218111689,"80":-0.07243123675373556,"81":0.11762828148981477,"82":-0.004825116237146458,"83":-0.11443668281461077,"84":-0.1312810212342312,"85":0.12723695593951498,"86":0.028019185587778165,"87":0.08180458103472658,"88":-0.054033888090326734,"89":0.040179282508452256,"90":-0.08405520054573178,"91":0.0667391318236522,"92":-0.01377281912809966,"93":-0.044578342829046956,"94":0.06228391697804394,"95":-0.013857225497989536,"96":-0.009490091448944683,"97":0.0732542409316173,"98":0.0977531846823872,"99":-0.017141241947213462,"100":0.06952595832480772,"101":0.032105391949608424,"102":0.19379856204122028,"103":-0.08286384474408039,"104":-0.002833774661105611,"105":-0.010628175913665725,"106":-0.05215685719463243,"107":0.14190183191073763,"108":0.0659898308881638,"109":-0.024010150814185723,"110":-0.0021555457028118842,"111":-0.07765741766768149,"112":0.1540300635003039,"113":-0.10764796575020948,"114":0.10680097516857452,"115":0.1286848566454339,"116":-0.07953575515704273,"117":-0.1001369320462029,"118":-0.12532853352284565,"119":-0.1038724729348497,"120":-0.0499784923974795,"121":0.05976457366666763,"122":0.02400007059622069,"123":0.05719554702538719,"124":0.00981245464193253,"125":0.11163530179743035,"126":-0.015430685321709017,"127":-0.0561606558381364,"128":-0.018860353290209582,"129":-0.09105128803975858,"130":-0.11041188628670753,"131":0.04609243637728601,"132":0.07315890354266852,"133":0.031122578260175334,"134":0.06961182516077075,"135":0.05093594761001556,"136":0.004352590295583707,"137":-0.06265923813231215,"138":0.10334029215180886,"139":0.06710425766460618,"140":-0.08213193276078419,"141":0.09252582653673866,"142":0.011160268409621133,"143":0.023143307005847647,"144":0.0017845393591836836,"145":-0.01460605933809276,"146":0.09568086872708624,"147":0.060565327807519415,"148":-0.10253548727670943,"149":0.08277911217130297,"150":0.09870733162803935,"151":-0.041182338512031215,"152":-0.0046205548299722106,"153":-0.11687084469415061,"154":0.1134364410490953,"155":-0.05875154526827635,"156":0.027202407027666756,"157":0.0565874769320939,"158":-0.036879553484121044}},{"sx":1,"sy":1,"depth":159,"w":{"0":0.07000812365620764,"1":-0.06359915322710409,"2":0.07004504210936616,"3":0.08446303639827896,"4":0.004811325783138582,"5":0.02186276595272429,"6":-0.08130672884831984,"7":-0.05738419146626104,"8":-0.1098453206390034,"9":-0.11367057566446945,"10":0.002785716304091389,"11":-0.003242696989424613,"12":-0.022847273094611785,"13":0.13549111361607213,"14":-0.07768257196638775,"15":-0.08146396652993777,"16":-0.06865364006742682,"17":0.023587088729536285,"18":0.08341421638984532,"19":-0.05739636881074089,"20":-0.02403503054885595,"21":-0.0902963104635626,"22":-0.03707940412188651,"23":0.08990238889041756,"24":0.13935172253573416,"25":-0.10609228352013705,"26":0.020461121078628106,"27":0.021093286926874396,"28":-0.012184011175948202,"29":0.11897765160046382,"30":-0.0046822806350301175,"31":-0.025128464308269028,"32":0.0670832257531869,"33":-0.07193938261833828,"34":0.013059442092593975,"35":0.05598756289907144,"36":0.03265831833305527,"37":-0.020528121000730263,"38":0.02899382709836899,"39":-0.023748374731939338,"40":-0.08241045064232116,"41":-0.12575874381656932,"42":0.06758234972243064,"43":0.011418001133449004,"44":-0.07925885522166468,"45":0.17269143928333433,"46":-0.05906119455874725,"47":-0.06313928235190062,"48":0.004614624952332064,"49":-0.08814619481971157,"50":0.15212275282554724,"51":0.0759866886099188,"52":0.0990868474651854,"53":-0.06572084505223642,"54":0.010259268137778993,"55":0.017709841744280013,"56":-0.10563050731191677,"57":-0.2080759874225294,"58":0.011451380339655355,"59":-0.06312131730460446,"60":0.1157392900892952,"61":-0.013223394302391734,"62":-0.0906430520155161,"63":0.032130439135373674,"64":-0.08650108488836224,"65":-0.011433320434666584,"66":0.09324740623510203,"67":0.0066624957170109324,"68":0.12473676565821545,"69":-0.13593071918001262,"70":-0.07640769927464618,"71":0.09746982842182828,"72":0.06227803696261377,"73":-0.004776804096874891,"74":-0.08419066038235447,"75":-0.0326700784338669,"76":-0.01956043417565795,"77":0.08748328445592926,"78":0.11344673875658123,"79":0.13660383245613905,"80":-0.10320731993858936,"81":-0.06389497477345282,"82":-0.08173570397254201,"83":0.01764608243493345,"84":-0.07789657145371147,"85":-0.15673887387531,"86":0.008446192432272454,"87":0.09813901912706542,"88":0.009124660121939604,"89":0.0110556147429864,"90":-0.008572304645358632,"91":0.04382781210572528,"92":-0.03149740069995675,"93":-0.07852221804026795,"94":0.03127195424443191,"95":0.07480014262665312,"96":0.1187409843461185,"97":0.06979704958843802,"98":-0.10565943110354181,"99":0.037613739379379375,"100":-0.0896686075756318,"101":0.1857214923968043,"102":0.11632985882013196,"103":-0.06904961557782245,"104":-0.13555618421708848,"105":-0.08955182548198967,"106":0.1563141622341172,"107":-0.018254857400629845,"108":0.07806736794489848,"109":-0.06139832392630626,"110":-0.036469999453730445,"111":-0.10847165809372834,"112":0.0312806724384716,"113":-0.10557119065340827,"114":-0.045514120621779286,"115":0.020006260026467493,"116":0.12768652196052696,"117":-0.15896432018935178,"118":0.025986625416179972,"119":-0.054260193408188634,"120":-0.014430273356873066,"121":0.060180195958836454,"122":-0.06453875201035321,"123":-0.12282094817008998,"124":0.02020651743250108,"125":0.13041063000600117,"126":0.0687740968664772,"127":0.04645317383811756,"128":-0.05936545555369752,"129":-0.04528910960462577,"130":0.03113030589202564,"131":-0.09266334871682122,"132":0.034391735470320234,"133":-0.010456237617135723,"134":0.019442263313008128,"135":0.012963843621254703,"136":0.006671887343037642,"137":0.045340515391132874,"138":0.04113297002843077,"139":-0.1486171121582016,"140":-0.01206988134489581,"141":-0.12473280763443857,"142":0.0634366262459898,"143":0.13251615409220838,"144":-0.058440478161603214,"145":0.04460764544947053,"146":-0.10546849784803368,"147":-0.022711083253610615,"148":-0.045313690919956476,"149":0.0582333082114274,"150":0.14745799179416388,"151":-0.07123013735278547,"152":0.11357371450768045,"153":-0.07275334116412446,"154":-0.02254207193311272,"155":-0.007048873104888257,"156":-0.041586055489888606,"157":-0.0881966533437641,"158":-0.07478544498470983}},{"sx":1,"sy":1,"depth":159,"w":{"0":0.054871920521295726,"1":0.0495764261078948,"2":-0.17666561410824208,"3":-0.015575497309186299,"4":-0.07320309710773597,"5":-0.08631820800511603,"6":-0.006333710010202379,"7":0.0830258908199257,"8":0.01942984096791312,"9":-0.01330263291466377,"10":0.0006289942381813943,"11":0.007193814289160465,"12":0.032632311190774976,"13":0.0009017560200153524,"14":-0.23011090439121837,"15":0.10746892287991779,"16":0.04042829092161731,"17":-0.1772073987763903,"18":0.04570012464026598,"19":0.11350443273728208,"20":-0.01992780815658095,"21":0.1327506433413125,"22":0.02500253785881244,"23":0.05615678960546322,"24":-0.043512456787755116,"25":-0.04039119342520753,"26":-0.045818052605536924,"27":0.034369009679115145,"28":0.0005501953834237699,"29":-0.041151200841708466,"30":-0.03348274451197918,"31":-0.009405455286018676,"32":0.14425819180467306,"33":0.07512326850135063,"34":0.015094036738236366,"35":-0.13047358242887686,"36":0.056888578275249145,"37":0.14949163968570023,"38":-0.06117660781251467,"39":-0.024506332003102527,"40":-0.03658091751114447,"41":-0.005518774160999491,"42":0.0036087873978505147,"43":-0.014927829687095034,"44":-0.12565489303138805,"45":0.05458568346326838,"46":-0.07006650247496134,"47":-0.11584501019017393,"48":-0.17409068199844563,"49":0.06017494007753718,"50":-0.13116053837079858,"51":0.028926855468880807,"52":0.12004638896165147,"53":-0.11167281215611305,"54":-0.001964933963372255,"55":0.08748916708092039,"56":0.12096870621037979,"57":0.00277845112445713,"58":0.08095627796433057,"59":-0.053543122041569705,"60":-0.04194792469633438,"61":-0.0847945169295102,"62":-0.02477112040998075,"63":-0.14604441280131375,"64":0.0010625392781971595,"65":-0.09728062082244672,"66":0.02028668689007553,"67":-0.1173676339388488,"68":0.010956626362608702,"69":0.09791502766470327,"70":0.14040293376834448,"71":-0.057983741976734955,"72":0.08899126921349845,"73":0.01016438135644834,"74":0.09990764357070099,"75":0.031886899211744556,"76":-0.06542041747309266,"77":-0.08301879478244827,"78":0.04057717921015619,"79":-0.0047361343689533,"80":-0.07189952077115734,"81":-0.011189257040607097,"82":-0.10298748192550419,"83":-0.06640150337654657,"84":-0.03138068033784321,"85":-0.09308277991678177,"86":-0.014553778860511934,"87":-0.11815351302313233,"88":0.041938660819260454,"89":-0.00887292179021207,"90":0.09201079478028168,"91":0.03834263209585463,"92":-0.20362164415521758,"93":-0.019900042306169104,"94":-0.08797103144217475,"95":0.0194862139011877,"96":-0.12295028634663026,"97":0.06722760743013297,"98":-0.12828794503011914,"99":0.006362274025494761,"100":0.110071086491545,"101":-0.15806677562720792,"102":0.07285459183904822,"103":0.1011468439996414,"104":0.03782051438062547,"105":-0.0348283146823026,"106":-0.15424424764149772,"107":0.11561515929673762,"108":-0.017632205119547186,"109":0.018059713156999415,"110":-0.0731473732012925,"111":0.04335608034815988,"112":-0.020077423048384512,"113":0.07404390028196232,"114":0.0559597594252534,"115":-0.1086245003789512,"116":0.008609134262656715,"117":0.1025776358774935,"118":-0.11828718010281541,"119":0.0173067530343416,"120":0.06076600188528952,"121":-0.06358923330883556,"122":-0.11492309458062792,"123":0.01142094778704468,"124":-0.10624328920809413,"125":0.09604719982685836,"126":-0.10884235064033768,"127":-0.0899170257168475,"128":-0.03447158703147233,"129":0.04334141034440324,"130":-0.00639567489693946,"131":0.023902631230882005,"132":-0.01995745536489782,"133":0.0000014771141113908513,"134":0.056023986384485344,"135":0.0027388839038625145,"136":-0.14245509874863924,"137":-0.11704819626425851,"138":-0.0722238906287051,"139":0.0648912570767729,"140":-0.04939284947594326,"141":-0.08346384401727078,"142":-0.14589182502396839,"143":0.07067403870359015,"144":0.07838284854340219,"145":0.19015962844410386,"146":0.06372842168194927,"147":-0.18782715420372606,"148":-0.030693799802374706,"149":0.15192155575385802,"150":-0.00356927226191517,"151":-0.057719061162539796,"152":-0.009390251871659499,"153":0.031245740336745962,"154":0.0196220707393623,"155":-0.006123168228604961,"156":0.04664094098182398,"157":0.0947431288761468,"158":-0.12458934968434043}},{"sx":1,"sy":1,"depth":159,"w":{"0":-0.15758975871991313,"1":-0.04717965336637305,"2":0.138153981030682,"3":0.09189561941561177,"4":-0.06725206063569013,"5":-0.01132554529971673,"6":-0.07266717464912818,"7":0.01890185003906824,"8":0.04027352711045229,"9":0.0656417640233429,"10":0.15152312240556298,"11":0.1444916138670906,"12":0.10313209861418997,"13":0.1727627644005917,"14":0.0900115616221108,"15":0.026765141069699728,"16":0.25695459824597067,"17":-0.07258795838690173,"18":0.04916294468748864,"19":0.27413600419712997,"20":-0.008836650879677705,"21":0.021052163156605463,"22":0.2205305377526643,"23":-0.024062359828180717,"24":-0.09526836382253957,"25":-0.15217611944483303,"26":0.10615224297688461,"27":0.16908848707687707,"28":0.08218161524487652,"29":0.044383528410437655,"30":0.047364297607990644,"31":0.1395551266730372,"32":-0.06361671631058223,"33":-0.08091704317568951,"34":-0.08906839990609863,"35":-0.11057758074460593,"36":-0.12874143704359248,"37":-0.15152818343517824,"38":-0.02721017120756688,"39":0.06891062108776007,"40":-0.009882264576231661,"41":0.08318802120158258,"42":-0.015469533518984351,"43":-0.045237603596961086,"44":-0.1371878102671356,"45":0.02057574290015382,"46":0.029135520513545694,"47":0.006064549169934408,"48":0.03535100252092793,"49":-0.04157157067696716,"50":0.04265054623249664,"51":0.2002695276875558,"52":0.0723472233621963,"53":0.0884397024773265,"54":-0.05017468744134856,"55":-0.10048351405435961,"56":0.06609937542565546,"57":0.041711124748661094,"58":0.008898596124343763,"59":0.035581615113385735,"60":0.02676925362258079,"61":-0.18375128075418573,"62":-0.03248886983809335,"63":0.028458843163751593,"64":-0.0358585660709262,"65":0.15444752893283584,"66":-0.15206902363264238,"67":-0.1261869050297006,"68":-0.048146206157414315,"69":-0.11088146696479811,"70":0.0014637624748707347,"71":-0.11502716332177167,"72":-0.08247911805008382,"73":0.048944982745182775,"74":-0.026437601625789356,"75":-0.11149967562023902,"76":-0.03240847573132243,"77":-0.04192967598224232,"78":0.06190184514464254,"79":0.06303686260372018,"80":0.06909226199076461,"81":-0.0836276425625528,"82":-0.12092123079869366,"83":0.09496148659758,"84":-0.10871666173144309,"85":-0.09120426202279301,"86":-0.0375397619698862,"87":0.049527215813622814,"88":0.035880401795018765,"89":0.06336483466192841,"90":0.10735947071751398,"91":-0.008873054126505383,"92":0.03435716835899135,"93":-0.018492325989624907,"94":0.018689975495768417,"95":-0.10020169810058184,"96":0.022500437081046314,"97":0.050117959328835164,"98":0.11386808066912976,"99":0.0894648673846896,"100":0.13186615522296485,"101":-0.0008762540154709384,"102":-0.13268156896049674,"103":0.04656108583146786,"104":-0.0501264696594371,"105":-0.023159799670012166,"106":0.03003799895251593,"107":-0.09490609134288248,"108":0.05176241296981003,"109":-0.026464094227260617,"110":0.004433230085281766,"111":-0.06324725214798599,"112":0.013801204734977828,"113":-0.021525761576030762,"114":0.011373655854773648,"115":-0.04955441966271755,"116":-0.10662004240172662,"117":-0.029818253355224235,"118":-0.18807713363175824,"119":-0.05747346418688651,"120":-0.013007089643745855,"121":0.02253998764692834,"122":-0.0057372306754553196,"123":0.032622126272713804,"124":0.05275143249966158,"125":0.03803916591447132,"126":-0.00989860597431409,"127":0.02114584714960856,"128":0.06984048275310997,"129":0.035009696647617515,"130":0.002046880463987928,"131":0.0623849368556038,"132":0.05584192147555938,"133":0.06729164262475341,"134":0.27667378968072,"135":-0.10407959520559795,"136":-0.12803247882831972,"137":-0.10430377615330996,"138":0.09664245789502897,"139":0.050240198518293144,"140":-0.05723128194976873,"141":0.004487838677718427,"142":-0.027436393869822034,"143":-0.0035935219995447644,"144":0.03412276018979411,"145":-0.059991167903669755,"146":-0.09854089710135443,"147":-0.08188981374813556,"148":0.0098946588422179,"149":-0.05575252106036868,"150":0.02209791030524923,"151":-0.030481898336884944,"152":0.01809633868035025,"153":0.10322746383799666,"154":-0.028925919800598516,"155":0.041391288364647214,"156":-0.006145803330357551,"157":0.0837650273250233,"158":0.0019457918563369173}},{"sx":1,"sy":1,"depth":159,"w":{"0":0.030198685611481355,"1":-0.04326763992148209,"2":0.05981893848785567,"3":0.14545395024953314,"4":-0.11015556328788496,"5":0.10344568835159962,"6":0.06751783581290809,"7":-0.028839378496160313,"8":0.038800438241042116,"9":-0.039768518972775266,"10":0.06584650128190263,"11":0.01982593869911712,"12":-0.07480263028615015,"13":0.18537980030633447,"14":0.01226939655330292,"15":-0.026630523663198465,"16":0.3176241924528032,"17":-0.0018486220655207076,"18":-0.14799352979806174,"19":0.21567526848671298,"20":-0.03553420107523892,"21":-0.06887507055737327,"22":0.3130740858042827,"23":0.034535950010037765,"24":0.0559820567607627,"25":0.11211220391739983,"26":-0.012744951743823169,"27":-0.11595013784522455,"28":0.14597400935764746,"29":-0.06477073974473295,"30":0.07395127100246254,"31":0.01989603025436524,"32":-0.06299289458734068,"33":0.029883428380633462,"34":0.10448639712361495,"35":0.13103946448744797,"36":-0.041231485950672116,"37":-0.12106681920959109,"38":0.031990375590648004,"39":-0.03245242364655247,"40":-0.0573275064229353,"41":-0.0015194497424248726,"42":-0.021477808183962277,"43":-0.07610067023479368,"44":-0.006391694390704398,"45":0.038444608279505195,"46":-0.0680714421230094,"47":0.151460480496283,"48":-0.07906447279914314,"49":0.025381757460656688,"50":0.06771463625706675,"51":-0.10059310558318031,"52":0.02038358021804646,"53":0.1094400218080571,"54":-0.08066558372490945,"55":0.021041632891761548,"56":0.09036687839820651,"57":-0.0770165538892516,"58":0.0021398010949075846,"59":-0.0004326185189835618,"60":-0.05777120572142932,"61":-0.11134835438287453,"62":0.07096852876640494,"63":0.015897872459255127,"64":0.027866794030265426,"65":-0.048907197518499944,"66":-0.03446642291477322,"67":-0.13750871898836609,"68":-0.0006596921170355573,"69":0.14980189588380152,"70":0.0004078421708503117,"71":0.011092667372347917,"72":-0.03910444539927035,"73":-0.02111912031587677,"74":0.1603187747612465,"75":0.05300451118453958,"76":-0.03491711908821305,"77":-0.11066173443279874,"78":0.008100306207538084,"79":-0.061739248009011816,"80":-0.005385741489757055,"81":-0.009546399482499478,"82":0.18330019906380268,"83":0.006317213360457854,"84":-0.018364550607841767,"85":-0.05167665603806784,"86":0.04049943620253567,"87":0.04588446796747597,"88":-0.1266888068031109,"89":0.01623530322779893,"90":0.0302981287266602,"91":-0.14091756500967612,"92":-0.09089847444645217,"93":-0.12649461768455889,"94":-0.07501881121789127,"95":0.009774649752166558,"96":-0.07206842352084421,"97":0.08798404431449441,"98":-0.05911800347003646,"99":0.03619921617653361,"100":-0.04983212707888159,"101":-0.06735374944928725,"102":-0.007473723219366169,"103":0.12373066976237439,"104":0.04151063987479284,"105":0.0012442927052807647,"106":-0.03537103496788439,"107":0.06962033641994053,"108":0.07584491359964492,"109":-0.009378285350402613,"110":-0.08239333319816373,"111":0.06998792500414411,"112":-0.13213963229768527,"113":-0.008322253586463463,"114":0.023193437070461672,"115":0.05930903742406005,"116":-0.03327373195716359,"117":0.014176301699329015,"118":0.015495198874568843,"119":-0.04979411549321737,"120":-0.08140745475498194,"121":-0.056273853387353204,"122":0.09027235367359364,"123":-0.07425348145214376,"124":0.00177708841844458,"125":0.028404472029806012,"126":0.04806319720019204,"127":0.013658550359787764,"128":0.021028778202161376,"129":0.05672892946532784,"130":0.09352641058739063,"131":-0.06815578759643459,"132":0.0385290607265828,"133":0.1267035981477878,"134":-0.05801787721953484,"135":-0.032692530889715084,"136":-0.09006131271387234,"137":-0.043261074203675504,"138":-0.003276853076018558,"139":0.03694976336252224,"140":0.08152568904240137,"141":0.07679835408532397,"142":0.09504589007936926,"143":-0.02121979451483068,"144":0.16469469109120846,"145":-0.1644329444682639,"146":-0.02946795852678934,"147":-0.07231546599227527,"148":-0.08317037425796554,"149":0.0035063395072846043,"150":0.1265672318582088,"151":0.09747403071109614,"152":-0.08385137023607213,"153":-0.07213178591411466,"154":-0.0029754137202145153,"155":-0.037539352974226906,"156":0.01078387293028408,"157":-0.03655760077358761,"158":-0.03270036578432132}},{"sx":1,"sy":1,"depth":159,"w":{"0":0.0489143707012584,"1":0.061896106084846476,"2":0.078340063586065,"3":-0.029231362087891552,"4":-0.05687295970818155,"5":0.1261891834162872,"6":0.06566962145545609,"7":0.009122120315256749,"8":-0.13710645267261765,"9":-0.006203244216895531,"10":-0.026965052202519213,"11":-0.03142298641330426,"12":0.028106077857317127,"13":0.04568435569286338,"14":-0.0777220335200291,"15":-0.02833269854879031,"16":-0.03984730684369656,"17":-0.20495754055525733,"18":-0.029226874962184967,"19":0.020431338620432275,"20":0.013137981049408217,"21":0.031218444277029956,"22":-0.16368526613261067,"23":0.08062567248437434,"24":-0.01272219323039833,"25":0.1141049006363993,"26":0.014723868285203267,"27":-0.08079635161070249,"28":0.05928003490098756,"29":0.06236441513989604,"30":0.008037227751994412,"31":-0.09466178800816466,"32":-0.037063046556645524,"33":0.15878381726127033,"34":0.014017844976350963,"35":0.02894324263116803,"36":0.06711314893231918,"37":0.12113621895314931,"38":0.03213097579772506,"39":0.15552678360928793,"40":0.05913563062293014,"41":0.022410326229786795,"42":-0.14315208762831969,"43":-0.1396973543893587,"44":0.040463741045005365,"45":-0.08755534538024015,"46":0.010749210628552665,"47":-0.0328991020646967,"48":0.12975161657311532,"49":0.020067611467400822,"50":-0.13409612032056298,"51":-0.06167762613798922,"52":-0.07957897143261597,"53":-0.13636529758277602,"54":0.08908132613487758,"55":-0.11631702203227244,"56":-0.22052602497849813,"57":-0.028706340250720736,"58":-0.12450634496883486,"59":0.000226023041825364,"60":-0.02222508912331507,"61":0.03249410312850988,"62":-0.16673893042290605,"63":-0.08292460439269175,"64":-0.02156985780622386,"65":-0.07572542763481428,"66":-0.11807259537640372,"67":0.01592944696638747,"68":-0.024406921857217812,"69":-0.028390023009445688,"70":-0.16618462829683736,"71":-0.09492766252513646,"72":-0.0855833838075415,"73":-0.11197158169189524,"74":-0.035673688346722694,"75":-0.04961637805728052,"76":-0.028545146198938845,"77":-0.07806959007749269,"78":0.015965714492933276,"79":-0.10123871499669573,"80":-0.003402368338989838,"81":-0.04026641924534776,"82":0.01885182321384342,"83":0.02599954596556421,"84":-0.03796607141364794,"85":0.11753469789133095,"86":-0.05779344447515866,"87":0.06388048672094167,"88":-0.035271539464243176,"89":0.03837738438041017,"90":-0.07172329051550298,"91":-0.2080926538989634,"92":0.14287597500339716,"93":-0.18106318694409856,"94":0.023310084998492936,"95":-0.04016425314952029,"96":-0.0974348056416548,"97":-0.045934510255342176,"98":0.015722556709388467,"99":-0.11561722789415262,"100":0.039862876139538136,"101":-0.08760568705823721,"102":-0.10632609472783502,"103":-0.011533651702127591,"104":-0.10300656591160422,"105":0.131865758386414,"106":0.09258411593465042,"107":-0.0033332164904915805,"108":-0.029419839672842722,"109":0.05379223871074947,"110":-0.034327894881533004,"111":-0.1014025755503712,"112":-0.13904914405812524,"113":-0.06585547490688666,"114":-0.04853027812070541,"115":-0.13174278856382923,"116":-0.031434226709970536,"117":-0.05236841515856044,"118":-0.07919244578331962,"119":0.12967100803943285,"120":-0.1347868565230327,"121":-0.05011057517653732,"122":0.021846313183957265,"123":0.012128085171903292,"124":0.05729279112238158,"125":0.05833951239125783,"126":0.12163530544491047,"127":-0.0640740493144744,"128":0.09081039265277156,"129":-0.03409063220793641,"130":0.035142100473397164,"131":0.18572166254564076,"132":0.02704467422700169,"133":-0.06453786722129821,"134":-0.02783229751431165,"135":0.034299957322074,"136":-0.032580427919010446,"137":-0.098217342670612,"138":0.015881554925083415,"139":0.0007450602083180044,"140":0.018128211316300432,"141":-0.10576744945283288,"142":-0.08075049989873247,"143":-0.043399474099754726,"144":0.11572253667621099,"145":-0.1339189232376677,"146":0.1581281814581831,"147":0.00448503990192958,"148":0.1763202273167149,"149":-0.018526710710054198,"150":-0.02178002252931493,"151":0.18925699861643044,"152":-0.08247251000338829,"153":0.08904739988153818,"154":-0.11311808785800595,"155":-0.06507035952960541,"156":-0.05992914846069444,"157":0.014290663836914595,"158":0.10746148013121588}},{"sx":1,"sy":1,"depth":159,"w":{"0":-0.08214321216134647,"1":-0.08032565115300758,"2":-0.005483378531715601,"3":0.11123900840062168,"4":-0.040695643595691645,"5":0.0563132455937618,"6":0.10042587267080948,"7":-0.10068247607648416,"8":0.041136795401795594,"9":0.033024539481800765,"10":0.0974007870332987,"11":-0.031947971465479674,"12":0.17179755454121082,"13":0.09228031800104065,"14":-0.055096797419774204,"15":0.10202215480030234,"16":0.17521153848732993,"17":0.0565442756841362,"18":0.03193558864515622,"19":0.01259109658377704,"20":-0.16637669233147884,"21":-0.09640012096926989,"22":0.16705646516702585,"23":-0.057760968284782326,"24":-0.045148905032938974,"25":-0.03584636396480798,"26":0.04300210485084321,"27":0.06110319012776366,"28":0.08051165427606503,"29":-0.00282414152637376,"30":0.0032074309747808765,"31":0.011693956737151125,"32":0.07728632928771316,"33":0.05062008501794239,"34":0.12112736440763185,"35":-0.09908543598455083,"36":0.0005172032353485123,"37":0.03501403157362333,"38":-0.0007172286406883463,"39":-0.08710357922624935,"40":-0.20589899121088223,"41":-0.058846517508073994,"42":0.05966690481957131,"43":0.04657085175851237,"44":-0.13414257082901693,"45":0.01946244195214789,"46":-0.209267882254779,"47":0.015164790860916348,"48":0.04633189334685895,"49":0.0014400051683963473,"50":-0.042261098226097145,"51":-0.06015671312128818,"52":0.06864688757332195,"53":-0.06989697455323768,"54":-0.0773477557447784,"55":0.010627367357911558,"56":0.04040046154612543,"57":-0.035725122620912826,"58":-0.08377142176912283,"59":0.05785490364602851,"60":-0.03467353203093635,"61":-0.005129555930673598,"62":-0.08343814184127789,"63":-0.029206323706894858,"64":0.0020800612760263695,"65":0.01568573263290123,"66":-0.14409209592948208,"67":0.006655338521683038,"68":0.17125044573224815,"69":0.003800496024558635,"70":-0.03950616983800019,"71":-0.03437572506955179,"72":-0.0005813419755031521,"73":-0.1499558763187998,"74":0.08588422393285121,"75":0.0012735529296910109,"76":0.04580477236546817,"77":-0.02746178152125232,"78":-0.0835895686786858,"79":-0.050298293341514685,"80":-0.003707031466199455,"81":-0.095848628826999,"82":0.008360047465609862,"83":-0.06626124962376202,"84":0.04891646932411548,"85":-0.05520316232918362,"86":0.06802323203225463,"87":0.05981070568264576,"88":-0.1457471796551548,"89":0.0861107556162372,"90":0.07267349778468293,"91":-0.06269258129821045,"92":-0.20334073142626044,"93":0.004386566311014477,"94":0.019831679587281364,"95":0.010223871080835133,"96":0.0850824353844653,"97":0.09741714618661902,"98":-0.05204116029491448,"99":0.0668193026038231,"100":-0.11416772458662341,"101":0.014342514099275762,"102":0.1308291445256739,"103":-0.001505818824688914,"104":-0.0661949194262195,"105":0.08343455512791913,"106":0.03250138877584938,"107":0.05720259778783481,"108":-0.010764670204373373,"109":-0.08736002500734313,"110":-0.05248544603447894,"111":-0.03209015410584749,"112":-0.042895758795383036,"113":0.14791696802033458,"114":-0.041783678907399834,"115":0.05651346406768285,"116":-0.01949991668430513,"117":-0.0913537782213227,"118":0.04859515329971009,"119":-0.04852945015102057,"120":-0.031629987134105274,"121":0.07798580146838961,"122":-0.003384787296308818,"123":-0.014078817124536321,"124":0.06961674235290817,"125":-0.08779497864606799,"126":-0.000814304303247539,"127":0.02358266473731769,"128":-0.017237703394212895,"129":0.0842921943259405,"130":0.03606059168501798,"131":0.13105675033539996,"132":0.07001129165669727,"133":-0.13433926876128324,"134":0.09580340156890219,"135":-0.025572448709166036,"136":0.009286181430935429,"137":-0.001166979040556005,"138":0.057564193417915945,"139":-0.04769573451581353,"140":-0.09464478694717227,"141":-0.07973779140973779,"142":-0.1018494620479563,"143":0.06906939182515655,"144":0.046033212347747085,"145":-0.07612949838186275,"146":0.02809470388330652,"147":-0.02214516880593701,"148":-0.05723006678550022,"149":0.10221120006554077,"150":0.03213714678863811,"151":0.05554107778309804,"152":-0.044848851034477125,"153":0.021501542996747537,"154":-0.13412291816096725,"155":-0.12648132111432028,"156":-0.11758818901158476,"157":-0.09046841114210681,"158":0.06649775721908897}},{"sx":1,"sy":1,"depth":159,"w":{"0":-0.07149420869341659,"1":0.051716523972909566,"2":0.06913289439771846,"3":0.0625797373815646,"4":-0.03364531093125672,"5":-0.1604367442782555,"6":-0.11401003844194574,"7":-0.02561467694476945,"8":0.14033352668243593,"9":-0.13148784434778757,"10":0.03953147385239095,"11":-0.023373595544609535,"12":0.024681062117684945,"13":0.08670605440150214,"14":-0.1170901935457988,"15":0.014015944492765298,"16":-0.10971042255400157,"17":0.030923028963750765,"18":-0.23703207718100228,"19":-0.11943884742089672,"20":-0.0046467816122192146,"21":-0.10979790255707861,"22":0.16796626394816377,"23":-0.06595607158160292,"24":0.020729599591676046,"25":0.0019819055594685214,"26":0.03647448384971888,"27":-0.02256293406780763,"28":-0.0124560705107575,"29":-0.001883423338440282,"30":-0.035540070126405705,"31":-0.020504966920000953,"32":-0.08051600573285903,"33":0.014498070704871451,"34":-0.06110849934800501,"35":0.03454770493739027,"36":-0.27202699653753193,"37":0.05463448239204034,"38":-0.015880801473843728,"39":0.036467548080628506,"40":-0.07391148702957856,"41":0.04602658185955772,"42":0.06265540736888563,"43":0.09605691721831157,"44":-0.053877408894003054,"45":0.041140350284878065,"46":0.0031643642260655437,"47":-0.04523502192199552,"48":0.02388797235629309,"49":-0.0014001142288880455,"50":-0.10837784800944104,"51":0.08465512999320642,"52":0.014089077353558847,"53":0.06226090382919995,"54":0.026093125265627536,"55":-0.0505385755355886,"56":-0.007851073852356531,"57":-0.021423007451861504,"58":-0.10235112037489755,"59":0.040865197291939145,"60":0.02921998555170885,"61":-0.18729722872769994,"62":0.03284648447817072,"63":0.016888356358065272,"64":-0.0967003989821725,"65":0.08816028782919551,"66":-0.04109231229096553,"67":0.164807923734741,"68":0.26533507023590674,"69":0.025802682664200546,"70":-0.08349650244848987,"71":-0.03349297090343002,"72":0.05922748558870799,"73":0.12180196692591581,"74":-0.06959141718466384,"75":-0.17873901246498278,"76":-0.1246229603083823,"77":0.06439314973663778,"78":-0.016095647333285567,"79":0.005198092209632122,"80":0.07213487081230006,"81":-0.02645385057918037,"82":-0.010440961438267189,"83":0.05508980445492902,"84":-0.021270262777392752,"85":-0.09443828635732669,"86":0.0005118604117911003,"87":0.020040883245212967,"88":-0.02720934160891682,"89":0.020533241095361827,"90":-0.012126416818665671,"91":-0.03599293946715448,"92":0.06630935467371657,"93":-0.08203563113891185,"94":0.1124801375205062,"95":0.14908052834863345,"96":0.2586586751977699,"97":-0.34034528096538824,"98":-0.035286654771898074,"99":0.15382122570518586,"100":-0.054162294932537124,"101":0.03692554272336535,"102":0.07867901265922764,"103":-0.015667669989899536,"104":0.12591520228918537,"105":0.03873170455597998,"106":-0.062171419024385687,"107":0.03422478937546633,"108":0.06274776526059068,"109":0.08312822204143239,"110":-0.03584730381486172,"111":0.10850667014207332,"112":-0.04133215274355583,"113":-0.026657750176933667,"114":-0.031957408256092196,"115":-0.13775822618815567,"116":-0.09564566760472266,"117":-0.022342447218362024,"118":0.06913538274521044,"119":0.011649147755451983,"120":0.031790055702248694,"121":-0.04676387884845921,"122":-0.026203094182711845,"123":-0.04324357045985808,"124":0.017487214632123632,"125":0.04439253423834485,"126":-0.04252280099210815,"127":-0.08841537596157342,"128":-0.049673159880872134,"129":-0.027876252234055772,"130":-0.10752301810320469,"131":0.06076744455465966,"132":0.03374071239122387,"133":-0.060380982803722824,"134":0.1489511310873137,"135":-0.09081842716033563,"136":-0.022800956150962993,"137":-0.05500750015910161,"138":-0.0249505223336857,"139":0.04399179834094146,"140":-0.027137650881097288,"141":0.1596833902776127,"142":0.019320725553622648,"143":0.012006304606376533,"144":-0.09396963997914519,"145":-0.002882845573509481,"146":0.020111482713167025,"147":0.06775509462467436,"148":-0.02163247501428523,"149":-0.10877871219425544,"150":-0.008210457982070936,"151":-0.09156095452026976,"152":-0.05965835423911018,"153":-0.06869063453576386,"154":0.025067235562115774,"155":0.15052636246016407,"156":0.013604169831641722,"157":-0.004117404454520993,"158":0.08657282053267107}},{"sx":1,"sy":1,"depth":159,"w":{"0":0.061220147166604295,"1":0.011319852572597105,"2":-0.08437694630807832,"3":-0.0009576409864088875,"4":0.05900347739161501,"5":0.05375220692125004,"6":0.06655346293988608,"7":0.11158667445503405,"8":-0.0013825388512682538,"9":0.049415570950022816,"10":0.12058384154121934,"11":0.10549284043332516,"12":-0.013100525662722812,"13":0.010955938647473441,"14":0.015344460594031694,"15":0.16104514015121998,"16":0.16249211009492523,"17":-0.08108356133532324,"18":0.06525123854714684,"19":0.10718183456772361,"20":0.009287284644767286,"21":-0.05828988234129232,"22":0.00024843627779999757,"23":-0.05152801330114989,"24":0.04378224829984958,"25":0.04209754121367702,"26":-0.05436760676984933,"27":-0.07521543365055736,"28":-0.05243463968798818,"29":0.008663457483435754,"30":0.10196987519392321,"31":0.0324326833708275,"32":-0.019663526803974977,"33":-0.002385226898981316,"34":0.0506685131729315,"35":-0.04117620139269553,"36":0.022581998540970344,"37":-0.08420930008093852,"38":-0.0494451026644522,"39":0.04896287714385144,"40":0.0687448865344809,"41":-0.10660514839097851,"42":-0.05266804920651604,"43":0.0000895423902279551,"44":0.11107424552324645,"45":0.1088022002519036,"46":0.07216949558605683,"47":-0.021729552986736008,"48":0.001359489656774174,"49":0.07130375798158022,"50":0.11976089342126932,"51":0.0326036219507598,"52":0.13726263625003876,"53":0.01863251123808592,"54":-0.052605067353411514,"55":-0.19134765660555575,"56":-0.07221868160321315,"57":0.08135399237384568,"58":-0.09468359293229835,"59":-0.05506250885840405,"60":0.12739020070803053,"61":-0.053496927604893406,"62":-0.18390727763168235,"63":-0.024206475833529233,"64":0.007102482321574042,"65":0.11326078955944237,"66":-0.10596237648921929,"67":0.00614683078767488,"68":-0.08287713615849338,"69":-0.030656688178257372,"70":0.16665243414199588,"71":-0.0613979619249082,"72":-0.09247277611608438,"73":-0.020636252926544137,"74":-0.026585976942277132,"75":0.10354027009995642,"76":-0.055815667339008376,"77":-0.021397553136310008,"78":-0.0736481975743041,"79":-0.04113505487110933,"80":-0.02855729064890753,"81":-0.09944695488834883,"82":0.20073618181392516,"83":0.08720708145885855,"84":-0.11043777388742533,"85":-0.0357291803974742,"86":0.014979913988005317,"87":0.11999624084105538,"88":-0.007628820816028411,"89":0.0042952400879420006,"90":-0.1275856686640021,"91":0.12516979573542536,"92":-0.012534356541799596,"93":-0.05243854719542286,"94":-0.11047566229896491,"95":-0.0901656759009029,"96":0.016329367918547256,"97":0.07923466882234277,"98":-0.059062488688513395,"99":-0.0676019982178673,"100":0.055373232053171705,"101":-0.09250249990888004,"102":0.10765996778905883,"103":-0.0964685882582056,"104":-0.014705322713584698,"105":-0.054294157817052116,"106":0.005601134909021246,"107":0.14961498923723066,"108":-0.02435660446298555,"109":0.07868242946970369,"110":0.16967348119168485,"111":0.06020380009285382,"112":-0.0510098649666089,"113":0.08715103725262675,"114":-0.05458381932632911,"115":-0.059439687724140905,"116":0.014909778830212134,"117":0.015678570727278848,"118":-0.11226477586436538,"119":0.085954797593472,"120":0.029687707565892455,"121":-0.04683445574546352,"122":-0.2118130685172921,"123":0.15850083534667245,"124":0.027938691951771583,"125":0.0014344732188034182,"126":-0.028791212987807888,"127":-0.01891095514065285,"128":-0.09998099740454693,"129":0.16552586556644802,"130":-0.009122396834981394,"131":-0.104349520086267,"132":0.09124150782864085,"133":0.12192876111632281,"134":-0.130136755668287,"135":0.09090245110559037,"136":0.007820334402291322,"137":-0.07641696429930905,"138":0.12824861581595196,"139":-0.08776412725710159,"140":-0.10377272827149993,"141":0.12694832444825102,"142":0.04964171818093525,"143":0.05911239081071412,"144":0.10826254286942623,"145":-0.0160827724260697,"146":-0.10563742204508074,"147":0.01341416778623049,"148":0.052280250593336,"149":0.0024667645157451686,"150":-0.06827888988347171,"151":0.13590800869617667,"152":0.04339268057249239,"153":0.004967120783816031,"154":0.023827983011812538,"155":-0.0381882055471551,"156":-0.02217364762199424,"157":0.011770569219968037,"158":0.1183661299585364}},{"sx":1,"sy":1,"depth":159,"w":{"0":0.16077820282711003,"1":-0.0017307863628307214,"2":-0.11164495180528838,"3":0.07649168068808569,"4":-0.0916879846157991,"5":-0.22378185469493367,"6":-0.00039739521561551637,"7":-0.07442693481524329,"8":-0.03670938970109569,"9":-0.08116941065901119,"10":0.0837086233537157,"11":-0.14703230328168235,"12":-0.03539035557484742,"13":0.07861443562632953,"14":-0.11805624284536127,"15":-0.06690665556195192,"16":0.09781345189523184,"17":-0.10967041627685865,"18":0.06053878576409331,"19":0.13175209651767486,"20":-0.0853023251948277,"21":0.034239869547417104,"22":0.019720071079537847,"23":-0.10690244130593653,"24":-0.059433397571033844,"25":0.15821246834980227,"26":-0.08785251225904442,"27":-0.13482159032456342,"28":-0.0009095576052269406,"29":-0.1313614209796359,"30":0.2233454503848342,"31":-0.008607207968695789,"32":-0.0014756907142129253,"33":-0.10976726626802238,"34":-0.03292789517138884,"35":0.05233189303518984,"36":0.03264660764165212,"37":0.32482529842615515,"38":-0.25641222783707435,"39":-0.02802241387276349,"40":-0.05030752743268479,"41":-0.015434450974078941,"42":0.024547968911979596,"43":-0.05450603631215957,"44":-0.11112146169761597,"45":0.05236135324277095,"46":0.06274733996269052,"47":-0.039567270083654175,"48":0.012037224187144804,"49":0.052822202148559164,"50":0.0558608257170538,"51":0.09447436886392001,"52":-0.0031041603646620795,"53":-0.11781316954497054,"54":-0.02364818260434535,"55":0.08997570622059244,"56":-0.0896031136760036,"57":0.0009041193703183096,"58":0.05939123443772135,"59":-0.0377557979915034,"60":-0.038801288679045455,"61":0.04804255855130876,"62":-0.028950752167422218,"63":-0.05933957277614135,"64":-0.031203621228113123,"65":0.027541343025075833,"66":-0.1549260516317457,"67":-0.1431401407025014,"68":-0.03550633237685989,"69":0.08294477309202145,"70":-0.11225273136591608,"71":0.07938752475751364,"72":0.13561955989934646,"73":0.04402300762035287,"74":-0.014075793910996596,"75":-0.09797650787036587,"76":0.06502127394438197,"77":0.09383958701848243,"78":0.043406881640461525,"79":0.1137342468937746,"80":-0.10862700573570572,"81":0.026955698026143515,"82":0.09239704273141854,"83":-0.021920110448929657,"84":-0.19146187078789598,"85":-0.05126774845734058,"86":0.03671178702126492,"87":0.13848782305543775,"88":0.04205686646834367,"89":0.019803591321288266,"90":-0.04525521394662674,"91":0.04550309701339838,"92":0.00023199364611381994,"93":-0.03218624875927619,"94":0.0271063742932807,"95":-0.1585569852952123,"96":-0.014915931346754313,"97":0.05918855684588616,"98":0.02548144409825509,"99":-0.05002168331781845,"100":0.1248182022936218,"101":-0.023717787604859715,"102":0.05764340680876956,"103":-0.03293824480399314,"104":0.05027047818362444,"105":-0.040510204108915905,"106":0.10731818476589451,"107":-0.007258247744807107,"108":-0.01698881020528292,"109":-0.12356747893395925,"110":0.15241444316572542,"111":0.006849877351113218,"112":0.031366206011426916,"113":-0.005522879326996823,"114":0.1152059766816439,"115":0.15921303178891796,"116":0.04817018137791569,"117":-0.00860062923203818,"118":0.12909908665851957,"119":0.051165042224081074,"120":0.1321119530082296,"121":-0.03959329729512352,"122":-0.00969696057511567,"123":-0.15446630500501998,"124":0.13503267486929554,"125":0.05081824559235577,"126":-0.0679996934638514,"127":0.08433991997849839,"128":-0.018515084593198047,"129":-0.02258454595506153,"130":0.13558946996694188,"131":0.12300874303327224,"132":0.025142185974326308,"133":-0.004407187239954039,"134":-0.04197454478047214,"135":-0.03431504414419284,"136":-0.012761713872552092,"137":0.0035433215593449374,"138":0.08604063307854737,"139":-0.020810366656968955,"140":-0.10603871023132828,"141":0.023228424516673594,"142":0.07769206660326158,"143":-0.04020184410139266,"144":-0.029975309682226222,"145":-0.00006573206667547019,"146":-0.05173548805369717,"147":-0.05635281357089693,"148":-0.030183238896725306,"149":-0.07233562797575313,"150":-0.023326566360908053,"151":-0.11799259237512337,"152":-0.0729104045933321,"153":0.06576837056126837,"154":0.04258368999651579,"155":-0.1147029163414323,"156":0.024954453496989455,"157":-0.0023180832112259806,"158":-0.003179482177544996}},{"sx":1,"sy":1,"depth":159,"w":{"0":0.05434284186276898,"1":-0.11366005785424144,"2":-0.0804989021059787,"3":0.08451529185918688,"4":0.04528048169111181,"5":-0.015397970610358566,"6":-0.14317301553322495,"7":-0.07364349625482763,"8":-0.13366355419159,"9":-0.08717624604699191,"10":-0.05471882848412443,"11":-0.16311472862379495,"12":0.003963391422171159,"13":0.051892047700019296,"14":0.033084988806688226,"15":-0.0023293216492821676,"16":-0.017138868573020855,"17":-0.11613258034095328,"18":-0.0633019095969335,"19":0.058570567567623306,"20":-0.24720109430451181,"21":-0.10107779525701316,"22":0.05457256959898183,"23":-0.00666521603645325,"24":0.017723611629480697,"25":0.004410079435168776,"26":-0.17722914919244076,"27":0.04797783382637215,"28":0.06789997343502566,"29":-0.08056487871911408,"30":-0.004940865404059047,"31":0.07706370448284133,"32":-0.07364474733500923,"33":0.03583769796324098,"34":-0.07514979474886224,"35":-0.02929840561246542,"36":0.05099778438218982,"37":-0.037832732577667824,"38":-0.1169892151367911,"39":0.05873121519875526,"40":0.014323195142729925,"41":-0.07414778031711813,"42":-0.08984696582524104,"43":-0.09774378767811541,"44":0.029053779771167194,"45":0.010159741257252152,"46":0.049798993405253615,"47":-0.13950896336304983,"48":-0.05832751894635079,"49":-0.00565430590682169,"50":0.05506074642143883,"51":0.03196003686232028,"52":0.004646247437026163,"53":-0.06312448786625305,"54":0.09787552766982305,"55":-0.052725336179269854,"56":0.013536719822033453,"57":-0.07089350911397482,"58":-0.03272789734784839,"59":0.0226840882436516,"60":0.07899873528073016,"61":0.04286990384348582,"62":0.19105581750562137,"63":0.01140276322036221,"64":0.046091999579519025,"65":-0.017246816467072365,"66":0.021499072367384672,"67":-0.18854759375294516,"68":-0.13395007344591955,"69":-0.0163367029561826,"70":-0.10613757264132946,"71":-0.0062822183253656814,"72":0.0118608518946981,"73":0.05348065117706126,"74":-0.08522124881837022,"75":-0.04251264694960219,"76":0.049851431976408185,"77":0.04052913031588699,"78":0.07386856579428806,"79":0.09071198195940865,"80":0.007613264295332861,"81":-0.11635375345772402,"82":0.002265080959142917,"83":-0.12202095144824096,"84":-0.04749972467010586,"85":0.13187503964496516,"86":-0.0042046486626658676,"87":-0.12665074486096814,"88":-0.013284831345670692,"89":-0.09814602656980315,"90":0.11580627191446988,"91":0.021893440694605228,"92":0.09880452382861296,"93":-0.018014146362118098,"94":0.015254607182982573,"95":-0.003852424294500307,"96":-0.09420610392626323,"97":0.009270333400016765,"98":-0.004484946768523181,"99":0.05675366422021336,"100":-0.0009924827135262245,"101":-0.02168837110859132,"102":-0.05933129682737285,"103":0.07765071682647738,"104":0.01975126020470587,"105":-0.06636410216236577,"106":0.01379260575446485,"107":0.01424844723599746,"108":0.004292076457273641,"109":-0.0673687375278569,"110":-0.033940959756112124,"111":-0.0742893676160969,"112":-0.029160900442034756,"113":0.1490355273550662,"114":0.03618371715963378,"115":-0.03844899741147155,"116":0.041637529631091325,"117":0.15222738144600442,"118":0.17537948608545684,"119":-0.019486733665318813,"120":0.050571311606033446,"121":0.20907701478933133,"122":-0.029711741189482634,"123":0.010370461736838657,"124":-0.12434477891376279,"125":0.03490881627625036,"126":0.13321361384581604,"127":-0.16343705842746026,"128":-0.09916038075960583,"129":-0.01737148743074338,"130":0.04201192070831574,"131":0.0029603587994280855,"132":-0.09842015179289747,"133":0.05875679020615444,"134":0.0008357420738987029,"135":-0.04566987685773006,"136":0.025481682253807248,"137":-0.12842079038086945,"138":0.02136788254728525,"139":0.09040317656233111,"140":-0.08843289903202538,"141":0.07662051342650268,"142":0.041224306073746775,"143":0.009554800381230698,"144":-0.07528358528327891,"145":0.05566583044389427,"146":-0.06778948364468262,"147":0.03404667846969638,"148":0.09086429214068376,"149":0.027899189698740806,"150":-0.001838539735308772,"151":-0.02726710909244364,"152":-0.014340069273930315,"153":-0.11790443585072362,"154":0.07820941284596299,"155":0.02514868513578907,"156":-0.11332840233938286,"157":0.01607375533079796,"158":-0.043740108714765705}},{"sx":1,"sy":1,"depth":159,"w":{"0":0.07056515118654497,"1":0.021798401973096595,"2":0.1310193529469048,"3":-0.02953671243627123,"4":0.013473748430327531,"5":0.14155461812206216,"6":0.21069065863089245,"7":-0.018025963931505833,"8":0.08682456645351623,"9":0.08930933398896142,"10":-0.1489317187818057,"11":0.04612456583707778,"12":-0.012196356464942323,"13":-0.10432183736672472,"14":0.07300287009499881,"15":0.052799045939482626,"16":0.024526644444792186,"17":-0.042219325828628154,"18":0.06030396458994507,"19":-0.13891793076606088,"20":0.19790016739582755,"21":0.016280348956841946,"22":-0.06455263436195706,"23":0.024002681476541343,"24":0.14644978072026668,"25":-0.08931519007181987,"26":-0.09432042042600682,"27":0.08939830898471955,"28":-0.015645473802217893,"29":-0.13063611803457792,"30":-0.042601895827372484,"31":-0.04965163444456042,"32":0.12145476943416313,"33":0.05255933797978442,"34":0.05670424909221675,"35":-0.13917724536944764,"36":0.08453562662902013,"37":-0.056835082406673156,"38":0.14827266307357254,"39":-0.00438416940963214,"40":0.0389065114508649,"41":0.012614754273143737,"42":-0.14824587389254895,"43":-0.04074130958064351,"44":0.06379335033931051,"45":0.023655145831870387,"46":0.04373507895632614,"47":0.011175284111632204,"48":0.013972450662695231,"49":-0.01632667638945776,"50":0.09027002197009244,"51":0.02213810820819876,"52":-0.013595945509954336,"53":0.0442274441105685,"54":0.12796502632196288,"55":-0.041218099300096074,"56":0.0985175662433661,"57":0.03666104425639968,"58":0.0010742792170765159,"59":0.018722867555269033,"60":-0.04754845642223928,"61":0.11478817324925622,"62":-0.06911982629402968,"63":-0.012402451168501064,"64":0.10447254171022287,"65":-0.01469395918187464,"66":0.019525812716931674,"67":0.08272003622575992,"68":0.0408221308738743,"69":-0.06709561713338258,"70":-0.08046383998476307,"71":0.06128168670611476,"72":0.055369295410774025,"73":-0.008136182540093302,"74":0.08694984812245085,"75":0.08329653537497529,"76":-0.024592519411876183,"77":0.01634745813190391,"78":-0.08212501923294138,"79":0.012623494813212118,"80":-0.04166094784234726,"81":0.1341279188113081,"82":0.027157862854033668,"83":0.07640188811669898,"84":0.027878890118071462,"85":-0.11836163426331922,"86":0.03831024962212413,"87":0.07111822242299776,"88":0.02674770217126103,"89":0.04093186589899277,"90":0.04259032582984575,"91":0.05088120698034671,"92":-0.14397279752302025,"93":-0.14014032284130237,"94":-0.1397840596081533,"95":-0.18030190491688614,"96":-0.011741822968642953,"97":0.034265825671449875,"98":0.09108444723204949,"99":0.016901400427023885,"100":0.10196763707748734,"101":-0.014362520750011395,"102":0.11380810989008584,"103":0.030493248592812435,"104":0.07741763410006348,"105":-0.09414357471250874,"106":0.14251255664415352,"107":-0.07471023377461992,"108":0.025421053760764645,"109":-0.01440001811102691,"110":0.08639788224263754,"111":0.0136352753223581,"112":-0.07787270988304869,"113":-0.11076466711241566,"114":-0.06621361917183616,"115":0.019155107220280354,"116":-0.027147741004920886,"117":0.10460317150339549,"118":-0.07263292654024255,"119":0.017746338923393806,"120":-0.028922953402063294,"121":-0.08200518639558678,"122":-0.013906198913509232,"123":0.0612385975260223,"124":-0.06683027883433429,"125":0.14384338865844398,"126":0.06312181846770132,"127":-0.0775411194723546,"128":0.06576292099278225,"129":0.06567902446270824,"130":-0.07078810146521003,"131":-0.1328502755491486,"132":-0.04121827425173919,"133":-0.08026708529622537,"134":-0.05738271414457261,"135":-0.020664573261093357,"136":0.07229381235566595,"137":-0.056031457459272974,"138":-0.08136403585620802,"139":-0.14991662493174251,"140":0.013391338173000644,"141":0.07914335257490153,"142":-0.18171458799840262,"143":-0.11715424931737366,"144":0.02030080069855855,"145":-0.10018186379092013,"146":-0.010073946460496074,"147":-0.05248351442057298,"148":0.04996603515756365,"149":0.043366193860494104,"150":0.08936048673390641,"151":0.009680653923957967,"152":0.06911539913163137,"153":-0.06672400897594147,"154":-0.10474655147644983,"155":0.19123154911323387,"156":-0.012471740826972439,"157":0.08722693427368002,"158":-0.015754524191869883}},{"sx":1,"sy":1,"depth":159,"w":{"0":-0.06999074088401833,"1":-0.04658149756417921,"2":0.09639795717313206,"3":-0.08958668655649774,"4":0.13263647114680327,"5":0.07112906917788145,"6":-0.025558453810405345,"7":0.10806353646561369,"8":0.04288636470361141,"9":0.05285247589534992,"10":0.12128088288789439,"11":0.02130313534949272,"12":-0.023782340365464543,"13":0.024839708360193145,"14":0.04888618913482308,"15":-0.015844616324113627,"16":0.11248981529350553,"17":0.012643949176046046,"18":-0.026180780478280374,"19":0.15889739796173444,"20":-0.0180982088877265,"21":0.008380042931961217,"22":0.0372630142357004,"23":0.02947838918549433,"24":-0.11784750419860811,"25":0.036568540595430105,"26":-0.06857364971319936,"27":-0.08124585695955026,"28":0.04881123629807939,"29":-0.04155876558673669,"30":0.06464692656168868,"31":0.11790513054827667,"32":-0.0011368978795628525,"33":0.010794005203293405,"34":0.04357066057468287,"35":-0.04067234381477712,"36":0.03998337367211017,"37":0.017031974266374258,"38":-0.03318476905065898,"39":0.022586849178768534,"40":0.05384345030910297,"41":0.16044117130167174,"42":-0.011404389596018812,"43":-0.11304153690701273,"44":0.08377345422481415,"45":0.09044103717709571,"46":-0.18045426432583,"47":-0.04757522275228822,"48":0.04733456402083627,"49":0.007293181782317959,"50":0.015836087589921107,"51":-0.025180675864020587,"52":0.03759485092669938,"53":-0.012350048448164242,"54":-0.08003416731691644,"55":0.07795388574692193,"56":-0.0535303701455486,"57":0.05259605707639812,"58":-0.05164320659238942,"59":-0.007909977638788793,"60":-0.043086616133252244,"61":-0.10186297709651691,"62":0.10765810142470879,"63":0.09080131751147572,"64":-0.03590577385117051,"65":-0.027316762965792444,"66":-0.0825963549831354,"67":-0.02371892238702597,"68":-0.02062222307370402,"69":-0.12666300307144832,"70":0.053162766170987,"71":-0.07220070465538322,"72":0.12285797498831771,"73":0.02470940606395682,"74":-0.06069592591501605,"75":-0.033842100805155616,"76":0.09820004992815935,"77":-0.11975734751943122,"78":0.0942185089771597,"79":-0.11786573337219862,"80":0.048979703174342616,"81":0.037262620610004106,"82":-0.14246544095938454,"83":-0.07814726377353526,"84":-0.06306998076232605,"85":0.02560213989024981,"86":0.010040579538801683,"87":0.0022300465097458105,"88":0.23293471831855544,"89":0.020110224675589473,"90":-0.03311812739064406,"91":0.010497696926659248,"92":-0.1841415246635422,"93":0.13058372238298074,"94":0.06793639735528796,"95":0.021893712875543227,"96":0.06721726123373534,"97":-0.00872161413475284,"98":-0.0786116136202009,"99":-0.10814125310184268,"100":0.10789943481520381,"101":-0.05100133809040063,"102":-0.04160369931139151,"103":-0.09185553148625318,"104":0.05972521610661872,"105":0.005019390878145904,"106":0.011854438290259917,"107":0.175585444856442,"108":0.07107717587832478,"109":-0.053415136754797324,"110":0.03073578116779983,"111":0.042510621039356496,"112":-0.038600177742192814,"113":-0.05943264451134304,"114":0.06825334203254133,"115":0.022280260558094483,"116":0.058168879987492116,"117":0.07459502159211093,"118":0.1229076683300587,"119":0.12422071476499422,"120":0.12408681717300789,"121":0.06623639992545141,"122":-0.01867861944219853,"123":-0.004583139987904767,"124":0.07020368110462684,"125":-0.11714415805555989,"126":-0.052149982136205815,"127":0.03678000318411284,"128":-0.07581089815767703,"129":-0.12749867189749398,"130":0.02009902961411805,"131":-0.08383614141623966,"132":-0.0422861333131624,"133":-0.05999372237078388,"134":-0.028052442719096248,"135":0.022862287536004906,"136":0.03307047195763185,"137":-0.023932261472995063,"138":0.02428144013377489,"139":0.058534229842869524,"140":-0.10273055222262169,"141":-0.019642349308993667,"142":0.10350544080942287,"143":-0.0627818691926654,"144":-0.16276472963962246,"145":0.1367132015465202,"146":-0.03892806752249697,"147":0.014922597262094394,"148":-0.026839238882417005,"149":-0.04140480057601037,"150":0.10549471236551229,"151":-0.09444370011091446,"152":-0.08743804817309704,"153":-0.06301894456255563,"154":-0.16696280292816873,"155":0.038301583050530656,"156":0.02313606122114078,"157":0.007717411755888322,"158":-0.042514301472170064}},{"sx":1,"sy":1,"depth":159,"w":{"0":0.11834997688746571,"1":-0.14814456555721972,"2":-0.22017381490451726,"3":0.24548555609523312,"4":-0.11972399204831712,"5":-0.03131462887134855,"6":0.11317101534758606,"7":-0.011633720368200312,"8":0.022371820403929484,"9":0.12928633166221867,"10":0.04386232648469723,"11":-0.051016921201192764,"12":0.07090610825029355,"13":-0.05828591631197789,"14":0.04601760529400915,"15":0.12726366325578423,"16":0.06084208609190445,"17":-0.04959922293658794,"18":0.0882794298657685,"19":-0.037256631869464304,"20":-0.06438274468129802,"21":0.08650928246745017,"22":0.04171203046016104,"23":0.0546942252592041,"24":0.11521994724692303,"25":0.003008396728747648,"26":-0.026951380708054178,"27":0.10503043129249633,"28":-0.060774965972760456,"29":0.04406735522221491,"30":-0.02821119387514033,"31":-0.11649734225326935,"32":0.035260527229748186,"33":-0.14127843630206713,"34":0.052669948964327605,"35":0.08619162351891774,"36":0.11333420694323798,"37":-0.01959909583103242,"38":0.10982247113464204,"39":0.07971251392594007,"40":0.009371941080180081,"41":-0.07694136346654178,"42":0.0906205934911597,"43":0.11965049549199791,"44":0.06867433768290618,"45":0.016986757776171025,"46":0.0463422439831409,"47":-0.03826208822860456,"48":0.0629249149171311,"49":0.10733488647759615,"50":0.09571900086948759,"51":0.05950594546783785,"52":0.06992872739384193,"53":-0.0325867200805185,"54":0.12868962266700285,"55":0.012652479695805699,"56":-0.048910073492799064,"57":0.05727712519498716,"58":0.11752472483866375,"59":0.04777091065350892,"60":-0.06785934756731617,"61":-0.11259410079469374,"62":-0.07250774539720302,"63":-0.0035882923772028764,"64":0.06816063455739892,"65":0.041708524716630474,"66":-0.005306297869418568,"67":0.07518169595319125,"68":-0.10040367442098876,"69":0.16818379593511015,"70":-0.0006415809669746873,"71":0.09246957422746148,"72":0.007105383111353366,"73":-0.022418969443694692,"74":0.00563679939145513,"75":-0.021887976663335754,"76":-0.06716723402801957,"77":0.10636011647187905,"78":-0.004638826320884267,"79":0.05826635692722719,"80":-0.0697855255364084,"81":-0.145043478243652,"82":-0.05959440479622839,"83":0.04841103554692695,"84":-0.06532346225494168,"85":-0.07899643154698645,"86":-0.06706014879816255,"87":0.06747375572489456,"88":-0.1082228290771334,"89":0.007678479453190655,